-1.002081332159452609e+00 1.036259321553104185e+00 9.822527038725893389e-01 1.207892942679419761e-02 1.000446991580117073e+00 -9.922562837164612404e-01 9.815984601869479631e-01 9.912847005208140772e-01 9.734245929333024128e-01 -1.002618877739646974e+00 9.952001044215592618e-01 -2.493646897106203530e-03 -7.497060340484195144e-04 -9.996462538087833583e-01 9.852750478482726892e-01 -1.003296334495558995e+00 1.006009042441529333e+00 9.846057727909344193e-01 9.828507870691324255e-01 -1.305122776530727446e-02 -9.968344808259749223e-01 -1.009757594047997031e+00 -9.945857044893122723e-01 9.882147954446792726e-01 -1.000290428064058323e+00 -4.350506784119829475e-03
9.795432829235679872e-03 9.452293374207609844e-01 9.542983483249511956e-01 9.125983308923101348e-03 -4.690837263444558314e-02 9.692774061718911760e-01 1.014102974979186111e+00 -1.046134360700373023e+00 -9.415157249479415569e-01 -1.011556474105595755e-03 1.993705354843082825e-02 -9.290568257906214322e-01 1.757426121251055504e-03 4.304322536008148639e-03 -9.789128631561524463e-01 -9.958399273947330377e-01 1.048887288883348257e+00 1.084305111559857204e+00 8.823385160731778143e-01 1.000293745239928755e+00 -4.915868906219263840e-02 -1.305897059792310647e-02 -9.746562826083108311e-01 1.019766042997714894e+00 -9.634570133469302355e-01 1.856927023232242749e-02
-3.041097021580445037e-01 1.394995818591874270e-01 9.777845359240303624e-01 1.063774658830132891e+00 1.471214721330981190e-01 -6.352630429218604213e-01 -4.406168579324012263e-02 -1.850807273844287948e-01 7.471872140517391570e-01 -9.424170261130082604e-01 8.770944249478203059e-01 -9.615105924842785035e-01 -1.127120623277999556e+00 -1.424391584054496007e-01 6.179633968937680022e-01 -9.492335405432354989e-01 -1.027733598317637914e-02 1.180305231056476556e+00 -1.036847937370042744e-01 1.917247581478568885e-01 9.415232604017204077e-01 8.438684546347893223e-01 -9.872293243356382655e-03 -6.811364781896500631e-01 -9.300969296811832931e-01 2.661489268683669973e-01
7.922954130983825838e-01 -7.557388122444782530e-01 7.488816332521182340e-02 8.449118877551173856e-01 -9.071740676959806349e-01 8.787075227420108048e-01 8.053803636446511538e-01 1.118547938633241090e+00 -2.949195958555730218e-02 -1.825872371439064140e-02 8.342374408671896502e-01 7.054945734008642999e-01 -2.278020196039041434e-01 2.355995967038094704e-02 1.706668355624562372e-01 1.494177043709474517e-01 -5.819415980198956034e-02 9.125672526953418906e-01 9.106983293148940284e-01 7.751316564340593462e-02 -1.724140027523922980e-01 -1.078806350176857221e+00 1.030764292177243746e+00 1.243387149286079713e-01 8.074886887328427618e-03 -9.856941970176337220e-01
4.379947908437377413e-02 1.028871724179758029e+00 3.688149880880210035e-02 2.592504425279767641e-02 9.201856625006866741e-01 1.290093483816904252e-01 -8.757524019165821016e-01 -1.759033981203899089e-01 1.474304834477771775e-01 4.392830151999277399e-02 2.028437766910244980e-02 1.040658003782333613e-01 -9.352920552708693380e-01 -8.957901395464104577e-02 6.510425325301042454e-01 -3.164010556790587958e-01 -1.000310543988673917e+00 1.029332461268708476e+00 -8.119599512478437031e-01 -1.067878373688263771e+00 -8.252011976510735813e-01 -2.487549720163523548e-01 -1.186109739514685346e+00 8.191306434816356674e-01 2.196152852612586193e-01 -1.020085318776242866e+00
-1.669121855716147219e-03 8.053985160314807157e-01 -1.013011134542091130e+00 -1.041111866533344754e+00 -1.011961483414625773e+00 -1.394369726802076109e-03 8.516227860249521164e-01 -6.323368855479226391e-02 8.745375093441657421e-01 3.209344504582248292e-02 1.003195564274531826e+00 -9.468044090290054227e-01 8.334000077895223901e-01 -3.329658945443539353e-02 -1.086962462101662696e+00 -1.949078876382066838e-02 -8.450933136439813254e-01 1.022141210049475557e+00 -8.887316548487607104e-01 -1.036882016061425382e+00 9.658531342696395905e-01 9.393056228145898467e-01 9.170509595583965501e-01 -1.031836982858374885e+00 -1.051932821928279083e+00 9.335945734557071773e-01
-3.591795754667235357e-02 9.799967605055838193e-01 -9.685772151293908783e-01 -9.920641120159418014e-01 -1.207027804507386642e-01 -8.466075543907535250e-01 9.446390973426781190e-02 -8.566964322514769581e-01 9.221333317103125315e-02 7.495850973194341238e-01 -1.175554709585212798e+00 7.824521213904427064e-02 9.840099256499212910e-01 1.185989387641577936e-01 -8.773435653012474633e-01 -1.212226236158688297e-01 -6.391247818652762147e-02 7.652756074221728211e-02 8.737341524190194164e-01 -9.557455489537547422e-01 1.046955532527635568e-01 1.081895935715790680e+00 -9.409042834292428159e-01 7.033405803077381613e-01 -3.527460342804308174e-02 9.184819509826260830e-01
-9.202790293215784567e-02 -4.411019747192042595e-01 -7.940926375331781861e-02 -1.229440200281975287e-01 -6.301152972584328493e-02 -2.039922577967125061e+00 -1.128206824573487338e-01 -4.099994638671983771e-01 -1.596577555392481029e-01 2.638629878395208905e-01 -3.571283350174614957e-01 2.675251074580776156e-01 -2.869130677608973112e-01 -4.397545828868192341e-01 -9.197366683898661188e-02 4.907111089756288180e+00 -2.322996898342363503e-01 -4.229906697012561501e-01 -1.633553066308520429e-01 -1.053362449287237046e-01 -8.285425249851097185e-02 -1.010941733111100360e-01 6.714429991946133103e-02 -1.779503696340140884e-01 -3.520487081996270806e-01 -5.486549841454049226e-01
-1.000000621619968166e+00 -9.999980724849509839e-01 -2.256045016316207889e-06 -9.999964333495823254e-01 9.999979019198000918e-01 2.250624404790150986e-06 1.294713620085631147e-06 -3.953909343261191151e-06 -2.206940039724799393e-06 9.999965832897232954e-01 1.000003550536321173e+00 1.000005418762105025e+00 1.000003221219164962e+00 1.000001185918401703e+00 9.999955508884276201e-01 -9.999948593380557638e-01 1.000012751126793553e+00 -9.999971570000647514e-01 -9.999962554873006448e-01 -5.877407822554829496e-07 1.000001753904848689e+00 -3.592375474073838699e-06 -1.000001370419429492e+00 2.905981087137538568e-06 1.000004645538381975e+00 1.908818253503877803e-07
9.938835396311288539e-01 -2.680686236677631493e-02 -1.008297701938279944e+00 9.907108262899000373e-01 -6.794996935661966504e-03 1.002540673453446551e+00 -7.075976634219781174e-03 -9.888726605052873264e-01 1.005663517580699162e+00 -9.939334636119123711e-01 -1.819843514105030577e-02 -7.404245401291734271e-04 -1.009532006509024749e+00 -1.716044187292478304e-02 1.007667877143632484e+00 9.905403697955580400e-01 -1.013810344883097292e+00 -9.880360808336431377e-01 9.922136095902879260e-01 4.461524351305705795e-04 -1.020053896763776669e+00 -1.016551513295641529e+00 8.677935862133374575e-03 -1.694277152105598191e-02 9.566683847036977495e-01 -9.991795861096907094e-01
4.277645258506219093e-03 1.054063202249527986e+00 -9.797017473653505393e-01 -8.129563972486479606e-03 -9.865266647943800038e-01 -9.719229316113060513e-01 -9.549825212100923055e-01 -1.016521926795491249e+00 9.850980405611992063e-01 9.494722865811956458e-01 -1.047486897043070408e+00 -9.958199556950214637e-01 3.099988004914958767e-02 -1.026131762456833352e+00 9.390370065427197099e-01 -4.790941238937859031e-02 1.099717704618146177e-02 -1.010455873922635250e+00 1.055320906743730136e+00 9.843996727605608399e-01 -1.054590497086464129e+00 -1.050902204058899336e+00 1.048882982263075192e+00 9.588646056131011619e-01 -1.061584264382587239e+00 9.463133347194807587e-01
-9.988694233545828416e-01 5.024323732445666602e-02 -9.731902634711144806e-01 -1.002312124972589258e+00 1.011818590788749583e+00 1.024666879426619603e+00 4.477262566415544931e-02 -1.020209877031421852e+00 9.857431708361059641e-01 9.460255933024049879e-01 9.534318657344337256e-01 -9.955830148802511381e-01 1.028023410382626901e+00 -1.013961574854645109e+00 -6.071714713426297483e-02 9.474013511365962925e-01 9.974152594974899921e-01 -1.010333120618498670e+00 -9.457778311256578307e-01 -1.006154135815222395e+00 9.516928054783505564e-01 9.481741894962366635e-01 1.039856515238095191e+00 -4.462502306512772243e-02 9.353182583031064423e-01 -5.769829671058773757e-02
1.669912039738013707e-02 2.625007186498700545e-03 -1.007277439359801186e+00 -9.922026908952290558e-01 1.085888504258637202e-04 1.002171679897811973e+00 -2.580199199990251390e-03 8.232813311819385700e-04 7.596324174728457833e-04 1.000142400114237384e+00 -2.740620494996905479e-03 4.592947188904397335e-03 9.841250480980862081e-01 9.979199555380330322e-01 -3.840671902306257417e-03 -9.920451048580068987e-01 -9.977177059247338553e-01 -1.000545430318470430e+00 3.148080112992977537e-03 3.691400175763097716e-03 -1.109594423062180112e-02 -9.950449260331996060e-01 9.942562693802899920e-01 -1.001983309096188934e+00 9.989010243564248048e-01 -9.927865293176847405e-01
1.429668845669939403e-01 -9.398552637908447194e-01 9.888963562316335221e-01 9.288639257379281977e-01 -9.480502176119387503e-01 1.013763726930497100e+00 -9.549253662139833843e-01 -6.807102732549245860e-02 -1.083627196338599052e+00 -1.038948951210747929e+00 -1.080254298426881254e+00 -7.897602025032107731e-02 -1.009796283674487372e+00 -1.539160561648975252e-02 4.277010633561525998e-02 -9.409463293915895088e-01 1.027185422910639856e+00 2.865796133780911317e-02 8.933078825848771443e-01 -9.513776050401104856e-01 9.650754600619910750e-01 -9.688600757712745315e-01 2.598379673683957544e-02 -1.099912246446293693e-02 -2.550789317461818820e-02 -9.553675941354243806e-01
-2.648865873312338248e-01 -1.549737276478467263e-01 -3.983144652075173431e-01 1.161575381923674266e+00 1.170073196476125177e-01 -7.839886402968427870e-01 7.208837430997824258e-01 -1.006735606726952142e-01 -7.730638157153285617e-02 -3.139391346024388851e-01 -4.225593691265027152e-01 4.680090240402359214e-01 3.551213691343630963e-01 -9.129976111854738730e-02 3.890195551074954183e-01 2.806332222570149804e-01 -1.551041032416441701e-01 2.750856945248508767e-01 6.131615070099785125e-01 -1.068801170037095433e-01 -1.072547372717358449e-01 1.173628953923910910e-03 3.897543326961610544e-01 -2.318609239762378094e-01 -3.483461846867833001e-01 -3.749545218827292081e-01
9.197565414100771219e-01 -2.676617550529485912e-01 9.093030263329794360e-01 -1.542115278949668655e-01 -1.068445993024721291e-01 -1.036706133150322895e+00 -9.611949223558896582e-01 -9.578555861592071841e-01 6.469209131952740055e-01 -8.862058734141555760e-01 -8.751163392897058635e-02 -9.666191747352667618e-02 8.342356259745308256e-01 -3.119809659630006643e-02 -6.030771643439133967e-02 -6.672222359215383702e-02 -9.568599398580501791e-01 9.343359990250345026e-01 8.560471933528055466e-01 8.583962272084945389e-02 5.407372924918515261e-02 -9.811166918352219879e-01 9.490061596867748195e-01 8.138105643945755530e-01 3.010471918764918986e-02 8.340734404314469330e-01
-1.633927198366781630e-01 7.851196596050289411e-01 -9.144160754515494594e-01 -9.049197166207889609e-01 8.115357342589234468e-01 6.648420642448149565e-02 9.952558494657729460e-01 9.109297139382971364e-01 7.343711440088157572e-01 -9.609773658318757628e-01 -8.985900570421366806e-01 -7.749463006904250273e-02 9.025721919188673947e-01 7.909388057166242270e-01 -8.514753676586287456e-01 8.759820034271904587e-01 -9.040751032645472085e-01 8.543278241097360115e-02 -2.060734509036002693e-01 -9.272499924232832091e-01 -8.554812106223962376e-01 8.698375850190083192e-01 8.677633965584481690e-02 -1.125957612386273787e+00 9.160968951243922964e-01 1.325744351309090741e+00
9.958760244272503170e-01 1.034887673621460280e+00 1.017720454585727241e+00 -9.824714853887096533e-01 1.014751783807124275e+00 -9.663815031946395573e-01 1.048933811006211858e+00 -1.001470205053595963e+00 -1.053920703059917259e-02 9.482184448218534678e-01 9.552717375184945903e-01 1.931303803834265309e-02 5.142606383225371142e-02 -1.011537996775154102e+00 -6.052966016036336050e-02 -1.060374099651071766e+00 1.015830332337627206e+00 -6.404988420044732851e-03 4.573848927029774275e-02 -2.791272598999096355e-02 -5.640310021666873619e-02 9.563443809683987995e-01 -9.841720020423361248e-01 -1.022494668688712638e+00 -1.061398269107746817e+00 -5.796073459240866366e-02
8.966895653444342806e-02 -9.966575730920893550e-01 6.291171612639614996e-02 8.226467414989522275e-01 1.061781681166989122e+00 -1.670996712518462712e-01 1.208999030809474684e+00 -8.429779506184472693e-01 -1.837461021862519250e-01 8.540655998614985478e-01 2.207220436869087102e-02 1.135716884540028393e-01 1.033697321698046068e+00 8.265975564030768608e-01 -2.781480936464621190e-02 -5.531115282549424472e-02 9.996946374120607715e-01 -2.168206568217386498e-01 1.075834671959425171e+00 -9.955679064326511396e-01 8.883208430236642084e-01 8.522925718256216809e-01 8.505638793144738585e-01 -8.674841227767313701e-01 1.672456257503412980e-02 -9.032172536097460291e-01
6.287891115763991588e-03 1.045639523659083636e+00 1.020338749902313547e+00 9.913473736887776777e-01 1.270015235743720237e-02 2.878295372390867607e-02 1.046590615430306404e+00 -1.602034763612506310e-02 -1.013454800847919390e+00 -5.087468863132788705e-02 -4.830484882382073825e-02 -9.957018951467018208e-01 1.031453346919340097e+00 -2.487894616634843750e-02 -1.061379114472811969e+00 -4.763295733444854879e-02 1.183500025103480062e-02 9.912934175848582274e-01 5.584940870921919348e-02 -1.015962734138515566e+00 -5.513618766787061615e-02 9.496433986868155763e-01 4.855734841886867603e-02 -4.223506937695517549e-02 -1.061176165069248833e+00 9.468825291936799893e-01
3.237063630895703481e-02 -9.382180154595702870e-01 1.027866965140342925e+00 -8.752051125827609024e-01 9.695761523654431446e-01 9.795951694772022655e-01 -9.541335479818016108e-01 6.743001047419774907e-02 -9.851609142860320301e-01 -1.048470022520856304e+00 9.241502559665020211e-01 -9.491486925648614514e-01 9.991030232937199163e-01 -9.748049400294956923e-01 -1.022612137906633301e+00 -3.866055162448313320e-02 -9.751519157205273958e-02 2.116713047648420207e-02 6.340857002709991697e-02 -9.567176891600236432e-01 -1.956653197896348131e-02 -1.019980911336721530e+00 1.000271721836696770e+00 -2.820254205669774084e-02 -1.060824861689823262e+00 9.097138226444434483e-01
-1.322899023281672200e-02 -2.512914637156363207e-01 1.074778237023523708e-01 3.031047488314646612e-02 3.542869061890916993e-01 4.989170983928459258e-01 2.971454927212100611e-03 9.302364566076187780e-02 -1.659406740999756602e+00 1.358598555671211461e+00 9.160460797642880348e-02 5.028918759340276351e-02 -4.935985262727989042e-02 9.528608429866159205e-03 -6.877657808783883830e-02 1.556452471286907391e-01 1.737743903098937504e-01 -3.796554587113248891e-01 1.755483041744624606e-01 -1.241928727296307988e+00 1.770224683332105586e-01 1.270490587448546982e-01 2.276460132582870319e-02 -6.676763921328277007e-02 1.934911647392923983e-01 -2.181941413263540630e-01
8.684965521321670323e-01 1.025739894470016678e+00 1.002759986260771674e+00 8.883456419606278187e-01 1.036730133087317984e-01 4.807338550868576338e-02 -1.312823692661079511e-01 -1.551591647930929407e-01 2.643317188125229866e-02 -8.879815132064836636e-01 -1.116401741872355302e+00 1.011254641174488933e+00 1.362854603867891812e-01 -1.965838361951807375e-02 9.342010911351309455e-01 5.055875613353008613e-02 -2.190621935644008686e-03 -8.176312006050019399e-01 -8.737767268989037328e-01 -8.251683911181489917e-01 9.823881933333382666e-01 7.933269657649768547e-01 -9.234795107610186404e-01 7.949289764991950280e-01 8.992639316525645743e-01 6.708885792133877091e-02
-1.054232721158155472e+00 3.339779331517944150e-01 9.550209856214502135e-01 3.860307208770771131e-02 -9.478879171286483940e-01 -4.038946427963995001e-02 9.384627986020803725e-01 -1.018335458003681415e+00 -8.716104546272146480e-02 -9.717242042515193967e-01 -9.710708622241414067e-01 -4.488429438082077588e-02 9.045259779698845426e-01 8.903238013378694804e-01 -9.358761605689002172e-01 9.063331203738618225e-01 -1.035556318689332400e+00 -9.299440950813474271e-02 -1.015468228880872514e+00 -9.793966535781424287e-01 9.893507614406220618e-01 -9.365775551436933410e-02 -9.515286734100786292e-01 -8.241505127878018602e-03 -3.816067368232727020e-02 -1.554192539684306484e-01
-3.424221446152408282e-02 -2.744955810062499335e-01 -2.792715687310220671e-02 -1.540891272719148164e-01 6.718846202431031679e-03 -9.467470444598108381e-01 4.510055237440273590e-01 -1.165738696704141444e-02 2.450504078190798019e-01 7.463730702794346694e-01 -6.268781103747009809e-01 -8.109005167071405007e-02 -5.032408548142517368e-01 1.002680405642785572e-01 -2.635010126482764323e-02 -2.725550802153982044e-01 4.902568502598320804e-02 -9.039939723297459040e-02 -4.243036650587567182e-01 2.505504054167067007e-01 -1.301340130714519761e-01 1.805024782918789039e-02 -2.760768684016947638e-01 -1.449626332358686653e-01 -2.206352590654898638e-01 2.643913253190750545e+00
-6.615317056820632646e-02 -5.115111549807660474e-01 6.442048160248923239e-01 3.424688140790996815e-01 3.373116412241974338e-01 -3.510073000591782955e-01 3.094615746139465773e-01 -1.276078775549705502e-01 8.159076234614714984e-02 2.744248076815377080e-01 -2.830402293124447133e-01 -3.469709918076103738e-01 -1.464734340807940516e-01 4.384655678969142101e-01 -1.667437085214861447e+00 4.940519890047536111e-01 8.616294544431561675e-02 -2.288075388172605140e-01 9.996377836182142040e-01 1.221509096517692655e-01 1.461904637582442379e-01 3.063932086669619581e-01 3.778827126019342897e-01 -5.227120222138944422e-02 -1.640789758552647359e-01 -1.298740208751746616e-01
-1.031256851244491957e+00 -1.413847611868014054e-01 9.744038325443049597e-01 -9.398903037301984398e-01 -8.678658135583520172e-01 -9.816804244261363444e-01 3.601443934621494092e-02 -3.315367872469206223e-02 1.035003196066408560e+00 -9.926047386236692277e-03 -3.085119962596376275e-02 7.053952711942695908e-02 4.848216958664654935e-02 9.794624877564090948e-01 -1.030756799699008353e+00 -9.219202615723249838e-01 -1.044299315432726909e-02 1.547745655716088742e-01 -8.992680470902731926e-01 -9.400788317410451178e-01 -1.034465847140957351e+00 -9.584370401057170641e-01 1.105705707274286242e-02 1.003922345629530977e+00 9.557657229587700476e-01 1.034165821226495696e+00
1.675526471172759102e-01 -2.168953367192439641e-01 -1.893665857259843044e-01 -5.029556339401070053e-01 4.857335439229906737e-01 8.729835069077341858e-01 2.839608708258016811e-01 -6.910982867081942246e-03 7.532670938986364695e-02 2.640281924367416932e-01 -4.101802752740166813e-01 -4.813654753379305040e-01 1.015888389081041510e+00 -1.350748606438528343e+00 2.441972590671681320e-01 7.148886597103638607e-01 3.626563224948289171e-02 -5.460202981542719991e-01 2.940123455300038824e-01 -2.593851845080151208e-01 -6.213858721836730270e-01 -9.276289253054417205e-01 2.069696693823917522e-01 -2.972832148336200797e-01 2.033974752751918635e-01 -8.842188375764854780e-02
8.234689975922416805e-01 1.118254637974944510e+00 -8.747405167802549397e-02 2.129969387875900177e-01 9.300508826234742399e-01 -8.016556096843707735e-01 -7.681704765060709539e-01 1.318955458383688439e+00 7.476904454834164548e-01 7.803894275046551199e-01 9.616861689949522951e-01 -1.060740444981373154e-01 9.271631661057786467e-01 -3.712616999466079037e-01 -8.451519267221154763e-01 8.336501925072247188e-01 8.169812872838098095e-01 5.251447315780523317e-02 -6.880632616993334269e-03 8.816558245900879554e-01 -4.292635293345371805e-03 7.901789702679290484e-01 -9.396597274834779245e-01 -7.950462821279149495e-01 -9.597645496570118562e-01 8.366617786129618706e-01
9.985872085173501667e-01 -7.845820089775589617e-03 1.943000305709916692e-02 -1.134735722380435415e-02 -1.001469145730533139e+00 1.016033109040317184e+00 -9.632214588930775312e-01 9.915269286838490626e-01 9.740785786050925044e-01 -1.029000322566029135e+00 -4.448438893568180258e-02 1.036303128131019768e+00 1.019575599722849946e+00 -7.751827168819108195e-03 -5.651183229163080773e-02 -4.873151477293695411e-02 -9.698044185753673663e-01 -9.852215291542881781e-01 1.077700427222652246e+00 -1.016089343916913634e+00 9.402074814207946885e-01 -4.900804516630889729e-02 -9.468315263975165541e-01 9.692415675866441482e-01 -1.033964256204718657e+00 9.369102361641594712e-01
-1.554812452546768106e-03 2.546544007901326272e-03 1.001637832728335509e+00 9.967046717379757226e-01 -3.845625987577594332e-04 -7.212195667713314565e-03 1.001956556988523817e+00 9.992361539072728283e-01 1.621364140410686255e-03 1.285008419844452634e-03 -9.987491467061470063e-01 -9.978805383616095037e-01 7.073835251490780997e-03 1.681757621755915286e-04 9.929090397851335625e-01 9.955279886321993787e-01 9.979017145001789491e-01 9.938463160921335859e-01 -2.242470387609844275e-03 1.002359658668668052e+00 9.892708599814410420e-01 1.001340504435282996e+00 1.000375530012376224e+00 1.359571625738013878e-03 1.002355623444222132e+00 1.002132141028487800e+00
-9.269098354815010765e-01 -6.579508641233178245e-01 -7.716794629897180124e-01 -1.075294651434119952e-01 8.781231558449649199e-01 9.115415658497418028e-02 1.145201903719854197e+00 9.940126864524583272e-01 9.636774389774673821e-01 4.046329070262756622e-02 2.049059593469607782e-02 -8.626898730475411892e-01 1.015170856069123495e+00 5.592028221400036081e-01 -1.367442178913975681e-01 -6.595178641852810220e-01 -6.846035376405329442e-01 -1.594362644637137283e-01 1.396199536523995595e-02 9.790361963027340853e-01 -1.043433267243131457e+00 -1.064208767354666518e+00 -8.685720498950113555e-01 -6.175958359583148122e-02 -8.024429661149030668e-01 8.821426113290337101e-01
-7.011891016013895028e-02 2.420127715718627393e-01 6.731589684849593747e-01 6.777088509424598062e-01 5.843929274237167487e-02 1.027761947466992121e+00 5.124815323403608680e-01 7.922149115166541300e-01 1.008154176981804095e+00 -6.733720789519213046e-01 -1.613632649772710037e+00 1.287670557486128908e+00 -5.381811832287915903e-02 -9.229991077106391995e-02 4.511493467300499438e-02 7.896846860225410492e-01 1.163490500182285281e+00 3.027960804303668207e-01 -1.047150894687233436e+00 -9.853710129812440766e-01 6.167633909964276295e-02 -5.686453891583395093e-01 3.163679814252127742e-01 -2.043634632372219317e-01 -7.995070308483606114e-01 -1.843383156187155814e-01
-9.985751247526328811e-01 9.990926172461775945e-01 9.999800949655407445e-01 1.000032667024806754e+00 -9.992657952107216746e-01 1.000245676127697880e+00 9.112809472426762133e-04 9.996627782293573405e-01 1.000178542177648788e+00 -9.996844698279306884e-01 3.661870541874114710e-04 6.438279019548582682e-04 3.716642534421950848e-04 9.991849715207964389e-01 -3.192710500116376668e-04 -1.066123228394312127e-03 -1.003117322731471583e+00 -2.949223133523423712e-04 -5.539319198872562312e-04 1.000246086866161122e+00 1.000065495509654845e+00 7.651724098068895391e-04 1.001860195117808106e+00 9.996119016490134790e-01 -1.000156512601981351e+00 -4.500564108440682949e-04
-9.999999999988031796e-01 1.000000000000578870e+00 9.999999999983872900e-01 1.761506894222379460e-13 8.641339617990537322e-13 9.596603582205356419e-13 1.940478738136908781e-12 9.999999999997544187e-01 9.999999999992360555e-01 -1.498274261755027956e-13 1.000000000001890488e+00 1.785638782844799330e-12 -9.999999999987001509e-01 -9.999999999990851762e-01 -1.000000000001015410e+00 9.999999999990215604e-01 -1.620600946799927324e-12 7.368853294408886852e-13 -9.999999999998672173e-01 -1.173706068060214377e-12 4.683231719230416857e-13 -1.268241159881838784e-12 -1.424164980887578277e-12 1.000000000001065148e+00 1.000000000000263789e+00 -1.453783946524762164e-12
3.401394131273815374e-02 1.143666902783753714e-01 1.047781927025896120e+00 -1.024196465104390663e+00 -9.063739307953397883e-01 3.788639099197008836e-02 -8.866592185072212917e-01 -9.855659877622039433e-01 -7.337983195183778173e-01 -1.148554847537799385e-02 -8.805192530302432055e-03 9.597769540265272958e-01 1.055043972680015374e+00 9.281800074893031827e-01 9.319504136511199202e-03 -1.026421123018863568e+00 -9.713208566246522846e-01 -9.553268996204995478e-01 -8.646463466135212439e-01 9.478357210173291719e-03 1.726862557300583995e-02 -4.859883651776054081e-01 1.074205416268902979e+00 -6.987298576716436185e-03 1.299112650628506394e-01 9.518370317950582971e-01
9.800168826660169419e-01 -9.600934915541301518e-01 -9.236678950078486272e-01 -9.705164666170255083e-01 -9.569316519333417315e-01 -9.404929021703807290e-01 -9.348193226982186577e-01 -9.697622851549084766e-01 -5.002598258557255928e-02 -4.458259608472602172e-03 1.235173662524565244e-02 1.047402798366835697e+00 2.118622975313546111e-02 -9.429136191865015171e-01 9.691305150775605393e-01 -9.901715965710164991e-01 -9.588546851250024927e-01 -3.289481131256836305e-02 -2.366443554266516730e-02 3.883570253030455693e-02 -1.051750140722479188e+00 -9.860024723358103982e-01 1.916844781629203909e-02 -9.919768649690549056e-01 9.172581712286119737e-01 -4.276235853817333954e-02
6.963842705660618915e-01 -9.441148061737588693e-01 8.856624911253934140e-01 2.354439608373786602e-02 8.907632017481782460e-01 -3.677074189722498443e-02 4.107823534488223155e-02 -8.432255722284547339e-01 1.004301798072865903e+00 1.083306198498880768e+00 9.367964252741916020e-01 9.470748803004658267e-01 -7.521581833054076238e-01 -9.536087183802072209e-01 8.588364901450303845e-01 2.764801876678061807e-02 9.891506833796821496e-01 -7.964856155302412200e-01 -9.384267539326752727e-01 4.334183756919723907e-02 5.421080166348700435e-02 9.678096923437392585e-01 -8.361628996601774277e-01 2.750330372325185402e-02 -1.041600911142764180e-02 -8.506594198876710200e-01
-6.967463597573070322e-01 3.000832844327792071e-01 -5.563220312553937563e-02 -4.426004663598637756e-01 4.812353258401029787e-01 -2.651349837328237369e-01 -4.766110297417671116e-01 3.786696932758636946e-01 -2.058651809569078672e-01 7.008527291048768371e-01 1.946914077041549673e-01 -6.507840416323835697e-01 4.226293979183000094e-01 3.708998606113514396e-01 5.689857264010063087e-01 1.901828283477239034e-01 7.322121063062073665e-01 -9.944670242011328654e-01 -2.026389694835798450e-01 1.107711987947107568e+00 -5.111317979434389924e-01 -1.400295958278710562e-01 -1.558806950255542390e-01 -9.834219755783872863e-01 -1.764729748166446177e-01 3.332638197055122764e-01
-1.165507695743830952e-02 5.309514842985402217e-01 -5.132728182029539649e-02 -9.510029937121887433e-02 5.107042028814051671e-02 -1.017605842284633022e+00 3.089403885367235425e+00 1.047302884455105776e-01 1.490721870485496037e-01 5.506304362743799086e-01 -1.258265341092723866e-01 -4.522648271786514074e-02 -1.748104045478066429e-02 4.452187865109268339e-01 -5.444833206732090369e-01 2.893049726053121273e-01 -2.457354945821675685e+00 -1.017908487526172356e-01 -5.381739874740560925e-01 1.306307608717139357e-01 -2.615762102616848994e-02 9.475719159012244153e-02 -1.555335065273616146e-01 1.917544892828314251e-01 1.493031386788548354e-01 8.492794621991017756e-02
-9.420707074269489834e-01 9.430840827899705792e-01 1.019345595757283451e+00 1.125033685089429136e+00 3.592594254488740840e-02 9.774009952534166157e-01 9.582470687266015918e-01 1.010211589760891648e+00 -1.002091165365587955e+00 -8.295159536593758876e-03 -9.839921392754261698e-01 2.905935165824728716e-02 8.889110875638810416e-01 -7.816559944447104558e-01 -3.275061350955956740e-01 9.471428217804164218e-01 -9.966487962195957895e-01 8.884877206870644972e-01 1.132129929732148266e-01 9.648464257332817207e-01 -8.912123653708871052e-01 -8.693610632989090536e-01 9.561323911281295329e-01 -7.943522712375147288e-01 -5.278596328832220463e-02 9.664714746235232579e-02
-1.000932792992835552e+00 -2.276786033627109865e-02 9.318769295035089772e-01 -2.853233842197021655e-02 9.973642238451045916e-01 -3.040084293857315753e-02 -3.458000747350461600e-03 -2.771467008591349881e-02 -1.002491290132048629e+00 -9.793321461651797177e-01 -3.645057228085279294e-02 9.683557191091082261e-01 9.734091861481100061e-01 9.217743258532890005e-01 -3.816407132772872517e-03 -4.587392216944091022e-02 9.702795375846843262e-01 -9.488425499754161718e-01 -1.050982739619036634e-02 9.562991486968580590e-01 9.528412719980249301e-01 -3.580297560958275310e-02 -2.480736971486939557e-02 1.006246476810672918e+00 -1.460592759855369391e-02 9.788472382836790331e-01
8.350569825580503869e-01 8.756799532234658123e-01 5.363183895635829923e-02 -8.861476563369249382e-01 -2.200446499621447893e-01 -2.262612099497552931e-01 9.985048906806269775e-01 1.618493237264955198e-01 4.196408848690756990e-03 -8.972876892898046242e-01 -8.716007912538480396e-01 9.974598671953193163e-01 -8.904206218791258509e-01 9.361193582355527287e-02 8.950613733694150476e-01 -1.055417185445962636e+00 -7.462882624381200758e-01 5.670145850782247754e-01 -9.146840623634299172e-01 -6.217928041047997637e-03 8.272269308487329997e-01 9.188883813866922656e-01 -4.300061045454125694e-03 8.491327205772088993e-01 -1.029239850605478734e+00 -1.679138635693112891e-01
1.438937790405024897e-01 -1.011309359877783365e+00 -9.717107129549334976e-01 -7.878503785398105475e-01 -1.521316643341428382e-02 8.905371674921107594e-01 -8.716745828577061594e-01 -1.597757067064819320e-02 1.005282768468847010e+00 3.610777683078729341e-03 1.971668204313194450e-01 8.113326656295093489e-03 -1.040598566649090007e+00 8.792649165473904738e-01 9.168475178389565716e-01 -9.759194640211760197e-01 -9.495084099654037546e-01 1.095221955316973084e+00 -1.006863639288611889e+00 -9.788479948367728722e-01 9.477931898424714063e-01 8.962970682790005750e-01 -1.081926044481064997e+00 -5.905009789280726284e-01 8.164264085369197232e-01 5.757636360436967776e-02
-1.108703455440252731e-03 3.436590160996997462e-02 1.014819720478174148e+00 -3.285611901016169574e-05 -9.596277563104214092e-01 3.892376988124871678e-02 2.630296434091775395e-02 9.622220925123564639e-01 -9.857638728336201028e-01 -1.028869242406757367e+00 9.361370701390701043e-01 -1.006132832805155530e+00 1.063559328555749861e+00 9.386994155996685185e-01 -6.138892397068024948e-02 9.194717789700976862e-01 8.986859850924074078e-03 -1.010006714335872857e+00 -9.343592434594670815e-01 -1.016568252076754719e+00 9.652568576285758262e-01 -2.186230085885733712e-02 -9.304925522065221610e-01 9.225978778042206452e-01 9.359203266931716003e-01 -6.806102434004472623e-02
1.100667429954765332e-02 3.056017032206574061e-03 1.549837696120775869e-02 9.908974701510070426e-01 1.010520078367038499e+00 -9.987769924308329550e-01 9.958119152861640844e-01 -9.893085104912908712e-01 -3.702466756829693451e-02 1.033477035254212417e+00 -9.913630747371867669e-01 -9.929483828087738440e-01 -1.004159566792229175e+00 9.782240537037731887e-01 9.945375898836802397e-01 9.922675946901046151e-01 9.989625610983772219e-01 9.811219059511143703e-01 9.731187361599294983e-01 -8.543883114289791553e-03 -9.995635336365858992e-01 -1.050826531504591745e-02 -9.888595540335612943e-01 9.642961445034303747e-01 9.979037677119886318e-01 2.898393836759469849e-02
-9.957604894219860281e-01 -9.460070310728428966e-01 2.034661768804246762e-02 9.918888844056313880e-01 1.351739112125833163e-02 2.824008130290404581e-02 4.501317540893797625e-02 9.833767800876439535e-01 9.851766831836911154e-01 -5.047717267709744132e-02 -1.047549608686794587e+00 4.285608358125921058e-03 1.030870863767689105e+00 -1.026133118432489333e+00 -1.061197340812360279e+00 9.515332240758899163e-01 1.010992145195597880e+00 -1.010415394129722921e+00 1.055491891572567509e+00 -1.015577467850805604e+00 9.455813599623825727e-01 -1.051051764007733258e+00 1.048673791253091014e+00 -4.126033778190477119e-02 9.388397538922665930e-01 -5.374122510810287745e-02
-7.192752978305373412e-01 -9.461329525426040998e-01 5.529591712441519480e-01 1.296962320984979211e+00 -9.588107137774370958e-02 7.282858796091350173e-02 1.118721006486290692e+00 -8.989863439191542183e-01 -8.022844764367347004e-02 -2.539447517207454319e-01 -5.639656256032319487e-02 -1.023652089290736922e-01 -7.197860773849902062e-03 8.140386939446011549e-01 8.361841652753545517e-01 -3.508584809985056396e-01 6.498147852455492535e-01 -3.136615294429137557e-02 9.609388116283191783e-01 -8.765415814345386414e-01 5.915497463240274589e-01 -8.343558119735447476e-02 -7.694475178295760998e-01 -4.176110863208554874e-02 7.592892097326600087e-01 -9.082260578127020478e-01
-1.726891229969596542e-01 -8.245739645518532779e-01 -7.794558816395447814e-03 -1.076212537472020614e+00 1.151765477204252930e+00 9.573477257801156215e-01 -9.563664279414952896e-01 -7.881387220087425483e-02 -8.768015650545557538e-02 9.178943262570339323e-01 9.312858738719614893e-01 -7.950436938164492373e-01 -9.406355456962658401e-01 -1.061596649064771469e+00 -1.033878534489375722e+00 3.012140592442414944e-01 9.315508803806906712e-01 8.742275708830803405e-01 1.212313089566651320e-01 1.460988150571182198e-01 -1.118201914548669462e+00 1.005054116065859926e+00 1.661755509404368517e-02 -1.039030237719661409e+00 1.136240452955151081e+00 -7.593457260509914875e-01
9.850714684175300162e-01 -9.583456303379719321e-01 1.001353225496234733e+00 9.337995997357170230e-01 5.606229611579414615e-03 1.001267977696368661e+00 1.050355700222450839e+00 4.030437088756894624e-03 8.607449148711501102e-03 -7.981669466513589828e-02 9.545368997233547592e-01 6.357391540190684975e-02 9.753360804110010607e-01 -4.028778308113024897e-03 -1.132000990320475742e+00 5.605586629377919128e-02 2.437107509169495270e-02 9.485319753173407920e-01 6.770981840019026088e-02 -1.004873569967759561e+00 9.582954237219434290e-01 9.795221119011610078e-01 1.054184977003563173e+00 9.853485716762538926e-01 9.494213639122489612e-01 -9.512072170422227746e-01
5.739414906420896578e-01 2.602967842780106178e-01 2.747131827184614572e-01 9.689565795335083331e-01 -1.013640701860459625e+00 -8.832906052291500387e-02 -1.275879243690083653e+00 -5.586856522218932013e-04 -9.916276127822024611e-01 -9.489054042090590002e-01 -9.471655351446841564e-01 -9.277911040263963072e-01 -9.023604977009122008e-01 2.612025261846646629e-01 5.706029770174496363e-02 9.606811176570707600e-01 1.163421462407954188e+00 9.142148085553868375e-01 -9.417935469577189134e-02 1.022326159249692168e+00 9.726891313310455089e-01 -5.407257804533194268e-02 1.212826684613912409e-01 7.608067988496726164e-01 -8.456608464613658560e-01 -8.897974213045700687e-01
-2.145121092939518137e-01 4.510688632260825837e-03 -2.452758365731260437e-01 1.015331851538813501e-01 -3.727273507271539055e-01 -7.620125667066244279e-01 -2.756914188061237447e-01 5.520034425057943617e-01 2.852736279545088349e-01 2.351483197714857865e-01 -5.795305921780202763e-01 5.056551749208295643e-01 -1.237150413166523855e+00 5.312945827477165706e-01 -1.468460343390787515e-01 -2.103604381099384302e-01 -2.067969734401300663e-01 -9.858253358433090308e-02 -2.277967947362163348e-01 6.186507116976216469e-01 2.743258648188360779e-02 -2.240767026873756451e-01 9.249372315262916963e-03 -1.242447038038424663e-02 -2.434215539585501686e-01 6.788291327528831465e-01
-1.413266699301722051e-01 -2.842358122670584075e-01 1.031817142691930783e-01 -4.460849501655650418e-02 4.338400262739981056e-02 7.264426972721393927e-02 2.469285960882371400e-01 1.806251351833023933e-01 -9.418786630159570183e-01 -7.858853729971805313e-01 7.260526143969138202e-01 -9.151258913988442600e-01 1.058709376451987400e-01 8.579540240903665849e-01 9.046752137741295163e-01 8.472864308646659293e-01 -9.742878565238773936e-01 1.035490808273924923e+00 -1.026226305272168876e-01 9.010370105150147801e-02 -1.015468674529104609e+00 8.598363288720373143e-01 1.055208733910946162e+00 -1.051792268186142909e+00 1.019911053311636895e+00 1.002890115075373734e+00
9.039475531485362536e-01 5.530758258530278637e-02 -3.075289877193675137e-02 1.055075508051689592e+00 9.746752123514914601e-01 -4.008029536805294418e-02 -1.022652271756021802e+00 -9.733695521084231306e-01 -5.490140467366622784e-02 -9.732968604983971428e-01 8.685796671298094962e-01 -9.932496339601672997e-01 -9.273162294105589121e-01 1.622500726154942757e-02 -8.960524139936423271e-01 -1.010059951078728036e+00 -1.047820868820370510e+00 2.335311930440923597e-02 9.045980780291629220e-01 8.736581496953851333e-01 -9.756667497424498237e-01 9.607661410988472817e-01 -9.841201554095966308e-01 9.354937545875894322e-01 2.720133481505145057e-02 1.028582465886801245e+00
2.302268873594768561e-01 -9.113542966834343728e-01 7.159660155553900784e-01 5.326565348309412334e-02 3.305999390397465487e-02 1.000238786267543811e-01 3.468835617647222924e-01 9.558927644531236556e-01 9.557410374676722498e-01 7.553355426059114863e-02 9.584596976226766873e-01 -7.918405880530561269e-01 8.452026361222273465e-01 -9.887100428759539039e-02 -7.957172206852118901e-01 6.425410578083035062e-01 -1.030583740353177236e+00 6.665485027163117193e-01 -4.343839113511929195e-01 -8.726126776012032016e-01 -1.742075819089045075e-02 -7.397383959832183331e-01 -7.020077178693668873e-01 4.988222043046117507e-04 6.272318607661389045e-01 5.979019129486166095e-01
-6.026284008076889798e-01 -9.586867391810846017e-01 8.814418915855660730e-01 -7.493441753906848746e-01 9.683267154833130608e-01 9.613770688800106212e-01 -9.668919741903435616e-01 -9.702810128422793001e-01 -8.672438238664679361e-03 -9.757335929981647560e-01 -8.638758016023478925e-01 1.251988424804690636e+00 6.430051021380466247e-01 1.009992539858668659e+00 1.836431722020571977e-02 1.365303545347171799e-01 9.732330046084217701e-01 -9.568382060030694580e-01 1.092296096779193579e-02 8.980827641590128918e-01 6.815219075196604637e-01 8.069779585340038919e-01 9.243548827596662631e-01 9.840545135421295830e-01 8.845435224399088581e-01 1.401598763053800087e-02
1.268073220756018860e-01 6.584845268314134525e-01 -8.725510793091573181e-02 3.467146081769196808e-01 2.507284919221919872e-01 -1.426022190571256398e-01 -4.381566103065898665e-01 -2.775887122089776837e-01 4.833913650836597631e-01 -1.868391303889392063e-01 5.226756432821425546e-01 6.276251713527298826e-01 -2.835529400952498946e-01 -1.789302392747560422e-02 2.320098116509719532e-01 9.512051354581267659e-02 3.755955652256166011e-01 9.940899659440005642e-02 -4.868880191784229206e-02 -7.484571100765249896e-02 -7.004225796279366090e-02 -3.362084297002533084e+00 4.501023145842776574e-02 1.854940689724158404e-02 3.223671547859952469e+00 -1.726115848047354573e-01
1.027973016919760063e+00 -6.787105215570332639e-02 -2.437511287314163624e-02 -9.665614122282289999e-01 5.574896847270438549e-02 9.965763739015588429e-01 1.043851380753504365e+00 1.027838666187857131e+00 -1.008136359872029209e+00 -9.814483997370778701e-01 -5.661431908657556245e-02 3.230477843450194064e-02 9.854994084670679610e-01 -5.932954351986382581e-03 8.566549817152285806e-01 -9.570128400096211685e-01 -1.016810871807777295e+00 -9.836776558309575647e-01 9.965031674729919464e-01 -9.691410112666745125e-01 9.663709790820125267e-01 -4.969525759634139256e-02 1.026050611970611426e+00 -1.739999063397370746e-02 9.387501139938526640e-01 9.510191501018215865e-01
-1.383607318998486893e-02 7.016188301365820779e-02 1.251518318896463478e-01 -9.912969902388610866e-01 4.675179565792676739e-02 -9.799073466913166275e-01 9.562173507327674793e-01 9.357965597519529721e-02 -9.198827901256719786e-01 -1.108910125101453925e+00 -3.044106721370481560e-03 1.064775559698615481e+00 -8.058339844448368927e-01 4.637491779845681616e-02 9.574324003980764219e-01 -9.857524912186439447e-01 1.044168953209456241e+00 -5.963005477689792277e-02 9.874187253976238754e-01 1.021506852486222749e+00 9.659463458182689921e-01 -4.075083871300495819e-02 -8.901628834761401432e-01 8.529631495843095212e-01 9.691237142012688599e-01 8.740236041935585121e-01
-9.959942868444290331e-01 5.636597047752521690e-03 -9.940661832342001514e-01 -7.005189389532614054e-04 6.542280965955596904e-03 9.994391122274732808e-01 -1.001373340342348817e+00 -1.002301315137222870e+00 9.971343452898620008e-01 -9.991492947545552727e-01 -9.928445935964625990e-01 1.001819081653816834e+00 9.860075051369774357e-01 1.939762550116461495e-02 5.861713026346171071e-03 -9.927929824395732572e-01 -9.939912168141054050e-01 9.956953644204731280e-01 -1.002871725506820244e+00 -8.941768971886619038e-03 -9.941003562310309905e-01 -9.953137944283483307e-01 1.005921326228720769e+00 -3.787550344785490727e-03 -1.943824739420345511e-03 1.004052583517085040e+00
8.964315170197851845e-01 1.047553431210628272e+00 9.051272128998252287e-01 8.689319103794557186e-01 4.115880518148264944e-01 -3.617659806283941848e-02 8.764889495050972590e-01 -9.010720532385967374e-01 9.633100226589434989e-01 -6.127280257620576487e-02 -1.824680539373642607e-01 -7.562640415096461011e-01 2.113437978029313602e-01 1.883483444065236212e-01 9.498707734363449617e-01 1.074260352662020912e-01 -8.286741756650396473e-01 -3.839672172518658333e-01 -5.428244615058273048e-01 8.839628651298466755e-01 7.447978085206841126e-01 6.953995498589868318e-02 7.588086444340752523e-02 1.690277368906254185e-01 1.248339712901628540e-01 4.081596172454305532e-02
-8.610316062702948470e-01 -8.850064576372187325e-03 -9.891850897551267563e-01 -9.954027731661122536e-01 3.995676194444631318e-02 1.013173328399289641e+00 1.099872760589394316e+00 -8.606524781641701205e-01 -8.573163930179219516e-01 -9.404377945153555851e-01 -9.197242383713276348e-02 8.714432098892208600e-01 8.180234083774192699e-01 -5.963827250050605100e-01 1.103444310122414285e+00 6.919444764155887606e-01 -1.057300238425020300e+00 -3.244692065225597555e-02 8.137478602345940559e-02 1.033441360148148247e+00 9.360326851980712570e-01 9.411947937357016958e-01 1.090936501639202083e+00 6.255664002573435578e-02 9.207802163286383790e-01 7.182545247889278173e-01
2.121817758130428028e-02 1.059942121058068620e+00 1.028584803297796779e-02 9.781724380591919621e-01 -5.496257763917517664e-02 1.035299702176536440e+00 -2.209396219927564631e-02 9.666927937345439759e-01 9.903778868163657378e-01 -7.900780086416729284e-03 -1.572397582778315914e-02 2.306841986612912475e-03 1.324933192442291630e-02 8.980658965145901229e-01 -1.017417259630065463e+00 -1.025793236333566005e+00 -1.301405854158211445e-02 -1.013225124390877419e+00 -9.126475489249585848e-01 9.739539121256832743e-01 -1.055153041399334635e+00 9.663754916194455813e-01 2.577455601258504120e-02 -2.938632883985213898e-02 -6.056465173532393081e-02 9.537021805691308085e-01
-1.097671803928618010e-02 -9.947751726685123419e-01 9.989920415649886642e-01 -9.981000022282113804e-01 9.833217943182781529e-01 -9.597413744492393484e-01 -9.824413071390155627e-01 -9.807131002632405448e-01 9.633293527835111725e-01 9.954448160068065654e-01 9.742512367005058405e-01 -9.916555916205542776e-01 -9.975820517524111031e-01 -9.284136906128527267e-01 -9.942346436672093724e-01 9.860158736309454497e-01 -9.903106436868163165e-01 9.981496025485308010e-01 -9.691124760358258428e-01 9.679452893968365501e-01 -9.772169744999742447e-01 9.799747377149310434e-01 4.781870272279370622e-03 -4.163930390913800350e-02 9.708702297764285616e-01 9.739137921857036195e-01
-9.608906852279154309e-01 -8.418034048585245621e-01 -9.053850417442073084e-01 3.950845637632135164e-03 9.884124250148148549e-01 2.743830936734644593e-02 1.021748211693137121e+00 -9.210432780967686694e-01 1.065203726429787334e+00 -9.728694416990138483e-02 -1.031310395628165288e+00 -9.655647604057674416e-01 -9.037195458045357288e-01 -9.875043269700257698e-01 -9.824446670601683085e-01 -1.360549598362264211e-02 9.943056301953947518e-01 -1.013311273426563908e+00 -9.320613394608331381e-01 1.244897610114192171e-02 -3.187505610281973767e-02 -1.019797668761290410e+00 1.085537744121536585e+00 2.916475611045730651e-02 1.004748698960324482e+00 -1.310735540269467383e-02
-8.995286383669423014e-01 3.031373781639370817e-03 7.355911321513824985e-02 5.694604186026613890e-02 6.304967416334195107e-02 1.526116411290694141e-02 -1.213042927224010192e+00 -9.370906873458588748e-01 -8.111987175571914177e-01 9.802002323598369982e-01 -9.620191771722887975e-01 -8.192668476739850547e-01 -8.255262590858316596e-01 -8.727549637520661818e-01 -9.317647440257925684e-01 1.855208819964760530e-02 9.441836939164486298e-01 -8.355451787648947581e-01 2.413782291177435368e-02 -9.570847662183977755e-01 -1.009267085468989134e+00 -3.143856095408575912e-02 4.562668716012373282e-02 -1.103950019231859370e-01 -9.020619340287402976e-02 -6.815337186149353355e-02
7.701068139671523038e-01 -5.142909757011856486e-01 -5.521984670894031222e-02 -8.819873293684279414e-01 2.385503046478153547e-02 8.021321522318194397e-01 -8.364769705851153869e-01 8.966870385690199896e-01 -1.024924032985959466e+00 -8.914412271031835200e-01 8.789878179366457100e-01 4.753283601341392467e-02 6.140515680164897183e-02 1.516656226697682928e-02 9.228398086816251844e-01 8.547341770404713879e-01 8.476286619077314510e-01 9.308612814976837679e-01 -2.011755657072810399e-01 1.138658767209473344e-01 -1.230160988212528929e-02 -1.010209535060717423e+00 -2.397461996863507194e-01 -9.619188662813680235e-01 4.606553153650504162e-02 9.643342323251395953e-01
-9.735065012926980010e-01 1.030994590607832162e+00 -9.916465937525510421e-01 -9.560561257381163802e-01 9.598554101739109612e-01 1.008388661063833958e+00 -9.578893276993318828e-01 2.817094709354127022e-02 9.848148147432155275e-01 -4.736672292845066357e-02 -1.031212088915709896e-01 -9.880961159976564545e-01 9.852814174663853120e-01 9.818721630572718739e-01 9.695027335008480351e-01 -1.026603213073249199e+00 9.684144881647090974e-01 1.718158043095430534e-02 -9.639692384468875330e-01 9.359016147411894915e-01 -1.010525197131827424e+00 -1.607757224243637484e-02 -9.720173259614419692e-01 3.537660693916046262e-02 -1.033969418684163921e+00 9.451624770893772842e-01
3.132260196145315034e-01 -2.000976723921520650e-01 -1.094573980220097109e-01 -6.773683126989828163e-02 -1.188445217757129052e-01 8.310339049074234874e-02 3.232108855965416805e-02 2.178326592508249282e-01 1.985120450601885189e-01 1.364500557257105617e-01 5.808121972101889519e-01 -3.766652545529338147e-01 3.447970734856887765e-01 -1.903168405235335925e-01 1.330032794721413003e-01 -6.318574265355096642e-02 1.351398481908531457e-01 1.263307834340326730e-01 5.017904828029283448e-02 2.160338703814880801e-01 -2.464168327581319484e-01 8.285947055340067702e-02 1.922545490417902070e-01 -1.026751029473163879e+00 6.479252395974171436e-04 -3.393299181431974620e-02
9.421699803727703326e-01 -1.271524377731264366e+00 -7.823378402956483735e-02 8.414154899413297528e-01 -8.907847858652692685e-02 -6.057636515762614138e-02 -7.899955509261155084e-01 -9.002440082848834901e-01 -9.916006240131995941e-01 4.408136730818808355e-04 1.098042644230394327e+00 -9.088046018854586405e-01 -2.683778302595694054e-01 1.021822054756089004e+00 8.253909357577339234e-01 6.259237352283066047e-02 1.651723238249769021e-01 -8.369024273563410166e-01 9.612506385580741330e-01 -8.500027368471591016e-01 9.693905545284436931e-01 -1.379659051229181754e-01 -1.040709729892338453e+00 -9.059308680791265944e-01 9.719360524991323969e-01 -9.064960585533481385e-01
-9.959229906588878967e-01 -9.458672678576715009e-01 1.020148932940979858e+00 -1.008141425242461864e+00 1.324027030183330851e-02 2.818257362943737618e-02 1.044885039637524660e+00 -1.672307457307709369e-02 9.852001590376172624e-01 -1.050417014688419304e+00 9.525814306933501063e-01 -9.958503258057781471e-01 3.086471472407963101e-02 9.738920697778697955e-01 -6.107123308996416367e-02 -4.879636579880256703e-02 1.010975462121506796e+00 9.896507133700621628e-01 1.055346908781216175e+00 -1.015465893074944947e+00 -5.453279046403939484e-02 -1.051117726321405987e+00 4.853809837443626152e-02 -4.147799660632405655e-02 -6.109208018887003072e-02 9.459794879073033513e-01
6.896342866846580377e-02 1.094207003534490713e-01 2.770593722839061468e-01 3.530974596214053185e-01 -3.428415964076680922e-01 1.613874893020131318e-01 3.475600731995199255e-01 3.347736805669770388e-01 7.727759689050454905e-02 8.965538576723677267e-01 1.445387495338537054e-01 1.777232618806854347e-01 -1.091190015171711325e-02 9.194986904288492136e-02 6.138753724610306328e-01 1.125032708057557319e-02 1.220888476330452277e-01 1.019699055970637452e-02 -2.852665204121740405e-02 7.070430867008943576e-02 -3.105503971065105340e+00 -8.744935677270349039e-02 6.463023201938236095e-01 1.060808896994833335e-03 3.463446507884212489e-01 -2.509632669544944461e-01
-1.206378750529246147e-01 8.690473848563220471e-01 -8.520811977922813085e-01 9.961938830318174398e-01 1.258923562725299816e-01 1.000736351866036156e+00 1.294318064406203561e-01 5.002313512813840596e-02 1.016759929084827263e+00 -6.147752473001869000e-02 1.548911114455115978e-01 -8.324323535980113764e-01 1.183689074077689529e+00 2.424176557174752278e-02 -7.512523151451781789e-02 -8.393933411416658608e-01 -2.296948530279160072e-01 1.082631882076971613e-01 1.166458110267268727e-01 1.021670226126605741e+00 9.066681502448129537e-01 9.274581067958856950e-01 -8.304436755323362229e-01 8.566262671589194300e-01 -1.187741408632001644e-01 9.225828638676208948e-01
-2.172093229853547525e-01 2.561889498130313636e-01 9.479043117948993125e-02 1.923911518893482372e-02 -1.021123073366843492e+00 1.025037360225375505e+00 9.871578064433736421e-02 7.560020630685260201e-01 6.641723239613083196e-01 1.264507009451940167e+00 1.347199859789019738e-01 9.455482610532546239e-01 5.937586718697002164e-01 -8.509968492620318958e-01 -1.002950166818323413e-01 -7.402065576023434401e-01 -1.008728379586340873e+00 -9.188073804003371592e-01 4.762969020653656099e-02 -8.816020120261286452e-01 7.072203298220880452e-01 -7.220114056343723830e-01 1.107192669553381803e+00 3.252058498424675315e-01 7.012443924051020572e-02 -6.620079760974876271e-01
1.948635517374538439e-01 -1.393270134045153208e+00 2.745759646912034890e-01 -2.608524009087460627e-01 -3.551350551506002873e-01 -1.011264316283154580e-01 1.795923777628948836e-01 -6.069358739298238437e-01 -1.689717191662513107e-01 -1.047936414755211931e+00 -9.910452827289854827e-02 -3.810031976829456046e-01 1.044380472882315697e-01 -2.237775908419586401e-01 -1.565818766547432128e-01 -5.282599015763570494e-01 -2.111365150700469651e-01 3.139652241111369757e-01 3.678379295629313983e+00 -1.391258938596849903e-01 -2.003851370360490713e-01 1.987626823514917207e-01 2.081525134595642035e-01 -1.605189249913088756e-01 5.330169603419412233e-02 1.573578562720808482e-01
-9.545266107263781219e-01 1.024755251823189273e+00 9.236255626929411600e-01 -7.583230003026713018e-01 9.977948106647087645e-01 -9.041105777961606638e-01 -1.181747414293442322e+00 4.485935189987726168e-02 7.229877983929046403e-02 -8.914415776286029880e-01 -9.735307544352012066e-01 1.035498950353010539e+00 1.007227407789868190e+00 -8.912264965574192566e-01 1.075016544978255606e+00 9.527095860677854411e-01 -9.285113728003115963e-01 5.377901068763624864e-02 -7.310737201873029889e-01 1.147746392649471800e-02 9.474711704532232659e-01 1.009496655242747121e+00 9.023416427386025118e-01 -9.901756764982506676e-01 1.660195428433224388e-02 -4.117735521391100578e-02
-1.629591524540477676e-01 1.657443180371339642e+00 8.459369158710168257e-01 -1.115655771889579873e+00 1.068273460042548528e+00 -8.284551092907027625e-01 8.932006142406351268e-01 -2.828305250577108909e-01 -8.061413001710177051e-01 -9.875685866238822497e-01 1.027200332454198506e+00 -1.052485411262434889e+00 1.098926956663819343e+00 9.013716707251854254e-01 -1.750047915365382789e-01 8.272603762757492207e-01 7.796566901756585288e-01 -3.393873373087243350e-01 1.086189437396521518e+00 8.079630175744372256e-01 1.010436450491214666e+00 -7.854545325918147469e-01 -8.942487174221527280e-01 -1.269625873956732043e-01 -1.544837415387552981e-01 5.375790738304203620e-02
-5.210720110763616963e-01 1.793793798755655838e-02 -2.028060692571102552e-01 -1.972782565170961289e-01 2.384437645249790350e-01 -3.359660381455221168e-01 1.636070779641971007e-01 -9.082055578604247836e-02 1.243017844307999914e-01 -5.503067138442986617e-02 -7.287700389045963512e-01 -5.729834472339018908e-02 -5.738466983002961097e-01 1.018648949223755068e-01 2.135243864880303349e-02 -1.782888299859641257e-01 6.615873586980187959e-02 -7.270779488904978438e-02 3.682609356166430259e-02 7.099578507235211611e-02 -5.008407435784919398e-02 1.518753818172562664e-01 -2.080688796617172209e-01 3.817850168014849999e+00 -4.386594997251235806e-01 -6.422363431107784848e-01
-1.154917390802498334e+00 1.032541933862852535e+00 -8.591695843256539344e-01 9.477017740074269447e-01 -8.853080956896078879e-01 1.029253471852142665e+00 -8.720317503635467427e-01 4.355930678207744350e-02 -1.077503038585380102e-01 -1.020258064870777304e+00 -5.456130862803314219e-02 9.741079309890322557e-01 -8.075539718230997366e-01 2.890139008054761274e-02 8.605481989716176061e-01 9.362740432158234150e-01 -8.800447596431212327e-01 -9.086166038758435315e-01 3.406890334260127828e-02 -4.974521749607252463e-02 9.650258951562699083e-01 9.621106042859236540e-01 -9.306083159507256078e-03 9.938585024228763221e-01 -1.058309051418014013e+00 -1.434204034002001527e-01
1.390065128993883237e+00 1.792643009395665565e+00 5.894149198347301694e-02 -2.651513946499788887e-01 1.082595692040213137e-01 -3.695066117184984122e-01 3.088720874315076248e-01 -4.106692404289195575e-01 -7.339432567396400597e-02 -2.645199776823264903e-01 2.005369705420577964e-01 -1.401600303905967682e-01 -1.552749774993467391e-01 -5.571957211720447445e-01 9.412094484892169488e-02 -1.365792180901851116e-01 -1.349544519739399040e-01 4.758586184496073346e-02 -7.129883993642016637e-01 -3.083310432604215445e-01 -5.185574771401563199e-02 3.514305191076961404e-02 9.459863431740085649e-02 -2.087020130524590567e-01 -2.823612472496290771e-01 -3.682277343797545344e-01
-9.209062132076981655e-01 7.734055595594778454e-02 -9.990420776947188664e-01 -9.913002050696000378e-01 9.909998281682905752e-01 -9.395356798853077285e-01 -8.988393045175314677e-01 -6.574987343350389979e-02 -9.671771862669721331e-01 -7.924461770807483818e-02 -1.111322794500648081e+00 9.706115580525844777e-01 1.107994037654563613e+00 -4.862962805054405618e-02 9.518674832866307334e-01 -9.980323918283704465e-01 1.022045287519122159e+00 -1.001084397987360042e+00 5.657549515608973484e-02 -4.008344543868808119e-02 9.347339432937675774e-01 -1.028919803905358865e+00 1.046735851079635626e+00 -9.826621204973788881e-01 -1.026906055091121095e+00 -1.024917563022298417e+00
-8.873627956886779300e-01 -6.611378513746618557e-01 -8.695364419764820552e-01 1.216158399821625657e+00 7.324340716020619757e-01 -9.353908472490127801e-01 -5.062276931395082169e-01 -8.699339360986831915e-01 -4.231100745743352626e-02 2.983782467313456643e-01 4.379797741326875160e-01 -9.240969004374957052e-01 -6.425968590343897890e-01 8.641825772476598999e-01 7.133068875460749636e-01 -1.022410404075682289e+00 4.289548490099147626e-01 1.143027280851808936e+00 5.349465951519937201e-01 -4.683186514860002703e-01 -7.403182251710821449e-01 1.958046051452458358e-01 1.176478015990472858e+00 6.828046214848403350e-01 2.621002955758399700e-01 -3.966686106551195468e-01
-8.825139931804130144e-01 -8.394717680664774001e-03 -9.019033810994748768e-01 8.571729377590516785e-01 7.910022820262637699e-01 -8.520287910452866154e-01 -2.178945026846279831e-01 7.371118021575299162e-01 -7.882003965853474903e-02 7.174938600636666663e-01 7.417027416873190893e-01 -8.181658788981003294e-01 -8.278894312514373244e-01 -8.891952008262058449e-01 6.813552104776620100e-01 -1.434445471100204983e-01 -5.577990334310964915e-01 -5.288313643553291254e-02 3.364715614072356226e-02 7.421405075069118507e-01 -7.691884683648037013e-01 -8.462412254622965480e-02 1.065123295847647755e+00 -8.484139587364498691e-01 -7.890047960260809790e-01 1.119939774792621634e+00
2.326070711269855387e-02 -9.808153237187148266e-01 -9.640665968555166554e-01 9.452742191575521646e-01 2.267303537508106107e-02 -9.074735441152061988e-01 -5.804048529588460431e-02 -1.085433002132696556e+00 -3.320259499467777958e-02 1.117167314465356442e+00 -1.380552731681232159e-01 -8.730629044538288364e-01 -9.146441313409385543e-02 -7.686833005170154443e-02 7.535862784269002912e-01 -1.429968570497332836e+00 -4.124529115025192538e-02 9.214684166225782791e-01 -8.727416757522362678e-01 -1.425232896053944542e-01 1.060484940960212619e+00 8.764266774610394162e-01 7.723927589603094557e-01 -9.995817750301722038e-01 -7.143949132066448326e-01 8.313607784552433655e-01
-1.106005821586798721e+00 1.042262867037693219e-01 9.283972763073010670e-01 -1.041831426797052318e+00 -4.446364712847622469e-02 -2.755518837896451731e-02 -8.503548595784017339e-01 -1.422994047236476045e-01 9.360680870876051385e-01 -9.248724251003577201e-01 9.175572235356659334e-01 1.134221479362120324e-02 -9.456512230232894112e-01 8.062390574769917606e-01 7.503828378084689277e-01 1.023795546451150340e+00 -1.001168887725429890e+00 -1.071904919342373530e+00 -1.010215257149434054e+00 8.393556394547784238e-01 -5.521577602194176898e-02 9.123273832533276284e-01 8.337909839433590431e-01 -8.717372270543366497e-01 -9.997431888675212264e-01 3.427962984081570075e-02
-9.362761840136714087e-01 -1.048766406350499114e+00 -9.519930962504696836e-01 3.598159961877123864e-02 -1.074465643186337527e+00 -3.017389424600356446e-02 -7.180984979944765589e-02 -9.626871450074594438e-01 -5.998595474111578091e-02 -1.041756338534595594e+00 -9.323523380105590563e-01 -9.754532469461884014e-01 -7.995922465262714132e-04 -9.988011934469873676e-01 -9.734894559692228722e-01 -8.114723340033677679e-02 -9.427203901428723443e-01 8.420940078424782316e-01 1.224577243761924894e+00 9.209212554783587912e-01 -9.590631517166162689e-01 8.843754288568401734e-01 8.583773931151117420e-01 -9.912356411430351955e-01 9.766019746677230273e-01 2.705660864306044106e-02
-9.858159020364850450e-03 -2.509183074368004362e-02 -1.071932470870002208e+00 1.018812804236565617e+00 -7.945276394110378781e-01 1.115607449485158699e-02 -9.617035881787920903e-01 -8.992977370111997493e-01 9.213268667709405557e-01 9.721827035627544911e-01 9.255086478923502114e-01 -9.370385384610924184e-01 6.938775878037804767e-02 -8.566371384087236862e-01 -1.163293924508236321e+00 -8.717319259543603316e-01 1.173254542595323580e+00 2.644084848532701759e-02 -8.443708385004103922e-01 9.175329709842596770e-01 -8.461200679309476280e-01 -5.953807323867915668e-02 9.294080767537596377e-02 -9.698926349942684766e-01 -8.976540331658587890e-01 -9.704506544727362627e-01
-3.000653956946322358e-03 9.912196043302777815e-01 -9.940602635969113532e-01 2.837297561655592604e-02 1.924770297856704705e-03 1.807560952435000381e-02 9.732957113719044040e-01 4.861459832698090261e-02 1.004192734381955443e+00 -9.772128747013674177e-01 -1.019332248431905175e+00 -9.870951728850995144e-01 2.514958359513039948e-02 9.636203102996951930e-01 1.024200158770432356e+00 1.011685309860038906e+00 9.746656665588484536e-01 -1.014300765379525959e+00 -9.689583698227837161e-01 -4.700836944858469146e-02 -9.944824393285086606e-01 -9.410823180766633156e-01 1.009759787549155075e+00 -2.458225792531389467e-02 -1.010662188297670072e+00 -1.016804814702291226e+00
-9.363555260380089784e-01 -9.355629409882050274e-01 -4.182205996675502496e-02 -9.545185256004651286e-01 -3.735362846212883503e-02 3.175680662251922221e-02 9.776921533208996484e-01 3.008903093587872793e-02 -1.026960602311307147e+00 9.353216289117843862e-01 -1.217363644919555871e-01 1.354208407725357617e-02 -9.384999878472914947e-01 9.332132004268053338e-01 -1.021797663958897040e+00 -3.852207328857779837e-03 2.623372028016792215e-02 -1.020387783960400974e+00 -1.046356498326119988e+00 9.231452625548239865e-01 9.205908501118823528e-01 9.818584150848480574e-01 -7.920349262590132833e-01 9.344599406988002288e-01 -1.040566569209119052e+00 9.877132817903609974e-01
8.425941909653332854e-03 1.001212861721742842e+00 3.255565549811750142e-02 9.898380175576158013e-01 1.011305861546391016e+00 2.112474699823822192e-03 -1.882001286471460255e-02 9.373163245918175734e-01 9.125908505795679027e-01 9.676639170757393993e-01 9.489790958103336838e-01 -4.918109055521699413e-02 6.158803205409533327e-02 9.536073547154408914e-01 -6.899344447445819595e-02 9.429092801446323779e-01 -9.405919435855376598e-01 -5.667104565524238441e-02 9.516793143681869308e-03 -9.920048505516537718e-01 -1.040521201445719912e+00 -1.046439744006245398e+00 -9.623452717686337143e-01 -1.077580161549437587e+00 -1.040918799064081801e+00 -2.602756062204143392e-02
6.091495285711389512e-02 1.876585388743840510e-01 3.082758102035382808e-01 3.139390736365141321e-02 9.321731176501476535e-01 -9.714025574143656527e-01 1.939085802746934664e-02 7.794929704180763030e-01 -8.449905019128404193e-01 -9.138164399680417382e-01 9.025556739077287283e-01 -1.440713604635960980e-02 -1.426063954518942134e-01 8.703470238315388352e-01 -1.129256093144147988e+00 -1.123074642466128203e+00 -1.005839934671364455e+00 -9.262576551502024191e-01 -8.208214745012026858e-01 -9.487498297298368674e-03 8.777544920305704323e-01 -9.986236672182596807e-01 -2.596785646022423677e-01 1.385148764357111983e-01 4.688209413904996514e-02 -1.149192607216955375e+00
-9.957651156543405602e-01 -9.459863284848170073e-01 1.020320458658308116e+00 -1.008101663001573556e+00 -9.864742053500383800e-01 1.028231781675709833e+00 4.500124096893746983e-02 -1.016609701086305328e+00 -1.014812703028801444e+00 -1.050502191510497063e+00 -1.047557588816960150e+00 -9.957045442085619147e-01 -9.691242299101016089e-01 -2.613707491235263067e-02 9.388313909662889811e-01 -4.846810756674880399e-02 1.098541331457163553e-02 -1.041195150095697644e-02 -9.445204656453696224e-01 -1.015575801274426926e+00 -5.441532293206529508e-02 9.489403651884834590e-01 4.861996910731312960e-02 -1.041239238924282606e+00 -6.116613564190683666e-02 9.462559761081622556e-01
-3.906095117319720311e-02 9.063878965465867188e-02 -9.505490756707898337e-01 9.541207136667313460e-01 1.066309678963616836e+00 9.550943004611808229e-01 -5.792059071613143290e-02 8.819079520201393851e-01 -9.956787504277239131e-01 -8.565076272455043882e-02 -1.406154706523828936e-02 -4.277587745441819439e-02 1.138981928222008999e-02 8.612600633189865240e-01 -1.565987620061191632e-01 8.743743319797483426e-01 -9.850033575423083887e-01 -1.220043043481156553e-01 -1.038909899066474907e+00 8.848693098813198432e-01 9.236911601139456973e-01 -7.008137472466430262e-02 9.935984730457446679e-01 8.712154852169362584e-01 -1.051354793706488655e+00 9.644947182758970561e-01
-6.153293674340154507e-01 -8.074477757703422132e-01 -9.722784076309428647e-01 6.499640346655952694e-01 -3.488796711155234265e-01 -1.792082945400404137e+00 -7.790559727079719721e-02 4.981375919799325702e-01 -9.310508691366213840e-01 9.710960042399419123e-01 5.580601375497875605e-01 -9.627185657001056107e-01 -7.903863898344851702e-01 5.206082949372010660e-01 -1.056540431662900265e-01 5.524062508386721193e-01 -3.534681897793580385e-02 9.625815277987772589e-01 -9.910941505867205958e-02 2.102320925035083388e+00 -9.171853012126063298e-01 -9.411613270716342461e-01 6.689253201398951409e-01 -6.687989621071404045e-01 7.167374347090681441e-01 7.620166625118386383e-01
9.424144849805812241e-01 1.051244537320635608e+00 -9.948821034945528607e-01 9.435146537488540153e-01 1.006780991699357530e+00 -1.011971433497594886e+00 9.020322052042498706e-01 -1.722648971441336496e-01 5.132935044020874547e-03 9.570465378479039997e-03 -1.021304363851557317e+00 -2.098364264395732870e-02 -8.936148467293357767e-01 -9.260426127420586795e-01 -9.968642334733009980e-01 1.100897510781895017e+00 -9.619446586289657208e-01 8.571952951478238603e-02 -9.433445736318909480e-01 -1.275911084250734018e-01 -9.578194160636261945e-01 -8.947292415650719422e-01 8.424098059905228419e-01 2.089703030253130603e-02 -9.495960369989867589e-01 -3.668616274083204287e-02
-1.081757330001553025e-02 1.004515634743151642e+00 -9.464342584815200743e-01 1.019304840324725348e+00 -9.924451968086718257e-01 -9.859994541755452424e-01 -9.347701155381333837e-01 1.007420330660215857e+00 -2.623445969880607020e-02 4.745975215722731712e-03 9.690462055365455241e-01 9.845503435216955701e-01 1.008537770778833664e+00 -7.524479665458910782e-02 8.983672663285343640e-01 -9.758211734947731530e-01 -1.036305043981486707e+00 -9.885593687862687107e-01 9.673501300270846981e-01 -9.643453842435648626e-01 -1.035617443656587255e+00 8.641878444521015890e-03 9.758468812160014938e-01 -2.602101214105156587e-02 1.016385001474343186e+00 2.481826891273456945e-02
-7.349818562770958630e-02 -1.224324632575742866e+00 1.059756057917592142e-02 7.124457216065334109e-01 -8.217473993799062626e-01 -5.471585706516753772e-02 2.665586118092572732e-01 -9.608413885699819135e-01 1.259132192285672934e-02 -6.320867636920205479e-01 -1.246229643106502721e-01 2.551883699264047289e-02 -9.903324300338524067e-01 -8.541473159113976976e-01 2.036530863550877757e-01 -8.858279965666036038e-01 -7.954789947119554894e-01 -7.121458806291284249e-01 1.218260772153797689e+00 1.034614974971292289e+00 -1.165648217239306783e+00 9.755982647983127976e-01 1.091507064796871873e+00 9.114816656697866115e-01 -9.583985073400049792e-01 -1.748517931500246647e-01
1.000110011778536867e+00 1.033011443918685712e-05 -9.997837243421652254e-01 -9.993538512594645207e-01 -1.122915285110134441e-03 9.996411383299080855e-01 -9.998513254166879749e-01 3.067332055542673196e-03 1.000409515723801324e+00 -9.999507522042807572e-01 -1.000390475727001238e+00 -2.296829146038671568e-04 -1.000565618829982961e+00 -1.000407355178672297e+00 -1.000220476624533283e+00 9.997874022728256982e-01 9.985355883281171741e-01 9.999313872421139449e-01 -1.001053938470011229e+00 -5.229782426617867212e-05 1.235076329910421455e-04 -9.995292108224251848e-01 1.000388005722975260e+00 9.995600902175948432e-01 -1.135369283705271195e-04 3.470233149369302277e-04
9.636563909539460626e-01 -9.696732861781383050e-01 1.070466118345224871e+00 8.849504166529725824e-01 -9.742964982252085848e-01 -7.539129863350974015e-02 -1.018342250356210732e+00 -9.909134140735782470e-01 1.012643369684192995e+00 -9.778439045285234332e-01 -8.933633273534705710e-01 2.366437495274966926e-02 -8.820258198965340579e-01 -9.385941832501513149e-01 9.874198291853667486e-01 -9.808256339250369660e-01 -9.157519691672934004e-01 9.181283226578547119e-01 -9.667442117003995916e-01 9.742769000366228171e-01 -2.956406886025078271e-02 -6.105428882988010730e-02 -9.482972595641318003e-01 -1.459408961761409773e-01 -9.813276492953060259e-01 8.075706971565425052e-01
-2.060670938936390306e-01 -8.697618709272521009e-01 -9.748686958474961362e-01 -9.457725612515621716e-01 -1.654060553992542371e-01 9.280845325289872605e-01 -9.854791687744113293e-01 1.008070678245323482e+00 -1.142015107985873273e-01 -1.064329181354332743e+00 -8.922114946675687719e-01 9.581623149296085717e-01 8.875154988351424690e-01 1.050153313096465313e+00 9.685839344216484736e-01 -9.794507479289732421e-01 8.502556343328147859e-02 -1.007586908831673567e+00 5.450552135953855293e-02 1.167538788762250368e+00 -1.062936667930550749e+00 9.724627073742483363e-01 -1.030886827797123928e+00 9.498432113772158347e-01 1.077295941552121938e+00 1.004242412237607462e+00
-9.885899693688482426e-01 7.180611787277369103e-03 -9.967689580812921779e-01 1.001736141746495390e+00 -2.234783683562047412e-03 -9.671417776907240693e-01 -1.012153438976629127e+00 9.843621069584884697e-01 -1.009859673132594171e+00 1.001464036311753958e+00 -1.003599659285911327e+00 9.951125638428406361e-01 -9.879719289450289432e-01 9.601789702084512212e-01 -1.016798047623940437e+00 -1.008607063318530894e+00 -7.252476412150946072e-03 -9.868449735898444652e-01 8.364099949211330903e-03 -1.000601053002128760e+00 -1.884289719504047070e-02 -2.010624784126115172e-02 9.752645018016221634e-01 -2.258778715046465269e-02 9.565961343036123443e-01 -7.667119880147946730e-03
-4.474635924156991629e-01 -2.404850595634825672e-01 1.788847031974269974e-01 -2.088436097223916876e-01 1.130281141006872214e-01 -4.156891840510443248e-01 4.860138247755822483e-01 4.611323188071899670e-01 -1.744703867966887201e-01 -1.038928774378752862e-01 -7.320138481316579293e-02 -8.116677120405124679e-02 -4.876917939085689824e-01 -3.101123676263071310e-02 -3.035360130178259563e-01 2.111453941260912626e-01 -3.741040721380440859e-01 -1.809535629954007185e-01 1.748294801225360462e-01 1.378247056315911635e-02 3.711540751728337750e-01 -1.491768765959709198e+00 5.135412644755195377e-02 -4.774274626471922689e-01 9.784645999595781296e-01 7.932265889628170585e-02
-9.627744854840240007e-01 -9.774529096697395225e-01 -9.210126699767192671e-01 -9.264993282193173529e-01 -9.248526216187246130e-01 -9.063223559450166444e-01 1.849227737003394240e-02 -1.032782742940151266e+00 1.005773023484067830e+00 1.032148120941058345e+00 3.107261447707469412e-02 -1.068834977883057702e+00 -9.995829249686517537e-01 -1.053510569264429320e+00 -8.634515036344845296e-01 -1.055602506618920078e+00 9.686558596270686966e-03 -9.319085593036221526e-01 -1.578729312162026333e-02 -9.299689712963303823e-01 9.254220435703037761e-01 -1.019243104879100192e+00 9.835381725088766514e-01 -8.233386341046679269e-02 -9.931524504683167942e-01 9.507019343873374106e-01
1.015477819671496196e+00 -1.958564734681555730e-01 1.167028250897872016e-01 -6.687698476567854877e-01 8.718338173573411121e-01 -1.072526537962461335e+00 -1.432114504471998506e-01 1.127379476215062848e+00 9.558406300858387494e-01 -1.299212264511181124e-02 -9.374520936395056570e-01 8.153188763243170989e-01 9.194728305746370234e-01 7.895600765177972213e-02 1.461358843787520789e-01 1.418446246966501845e-01 9.054621106547083853e-01 -7.915315501069806192e-01 6.643143356146072875e-01 -1.675294906333082423e-01 -1.304413161608487248e-01 -3.745893021754410912e-02 -9.158193335864216467e-01 1.058202687149193633e+00 -1.167271773170312832e+00 8.414343363349806593e-01
3.373609329438620463e-02 -6.374837280325612587e-01 -6.503001953425786852e-02 -8.776990445204922719e-02 -3.694917363395455179e-01 -4.013364699942905539e-02 -2.062761514988384337e-01 -4.491184361801969227e-01 4.025885289646014442e+00 5.296160361720191334e-01 -6.293408844497715426e-01 -3.615541228126447626e-01 -8.037868894200354830e-02 3.539956722896708124e-02 -9.440956950323979580e-02 -2.455372148929620690e-01 1.297272064613535147e-03 -1.930929010790826891e-02 1.338084856546594981e-01 -1.521344524882570104e+00 -2.594951518756891118e-01 -1.096931288741615496e-01 -2.821486717111550968e-01 -2.084007548423000566e-01 -2.020391491559725694e-01 -2.067811881524637685e-01
3.263435828247631537e-02 -1.674250968893858937e-02 2.666556004171521596e-02 9.310496755419781501e-01 9.055221233518792046e-01 4.042095826378026835e-02 -7.359341327759815199e-01 -9.309228086881808917e-01 -3.198275866849270739e-03 -3.074498327067011483e-02 -9.008126955512171241e-01 1.026246737056796809e-01 -8.641719367460870549e-02 8.406682824010623944e-01 1.029071332792496518e+00 -9.193521408798405181e-01 3.275913824417828191e-02 1.005153604122968725e+00 1.015679510631094518e+00 -1.050886308402387170e+00 8.874888054164099538e-01 6.748165133069213006e-02 8.591577039952771333e-01 9.300337342156081988e-01 -3.308148032743792044e-02 -2.912997382742714761e-02
-1.954365622027202098e-01 -6.846845734827363694e-01 -8.681286291344910699e-01 1.033820055923347914e+00 -5.479714724432484252e-02 8.625922351367895091e-01 -8.398884371693743356e-01 9.297389199729066966e-01 8.658617743813339374e-01 8.921453793701158430e-01 -3.613644835313963022e-02 9.215849216804943289e-01 6.840742077050453174e-02 -7.053357633108333635e-01 -7.404842472869636871e-02 -9.732592900097498945e-02 -3.062616437333462449e-02 8.782192835271827036e-01 1.157279185023816437e+00 -5.067946613349396529e-02 1.015705436811507933e+00 -8.363849201679712797e-01 9.765906819369346570e-01 -1.260218396813717334e-01 -8.893031187336061238e-01 8.751004414142644905e-02
2.738890321256757729e-02 -9.860860538490424654e-01 -9.745815669952780924e-01 -1.017112409746738333e+00 -1.008531611104765080e+00 -1.002874753875055758e+00 -9.955792541736054879e-01 -3.111357029444432321e-02 9.430441476122077837e-01 3.351364510123869961e-02 -9.007056050388655422e-01 -9.457498985089485277e-01 1.005151939354453905e+00 1.026569854976546514e+00 -9.980572813745083316e-01 -9.751394921844932506e-01 -9.747977771961191529e-01 -9.965505832898502447e-01 9.689092698034048601e-01 -9.959775896048425059e-01 9.655808434674526541e-01 -1.065258591369027119e+00 -1.008347039035094150e+00 9.145514682269292317e-01 -9.688105301829170735e-01 -1.037958692016939466e+00
9.672159751650168946e-01 9.432244176744426778e-02 1.008845647626101849e+00 9.976742105583624731e-01 -1.022298895398874530e+00 -9.698973288764753953e-01 9.362633715305500592e-01 1.101772249469151754e+00 9.695395450688596428e-01 -1.777811309943982824e-03 -1.130671779312988900e-01 -2.086895065734223689e-02 7.902089857232064141e-02 8.776364917106158625e-01 5.088245596061794461e-03 -9.995834860566691349e-01 9.111066058677909085e-01 -1.001980986236292281e+00 -1.048400451614225792e+00 9.299875893262381510e-01 -1.012461936308754584e+00 -9.544307752341045781e-01 -9.646830307091321943e-01 9.337038239467455591e-01 -1.005188635141075260e+00 9.429651064174300323e-01
1.615624327065594557e+00 8.449894939947778516e-01 -6.534424094620472356e-01 -5.440896542932580626e-01 1.559502385173400403e-02 -1.292838120798954771e-01 -9.220817741514710786e-01 -4.215171323820952054e-01 7.342321058119237742e-01 7.524015138294166682e-01 -7.124034653975354070e-01 1.340019609714955817e-01 -3.595386661589675126e-02 6.561844376972112425e-01 -4.442787906315075475e-01 4.774896324539847359e-01 -5.079079438747159392e-01 7.131121296237113993e-01 -6.734150804316638705e-01 2.760003879026360907e-01 6.354914917608056601e-01 7.704994545360603908e-01 -7.087928878399031296e-01 8.030934709485255951e-02 6.614676350085183509e-01 -2.317930468279215006e+00
1.041086173640568102e+00 -1.084539278987247668e-01 -1.876865415174711893e-01 1.009182374389989034e+00 -6.091166282498696599e-02 1.487011100015215581e-01 5.174501323552092025e-01 -1.643955318213035366e-01 6.860891522004424203e-01 -1.269094205792507257e-01 3.279049872753161954e-01 1.988495498711885801e-01 -5.252230835129628739e-01 8.517448351861560685e-01 9.515516893478539462e-01 -9.482331310049345319e-02 -9.391996039528061058e-01 -1.044011894744800273e+00 -4.370879602613018944e-02 -8.586627907105697233e-01 8.579219980525538691e-01 -7.619579664570191868e-01 -2.524291817626515000e-01 -9.041428037036414178e-02 -1.234120083586837779e+00 9.557879083942648624e-01
-1.021195553754889129e+00 1.038784048672713567e+00 -3.357904793183374113e-03 -1.421382478908457363e-02 9.830514755875368049e-01 -9.293485709921627258e-01 -9.549657562825801804e-01 7.367491708812407003e-02 -1.013956842865557650e+00 -7.680975207947988992e-02 9.306670201866065195e-01 9.873472720426283988e-01 5.484873189023194151e-02 1.010561691939880546e+00 -6.469342654853983687e-02 -1.031483310468559456e+00 9.727216835342641366e-01 3.789981844326120730e-02 -9.382130713398230126e-01 -1.025365848672597835e+00 9.364757860066142969e-01 -1.014785746024836621e+00 -1.119212406811495031e+00 -9.807760518620656232e-01 -9.804582175057393600e-01 9.222924073255862609e-01
8.233241971572552442e-01 -1.674985211236245664e-01 -3.871587881167600376e-03 -9.444561705064700163e-01 -9.510632480429919156e-01 -9.795649098114745518e-03 -8.721501229705448388e-01 9.679553972764898262e-01 -8.555882144659001654e-01 9.973675263181115414e-01 8.676696665452943158e-01 9.660535788915250999e-01 -9.413554518287905459e-01 8.573780081651027896e-01 -1.344658351248255446e-01 8.935467242195955784e-01 -8.870248367688708946e-01 8.131894721042202956e-02 8.123621193690234721e-01 -3.170289580834326909e-02 9.583186030791832621e-01 8.255083284517618081e-01 9.086314552113944343e-01 4.450285306771431526e-02 9.463787854865599591e-01 1.049836140666493334e+00
8.457684149306287091e-01 -1.465609071696563293e+00 -1.162738568595461652e-01 6.182033358433469683e-01 6.944500948538934182e-01 -8.424998170686209820e-01 -8.134820991071371743e-02 3.425768151368931425e-01 5.072611168494788325e-01 2.966770481418314342e-01 5.729214847939471111e-01 -7.199736674836738903e-02 1.432782210253886190e-01 4.239742700914073126e-01 -1.468087765673186107e-01 2.798570414447590360e-02 -1.206469876310989758e-01 8.007852824878505804e-02 2.903915916483007509e-01 -4.785607365270241331e-01 5.236790315051769590e-02 3.747817213548949034e-01 5.617994297801311987e-01 5.860215002897127823e-01 -5.138264454306856743e-01 -5.980612041496968789e-01
-8.888853409322237109e-01 9.900380672706838442e-03 3.139382307888822533e-03 -9.255053812745571706e-01 -8.168350580317366161e-01 1.011727966925879185e+00 3.193390490335841492e-02 9.389085897943520997e-01 1.885886120354553566e-02 2.288381058870512380e-02 9.192018124115766131e-01 -9.754103657575595721e-01 9.729911714954198043e-01 -8.645010326372465359e-01 -1.053637461450796842e+00 -9.356682121376569405e-01 -8.918709097878492198e-01 -9.836535670360937456e-01 9.731884547934940843e-02 -9.200553705459350029e-01 9.353081514810174246e-01 9.364711439402225723e-01 1.048133128626418387e+00 9.701907610421585115e-01 9.365735818520886102e-01 -1.245330520817030440e+00
7.430064654686756587e-01 1.114117440053275399e+00 1.091875866476989254e-01 8.494888962638136309e-01 1.203451727467278326e-01 -8.804919501358520195e-01 7.967846493017765042e-01 -3.725308369569702623e-03 -1.600403355807520911e-01 -1.775107397214725768e-01 -1.035031052586007361e+00 4.029013442436783950e-03 -9.485826022621718367e-01 -9.760371633413426062e-01 -1.012233416844067646e+00 -1.742711947542218143e-01 -1.065015316367022180e+00 -1.276786048097358905e-01 8.685624911879118448e-01 -9.700458204424381448e-01 -9.987935683577738866e-01 -9.795178086900820924e-01 -7.740762461452033172e-01 7.683611087892726621e-01 -9.448250580402657306e-01 1.985562306939541999e-01
1.091654422807524005e+00 -1.025218140331114913e+00 1.006684790848516808e+00 -9.025886309372170846e-01 8.959450164510593950e-01 -1.026943662498327692e+00 8.522356313105102776e-01 -8.891220696642884169e-01 -9.969843775462922109e-01 9.027599570535005391e-01 -8.873609191501599658e-02 -9.941681983236134723e-01 -6.529233147222587852e-02 9.938508912445426224e-01 -5.585269917784719401e-02 9.349852296453589062e-01 7.974703246812967286e-03 -9.255720347321138020e-01 -9.735042286569988157e-01 -4.741343626937716271e-02 -6.185805700695221065e-02 -8.903918255527865089e-01 9.843890171182232418e-01 9.997641159006176448e-01 9.872156444584976320e-01 -4.074668259232294004e-02
1.546259269255754673e-02 -7.901951862330558463e-02 6.732380127369459455e-01 7.045028848483356754e-01 -5.113660676411352357e-01 6.678803828174030288e-01 3.064375563262830005e-01 -2.273789236958762561e-01 4.536764292234629070e-01 -1.006495610952796937e+00 6.868077192433134082e-01 -1.900433575681746423e-01 -9.864280120649221439e-02 1.020216261955543935e+00 6.525772512441094797e-01 -6.622564725990571777e-01 -2.382842580828874735e-01 3.703392869967780943e-01 -7.342508735337002213e-01 -7.220988386074546073e-01 -6.399457547886883146e-01 -2.600088073868775940e-01 5.247909649361308659e-01 -2.305123460465243468e-01 -1.307578607566355355e-01 8.728808334691692816e-02
-1.077166147953074304e+00 -9.619376906796867077e-01 -1.295468519047987717e-02 -9.679199932417762442e-01 1.016856518099165774e+00 2.488925475163513215e-02 -9.411700668602859254e-01 -1.061914453117227986e+00 -9.791188600462420455e-01 2.221564169405355199e-02 -9.621149241691595577e-01 9.777870424497766555e-01 -1.037873816914077985e+00 1.517686545634138184e-01 9.487240954588406217e-01 4.762516802451229048e-02 1.256907907251308618e-02 2.320877246965747862e-02 8.942865964726604000e-01 9.896915946468985981e-01 9.734665215270037475e-01 -9.670962538878823400e-01 -1.049204226318676048e+00 3.122174229953560663e-03 1.021211218484722627e+00 3.690284482385751408e-02
5.482421397437572397e-01 4.431978707512900240e-01 -8.124097160204429846e-01 -7.261157162629832129e-01 -3.849051943673075793e-01 -4.481507617413678091e-01 6.279483699782719697e-01 -6.784718272073050338e-01 2.793610881509702160e-01 -8.926345466338688750e-01 4.395955365974890672e-01 8.149863684902156624e-01 -6.865528419682150885e-01 -6.646875440008511715e-01 5.769070300713462496e-01 -6.912236994597023010e-01 -2.101419768712001479e-01 -1.203244109100435888e-01 -7.800023694357169912e-01 -4.108215227859535745e-01 2.120441411961571987e+00 -1.618488214378052792e+00 7.906171700209656539e-01 -3.728924614936339754e-01 3.078402157199254252e-01 6.041512331911655931e-01
9.486824270037116369e-01 9.510980912531129539e-01 -9.573804187640997387e-01 -1.011610599493794060e+00 9.687243436155700271e-01 1.005601464588240734e+00 -9.574319686255053918e-01 9.069710080554381770e-01 -6.488285227957084345e-02 -1.070720840268488518e-03 -9.876055028103702949e-01 6.346824234575394741e-03 9.805534429887894365e-01 9.617155139964717048e-01 9.078489172930453988e-01 -9.987725611941238313e-01 -9.802390267115509426e-01 -3.328328788710000624e-02 -9.935196134189072659e-01 -9.842423185362503268e-01 9.423379569962827551e-01 -1.346846708656683315e-02 2.705259458672432116e-02 -1.742211692351352051e-02 1.454709512898011946e-02 -8.534746029823946367e-01
-9.792273000956233098e-01 -9.865232067802121030e-01 1.011156417018162390e+00 -9.511032645474807312e-01 -5.977683256169463027e-02 -9.790022389365491406e-01 8.775345655396602496e-01 1.159775268993190833e+00 9.646925761563786006e-01 8.080565244679942249e-02 -9.764243483757822917e-01 -6.535104030505881588e-03 -2.462687797754338215e-01 8.664565577729335111e-01 -9.574420183754042135e-01 -1.047870895028653271e+00 -9.985790624904458124e-01 8.878116397161278650e-01 -5.892274668886812033e-02 -1.322517699946881321e-02 -1.165820282586916938e-02 -9.515517939337906350e-01 9.926985280991811322e-01 -9.712246621004053115e-02 -1.824217867967434410e-03 2.170136559424671457e-02
-1.145711521676960443e+00 9.534482815367478770e-02 -9.899315247932886086e-01 -9.147062918122679243e-01 -9.241747436225887791e-01 1.054697346907088162e+00 -8.058662136890064609e-01 9.278850412285652993e-01 -1.017732321520367522e+00 8.803491484493209951e-01 -9.090948278915194081e-01 2.792911765762489881e-02 -9.193834842853386702e-01 -8.373365306071302028e-01 -9.119079655942130547e-01 -6.220828970054265855e-02 -8.822819399131313078e-01 -9.673338398003621386e-01 -9.148489482086339386e-01 -9.743277826747859249e-01 -6.280728646472663601e-02 -5.823696321369123408e-02 1.058099575698922212e+00 9.222262193090334792e-01 -1.023180628574413609e+00 -1.021493032594195327e+00
1.421937698764060287e-01 9.189132118732568077e-01 1.417673259901591487e-01 6.397609842396002611e-01 -9.833243053609748152e-01 7.201013300592505884e-01 8.839462788315169961e-01 -8.131386913965833463e-01 -7.162576021009258165e-01 -8.718196067442506025e-02 6.841683432880818483e-01 6.245630394970604904e-01 -1.206584270565606853e-01 1.005871062414670725e+00 4.619645720609767969e-01 1.115911250631296120e-01 -1.629190155978092580e+00 1.136490883954951014e+00 6.747943389739086140e-01 9.517832232510109458e-01 6.617011791586547842e-01 -7.982981435739709974e-01 -6.920358616182316069e-01 -1.367558275545368851e-01 5.534914841227411841e-01 -8.567168906985130894e-01
9.811138366920654219e-01 1.076121305576619003e+00 -9.784407239190701100e-01 -1.181021992890567418e+00 5.101164351481961637e-03 1.016789532114999117e+00 5.248621909911602157e-02 9.800789181655530369e-01 9.692458741895429997e-01 9.138857799359707546e-01 4.220275795833874390e-03 -1.038533404789500868e-02 9.900987467105473172e-01 9.319302331959911090e-01 -5.552837442129679446e-02 -7.993269921899462394e-02 -9.734568549253429515e-01 -9.111908146491335403e-01 6.600608345077574324e-02 -9.953931058324186898e-01 -6.673565365490658798e-03 9.654432715391705333e-01 7.047027820754864225e-02 -3.948992230748208515e-02 9.181015518881526782e-01 -1.021721829446310847e+00
2.928057263075995939e-02 9.688780292203475961e-03 1.009162580579013424e+00 9.469908109070289681e-01 -9.933684458670338779e-01 -6.976315994162823322e-04 2.585794346191709267e-02 9.216075915156715093e-01 -1.023869843259157530e+00 9.613626841676797818e-01 9.323273944948956560e-01 -9.463767478436595493e-01 1.020724260092616076e+00 -1.001250913773604978e+00 -3.574618762230132724e-02 -6.333379609732074644e-02 1.001187078020986387e+00 -1.006774040349664112e+00 -1.018086594448413429e+00 -3.157267950778355065e-02 -1.054676017515909114e+00 -1.432284782295858809e-02 -9.701192680726615780e-01 -1.077716254747374869e+00 -1.031282034017933613e+00 -5.983318192354696030e-02
1.079921264982547147e+00 -8.408214285410658961e-01 -8.208495514052152053e-01 -1.000913040149288280e+00 1.178061072640010476e+00 -1.323476808932036453e-01 -8.342526234920594197e-01 1.073787566281919403e+00 8.027166656018094315e-01 -1.099815625970844563e-01 -8.837798433048797975e-01 -1.238968483202054660e+00 7.881981558253616793e-01 -1.954824210648400951e-01 -7.962086910887085089e-01 -1.183117258464995158e+00 7.358325188453655741e-02 -7.879456309030691274e-01 -6.061655814802189429e-02 -8.654616881406422824e-01 -7.157633774379183744e-02 1.279262514434666986e-01 1.209860918255065254e+00 -9.021993868209929879e-01 1.095681318909800667e-01 -3.759887633616759706e-02
1.000970291711271054e+00 -6.669906864308970951e-01 -6.087138916601966265e-01 1.735601941813097113e-02 8.352411669306120112e-01 -9.750605841006675378e-01 -6.736672129511351859e-01 4.145304134699049486e-02 -4.898366105168038831e-01 -9.623675497599675221e-01 -7.970751149281043446e-01 -1.752561180768435339e-02 -9.120914835869307069e-01 -1.040503169120298832e+00 -8.320690128998003976e-01 9.672561106443434698e-01 -6.327819384220231269e-01 -1.033534050476431210e+00 -1.816628303853096982e-01 8.633339505488183407e-01 -1.986312832272097983e-01 9.769473352300329649e-01 9.419113210183802654e-01 8.441660384328850686e-01 1.126363460026377439e+00 -8.022122028294811358e-01
-8.108952041425396828e-01 2.859697330663149920e-02 -7.240191272716143267e-01 -6.486986274387719353e-01 1.244393888384934671e-01 9.330727149637038087e-01 -2.591864149159754660e-02 -1.052703033852081971e+00 -4.783932229079469467e-01 -8.193259213926378237e-01 -2.061247563453712794e-01 8.059164225400391457e-01 -7.028128245343143732e-01 -3.224106541859909081e-01 -9.565298448504944151e-01 -7.897186876003438050e-01 -1.044748063177602715e+00 -8.443415410410992639e-01 -5.933726159396147254e-02 -1.062748972359685462e+00 6.410444036621111286e-01 7.997206052356944372e-01 4.122280284207257561e-01 -3.820164351152155469e-01 8.468695328520889354e-03 9.474648261237895996e-02
-7.005525551957558078e-03 5.074794595138300279e-02 5.609756786929522877e-03 -9.730262038060141228e-01 2.942149826707459673e-03 2.100176948837361585e-02 -9.460767408061935280e-01 -1.011467749169258745e+00 9.862739736665450119e-01 9.203905694422602757e-01 -1.035608994809153804e+00 2.762653129739074849e-03 1.026974712920958765e+00 -3.724037663278197130e-02 9.376492338118870284e-01 -2.163194053171469539e-02 -9.848748844274317626e-01 -5.681034849330560479e-03 1.061823975685997734e+00 9.853029591287183475e-01 9.495423018796673720e-01 -1.062013513196641501e+00 8.288399386348725695e-02 -1.038339820521240187e+00 -5.266850738612779970e-02 -1.061712696950198875e+00
1.055953138417073056e+00 -3.011981306843394476e-02 -9.289095728796666895e-01 -1.194445923444682034e+00 4.652427145885101867e-02 8.463295857223166463e-01 -8.414594984552355994e-01 -7.865365787321026980e-01 -1.668388090080489550e-01 -1.028514098530406845e-01 1.654082112762739198e-02 -7.789444806859058268e-01 1.009654115223834081e+00 8.745620565984774109e-01 -4.616122756884134121e-02 -1.052620955369915290e+00 -1.721875182695015855e-02 -2.507511921175394343e-01 -9.179451964622606930e-01 -9.657297733336567269e-01 8.850701190985665878e-01 8.565546069064179369e-01 8.338371426822487331e-01 -8.655305182278993925e-01 9.766723267824217736e-01 1.124552658925458415e-01
-6.081676459538280094e-02 8.966002280081324383e-01 9.498821956172798231e-01 -9.612029400115955635e-01 2.551676796637552397e-02 9.575215981462987802e-01 9.817191846995825255e-01 9.450193038391829781e-01 -9.928041269581326933e-01 -3.046987013586703076e-03 9.908190393795032191e-01 -9.831201184923656911e-01 -9.773946261936057311e-01 1.216397323995385138e+00 -9.627575615589162306e-01 8.964374532389099981e-01 9.166911043258494374e-01 9.697991137059026601e-01 -2.384526273924344325e-02 -1.363827574242057819e-02 -8.800411772036500005e-03 -1.559225959537817105e-02 -1.024508341304846137e+00 3.265726338185920286e-02 -1.033866746081611110e+00 -9.741706906440473768e-01
5.195536846734230552e-02 8.197752437408131754e-02 2.639453029163594810e-01 2.798392759425187282e-01 6.576871584487344879e-01 -2.649685497741512963e-01 1.086018006100335914e-01 -7.486221260248035470e-02 -1.358693934859596109e-01 -1.311756065230568202e-01 1.572161844825418209e-01 7.669971564319288948e-02 1.250112674982352678e-01 -7.263912341321474009e-02 -1.330190067958481936e+00 4.201321963544413923e-02 4.470113042408795367e-01 8.391342798024178928e-02 -9.133866247874822264e-02 9.700007593656367888e-02 7.392265232167440948e-03 1.401192149743735738e-01 -5.303242826743205240e-01 -9.682842243109830715e-02 -1.102031713213421499e-02 5.348344641394141286e-02
-2.987436793038328146e-03 -9.604552381651377813e-01 -2.602839353109605985e-02 -9.390988858764754976e-01 -7.459275682176258471e-02 -8.551193142898021460e-01 4.401189878669715255e-02 1.177376151365850721e+00 -7.920734967924279724e-02 -9.519822515336681112e-01 7.427720906090364839e-01 -8.446030163493157827e-01 -9.572129508109947782e-01 8.342846284800927714e-01 -9.037312301184342589e-01 -9.929410746815873212e-01 -9.862564335149467398e-01 -1.096279352195186130e+00 -2.699413240247622303e-02 -9.175706163884116418e-01 8.190627824970097004e-01 -1.506633400421788505e-01 -7.804479302125931772e-01 2.160971028214540759e-03 8.643527914375086496e-01 -9.511029593209091582e-01
-3.212131712983682524e-02 -1.819374471967876161e-01 -8.637495189505646487e-02 -1.004534628071083846e+00 -7.591086355568522626e-01 9.012122638138242436e-01 -7.189370790541781409e-01 1.061966371314853719e+00 8.871868893990355609e-01 2.874713884466698621e-01 -9.987081326836867445e-01 1.299180817605468004e-02 8.306149497026226181e-01 1.020801852468555371e+00 1.901077460885744197e-01 -6.412962731876501593e-03 -9.524409878686567188e-01 -5.914793617466470588e-01 2.224907651440160283e-01 -8.171433923405533317e-01 -1.158888138908907850e+00 -9.913255644684572099e-01 -9.084583906662495600e-01 -7.894481368396355503e-02 9.212411716462034494e-01 7.034230692836207499e-01
-8.748300697310997798e-01 1.028354963139781475e+00 9.223032376665309950e-01 -1.016988035527636614e+00 2.385733163758699954e-02 9.932024298759025704e-01 7.194828345496968869e-02 -1.220806825479642033e+00 9.775637984267425695e-01 -8.816210589047386303e-01 1.064180057385674560e+00 -7.760321301730796484e-02 9.671541507936409765e-02 -8.910988130294189569e-01 3.384483675753448186e-03 -5.176108769818918431e-02 9.549097616606188055e-01 2.990562723212439322e-02 9.791255697825863857e-02 -9.094245135206013853e-01 7.375847642986739228e-01 -9.825242773511694283e-01 -8.869008771855851903e-01 -6.050931418473841361e-03 9.197708707582170629e-01 8.501696941491841686e-02
-9.840170941920045600e-01 -9.452407970797078729e-01 1.878665897431502571e-02 -1.036700295899190168e-02 -9.833082896389837568e-01 3.149459405647583171e-02 4.975526917810872002e-02 9.777136414754383775e-01 -1.716428674966986173e-02 -1.046449519856874621e+00 -5.079874149074976863e-02 5.059281094545843051e-03 -9.669326206481377861e-01 9.725053169397677166e-01 -6.372436237320824870e-02 -4.521790193828028465e-02 1.060709331680213460e-02 -8.965142348943326220e-03 1.054484014013868931e+00 -1.554907253438126205e-02 9.430396241563401283e-01 -5.179322105037483664e-02 4.888889424391252431e-02 -1.065987425532650912e+00 -1.060175244313397602e+00 -4.287348205994291617e-02
-9.755210925028188207e-01 -9.673841355884408300e-01 -8.808791833840821095e-01 -8.797509925122635188e-01 9.502443675042340221e-01 -1.021221935978568890e-01 1.013553842451491827e+00 -1.064668675172985093e-02 -5.563338431744617452e-02 3.147578225258595291e-02 -9.026282101244853528e-02 8.856771523976392224e-02 1.791819568388244854e-01 1.610303530805773931e-01 -9.958407589664511894e-01 1.018290145741362451e+00 9.164465320386800951e-01 -1.004026062752848336e+00 -9.886254816535559042e-01 -9.058963997516964461e-01 -9.102681764533032682e-01 -1.035609522491373613e-02 1.048635743143977728e-01 -1.543594606675573015e-02 -1.377962518050616578e-02 -1.189152358720138691e+00
-2.876298760551493662e-09 5.456426872487224838e-09 1.000000000160712554e+00 -2.446669724595302821e-09 1.000000004479996374e+00 1.000000007441803174e+00 1.000000001584881559e+00 -7.043672751529662077e-09 1.000000002052743087e+00 2.239688862769630942e-11 -1.000000001541489381e+00 -9.999999914562638370e-01 9.999999981342779787e-01 9.999999947153770385e-01 -1.000000013526014309e+00 9.999999773755178234e-01 1.000000001220518575e+00 -1.000000003284167382e+00 -9.999999854131865762e-01 1.000000006492957949e+00 6.058623658653318199e-09 -1.000000009473393847e+00 9.999999899491287536e-01 9.999999950842470842e-01 2.130509524436495048e-08 9.999999999439480591e-01
-9.780219597156208922e-01 -1.075930826004545482e+00 -4.005194165197179836e-03 -9.771010206457567682e-01 -2.146932922752512254e-03 9.499395433395215749e-01 8.836748735609997185e-01 -1.023984826259392161e-01 9.826743983114207825e-01 8.994567831518543999e-01 -2.460939765344631602e-02 -4.219464194570573395e-02 9.849365778337442201e-01 -1.090458557643733117e+00 -5.799354538759812772e-02 -9.711637678080380365e-01 9.582412114330957076e-01 1.579939833787356905e-03 3.705542203949543922e-02 -9.617985361733459859e-01 -1.002480589954061863e+00 2.889331240567415485e-02 -9.130839899859727327e-01 9.479569482154833748e-01 -9.371479618615038421e-01 3.893280796016694578e-02
9.774911997217929915e-01 7.530834045192594806e-01 -9.360583864567486589e-01 7.450123813391226237e-03 -3.429113964633122569e-01 -7.539327829451348828e-01 1.088745162324958660e+00 1.830409642685081745e-02 6.886559802202012713e-03 9.096188999740266734e-01 -1.583000955905451423e-01 -9.512589438774852191e-01 1.010197102868080732e+00 4.911521534780546872e-02 8.911502329588936178e-01 1.024477053437669594e-01 -8.386368070199456959e-01 1.032175847313865136e+00 -8.070337187913099175e-01 -8.784272705824089922e-01 9.650554332173555405e-01 4.480571061348425504e-02 -8.475927002115130060e-01 -9.030339450963803527e-01 9.419707646563775238e-01 1.376409871836675458e-01
8.265877438048913062e-01 2.353123146380263486e-01 -1.143076014777444083e-01 -1.081588061022344505e+00 -8.397826020914057610e-01 -8.245269275398201536e-01 9.267310570946825088e-01 8.208872866815863922e-01 9.324546456837660147e-01 -9.678904605617302259e-01 -9.685092570569028281e-01 -8.123399755352719298e-01 1.091466129676429864e+00 -1.032009769160524337e+00 6.622708239907083572e-01 6.801518756627850104e-02 -9.384059390082847285e-01 -1.115365115407457974e+00 9.631239419894270792e-01 -7.270214945475387269e-01 -2.069253001728534047e-01 -1.042036015568480689e+00 -2.133784349819019266e-02 8.554105117284591664e-01 9.941478610075967781e-01 1.120747157464820759e-01
4.565588779817583015e-02 9.847261874146616689e-01 -1.257386194250081218e-02 9.792687374807069745e-01 9.502103068549008213e-01 1.036566496557824735e+00 1.073597358573378929e-01 4.401282762846762953e-02 -4.540627860054914644e-03 7.861051064721167637e-04 -1.017520632781537371e+00 9.692662312972197824e-01 -9.073369525319486817e-01 -9.698579207938810010e-01 8.987472234216797862e-01 -9.451654770520876436e-01 7.412128015281838067e-02 -9.223493570376880557e-01 -8.893867863697830778e-01 4.065354652151098938e-04 9.337047023736638751e-01 9.489112700866745298e-01 6.212526303668287897e-02 -9.833353071375824372e-01 -1.299105003244649045e-02 -1.273741833829965808e-01
-8.806520441903513685e-01 -8.653134854995145897e-01 -8.329354119078833385e-01 4.908341966507189652e-02 2.236867640961064663e-01 -1.030309349855428991e+00 -6.850570320895429388e-01 -4.240837381107168125e-02 -8.446891849691295917e-01 -6.114285346099045393e-01 6.534150342703570757e-02 -8.749795593201090127e-02 -3.418176703059853105e-01 -5.600970766374956805e-03 9.150541564616417045e-02 -8.295370299348049370e-01 -1.545429335075706179e-01 8.843475105104141587e-01 -9.100443110766726074e-01 8.465087520520082620e-01 -1.382794172668060650e-01 5.650238926884766366e-01 -8.559909009548086756e-01 -8.039130050780352033e-01 -6.762834796119968628e-01 -7.125922782113625065e-01
-6.460410234025134972e-03 9.501452672557697543e-01 -9.513994599558912579e-01 3.819236697713666168e-02 1.069696006148971978e+00 9.604569200835110232e-01 -8.747241112573339583e-01 9.764757388450732156e-01 -8.116505903460303761e-01 8.897236779134940488e-01 -9.038782947749809948e-02 -8.649994768102188258e-01 9.123828490540416558e-01 -1.804787406061038714e-03 -1.171538467632408098e+00 -7.412749661881270491e-01 4.026916478633997820e-01 9.483339355458209052e-01 -1.007547822940440652e+00 9.168917397478201226e-01 -1.576413843619133281e-01 1.013791005399464318e+00 1.210173353044403377e-01 -8.286893651569626762e-01 9.284942249278355098e-01 -8.249465939118757474e-01
-1.783760535034112403e-03 -9.840041032627984130e-01 6.727319234464252534e-03 1.004808861482187288e+00 -1.049632012214170990e-02 -1.003831450578339446e+00 -9.807439767090638805e-01 -9.736493826861781775e-01 -1.004681012888733349e+00 9.450841446034268234e-01 9.816370688484635787e-01 3.132708868395609353e-05 9.922493886366131610e-01 -1.025398527059882658e+00 -1.029017400271808214e+00 9.325976600363699021e-01 -1.008633623711759908e+00 -1.773402264350375929e-02 1.625545124754445084e-02 9.998165812387499463e-01 1.174045976326536581e-02 -5.843815641975903460e-03 -2.398202472772624494e-02 -9.310994684512420225e-03 -9.885288732077439633e-01 -1.010831490336365768e+00
1.911733144875705712e-02 3.867461389886007322e-02 5.228453260465114848e-03 -4.736790919021425378e-02 1.466974642397874014e-02 -9.528073227447518834e-01 8.160800943130851193e-02 9.734928831824238848e-01 9.674451080913766265e-01 -1.015258602472952409e+00 1.003217999793801329e+00 1.072447717593542960e+00 1.744535874055976044e-02 -1.197090813565458711e-02 -9.574184810763786135e-01 -3.281878599782631079e-02 1.363074699748784147e-02 -1.002932687261430589e+00 -9.246242783815561417e-01 -5.680534789691992631e-02 -9.880175241997282143e-01 -1.045114129590240415e+00 8.637369771039292710e-01 1.012126777500791830e+00 8.968614495225650796e-01 -1.087943572590719110e-01
-8.255256835699438245e-01 -6.821053628495297172e-01 8.043923209490672077e-02 -8.760773309884278826e-02 6.532801111926631044e-02 7.760512920535008741e-01 1.151167972181696530e+00 -1.025009598823136914e+00 -5.978467400731330983e-01 8.476213468873301515e-01 -2.048798133416732462e-02 8.934012416787477928e-01 9.071426344073557635e-01 1.352210415583611769e-01 2.469739789256465146e-01 -7.287760938786417286e-01 -9.175967796429704837e-01 7.372414711353070249e-01 7.943490593703639302e-01 8.653372275086557153e-01 7.444442975096445814e-01 -9.621597857161690026e-01 -9.487091279722397186e-01 7.512124189934010765e-01 1.053589902781292498e+00 6.629129104120730087e-01
-1.118040726925996625e-01 -3.558389683891877153e-02 8.005232979150835870e-01 -6.958939761837130700e-01 -1.864631524180207778e-01 5.809373688278831466e-02 1.615834593436764055e-01 -4.173020532670929095e-01 6.269534394007588718e-01 8.555408197084541852e-03 2.866275064382861060e-01 -6.787356159881922923e-02 8.106024621641680361e-02 -6.304855193871273036e-03 -1.026016198872081731e+00 1.897065600460300372e+00 -8.142284777387638339e-01 -1.308415246263086473e+00 3.678351347866706256e-01 5.970781810161619463e-01 -8.188538606779559303e-02 -6.973257288096903483e-01 4.719406220406862640e-01 4.462857555099565832e-01 5.483780940118025971e-01 4.339956918160605137e-01
-9.704092955727977587e-01 1.526459292320742067e-01 8.231746808640687529e-01 -1.767606275193655263e-01 -9.374655882306218713e-01 -8.809851216135411445e-01 1.614006232637693050e-01 -1.078574150963086620e+00 -8.284176913279311938e-02 -9.914413502403313094e-01 -5.187219777169079817e-03 -8.182038987728293966e-01 1.045074415791167777e+00 -1.047179435036097450e+00 -1.002558227227905219e+00 9.570053213225486743e-01 9.670062529668876916e-01 -1.332824077958686682e-01 -1.363445262664956248e-01 -8.549143864538369941e-01 9.247432237825297108e-01 1.003642010690621422e+00 2.389366037418476918e-01 -3.981173602025442904e-01 1.050728385498771872e-01 9.050114067220499381e-01
