-1.103353724941416703e+00 -9.383689469815627016e-01 -4.181113251940133529e-02 -1.009991379079071550e+00 -1.033513834266651665e+00 -1.015953358431414433e+00 1.011739361510725521e+00 -1.012132155178460557e+00 -1.035935609849078842e+00 4.354591008358007359e-02 9.647970289593905679e-01 -9.753377164249598108e-01 9.648351725276209656e-01 -9.350312264932185702e-01 -1.889980290554556415e-03 9.655096312390539781e-01 -1.030922246694133459e+00 1.145939159084262589e-02 1.011844613531531989e+00 -9.960278468972801891e-01 9.363396382722135591e-01 8.999758608330668541e-02 1.028649440094507650e+00 9.507285087015946434e-01 9.348649038416182444e-01 -9.523789333305160421e-01
-6.579239052188363690e-01 -8.565310282301795697e-01 6.914498957203621954e-01 3.196296346094104068e-01 -9.580749669940017421e-01 -1.006566217662402618e+00 7.980243275758642785e-01 -1.013992895060905619e+00 -7.112823340142006012e-01 -1.451782509983578218e-01 -8.445105748975191284e-01 9.175897932058946216e-01 -2.343602283968773334e-02 1.015220686286391505e+00 -9.372605188945959398e-01 -3.924497659458139331e-01 -2.248429169606487588e-01 -1.096990862277353977e-02 -1.461355709296357219e-01 -1.704498449702179508e-01 -3.335391292834626389e-03 -5.645468347614625015e-01 -1.201117409551219817e+00 1.054836542850106529e+00 -1.054523462251049315e+00 7.243943782432484824e-01
-4.753362442585296055e-01 6.915258089748156367e-01 7.041237157914573830e-01 1.747612831033539815e-01 -2.521506600100927309e-01 9.915672622428508554e-01 -3.244030062127268854e-01 -9.289747950853805003e-01 -3.088497205374327592e-01 -2.552378088331329620e-01 1.037163675359420223e+00 6.974633085214723138e-01 7.012183834888979783e-01 -9.119776187414304625e-01 1.108957863905332353e+00 -2.807098966073731106e-01 -8.534560023170326692e-01 2.484849474674448444e-01 5.158493591922082011e-01 -1.070500632920433404e+00 -6.578038446919746152e-01 5.839404875773207548e-01 5.898916787044804905e-02 1.043396801116337702e+00 -2.106137083803148180e-01 8.026432268845711260e-01
-1.104581682793790876e+00 1.003211390390663649e+00 -1.061923983819226924e+00 -1.083061184408575350e+00 -4.291327392857585167e-03 2.630847942057787034e-02 1.005708792242049787e+00 -2.428753994968036942e-02 -1.037423689741015842e+00 -9.623101623713867792e-01 9.742223695469441891e-01 -9.630910389324451870e-01 9.699600995864856579e-01 -9.866928418018993119e-01 1.014535685438313406e+00 -9.999296388519532952e-01 -9.662325146337965576e-01 9.895537140116809072e-01 -1.932128174412454935e-02 1.051832256483236305e+00 9.650641826695322001e-01 1.004210901403911782e+00 -9.847295543434289034e-01 -9.930424622187006278e-01 -2.163978322589742240e-03 -1.060460286710827260e+00
3.515722577612414440e-02 -4.720404188951674018e-02 3.985380406176437795e-02 9.365094995981253223e-02 1.907208556559245316e-01 6.162485354805856408e-02 4.558712079878941836e-02 -3.777172230956151421e-03 -3.859298641565247351e-02 -4.735223715317883608e-02 -6.707325684563256174e-02 -6.623663835548751488e-02 1.003828674004580632e-02 -2.682785427593881514e-02 -1.028875798912333162e+00 -1.834621941845925724e-02 1.048206620229009456e+00 4.594336379966547888e-03 -2.991378084457014391e-02 4.851613525631486706e-02 2.490240515812020342e-02 1.913785347415549454e-01 1.236424254223236485e-01 -9.748469475894577796e-02 1.463935852148376959e-01 1.722791736023472353e-01
-1.001036368465103354e+00 -1.001048623275436755e+00 1.589291014444273523e-03 3.375787549491931876e-03 -9.929279103466843726e-01 -1.004121832120734581e+00 -9.988443732182270551e-01 -1.007689061948949361e+00 -9.654090161139931847e-03 -1.768497979948803131e-02 -9.923355357566487900e-01 9.382522760257775265e-04 2.846606606844786884e-03 1.268901553925017196e-03 5.693895778775028005e-03 -9.935702668076162869e-01 -9.964697649066769358e-01 -9.979416637091839126e-01 9.855959446847178951e-01 9.920259446494263944e-01 7.800977843472646500e-02 1.004811060758235453e+00 9.859257903205074225e-01 -1.005911790853504462e+00 -2.450962911382515135e-03 -9.753585262907671707e-03
-5.791169266374230490e-03 -8.414984865069463638e-01 9.472736822596544704e-01 9.171673794661289181e-01 9.771375379731874755e-01 9.862007054432426756e-01 8.951240711858911292e-02 1.003652886603668914e+00 -1.044989603148463786e+00 4.985993412177484180e-02 9.940170398913277250e-01 -9.632307247171435494e-01 -1.007020092314766524e+00 -9.885010325576178980e-01 -1.214416789974837908e-02 9.745845437273529255e-01 1.472461921599496973e-02 -9.915525956211096448e-01 -9.211525799888196087e-01 -9.499392496398391117e-01 -9.642179835524112841e-01 -1.333920620472959020e-02 -8.708873836006755242e-01 5.384577652887498345e-02 -9.770339415742529399e-02 -6.285345588537995243e-02
9.024864479511274240e-01 1.323927710800338643e-02 -2.274072826061470862e-02 2.708011341393605498e-02 9.309107131225969889e-01 -9.669807545621129652e-01 1.017525577724082808e+00 -9.543596417328977788e-01 -1.001105604204722832e+00 1.039874013907583938e+00 -9.878921848961104146e-01 9.405664675333677005e-01 9.718814306666377911e-01 -1.027458049579063948e+00 1.935629936308794208e-02 9.884257518919611352e-01 -1.481454221150908454e-02 2.208760822459327616e-02 9.670093373634609524e-01 1.023341046840327451e+00 9.824227467606713171e-01 5.542065237669805550e-02 9.631618940567959752e-01 -9.614830893566373993e-01 9.256979920235415271e-01 9.966136149408055811e-03
-1.000000725574464289e+00 9.999964778147781841e-01 -1.000000140927920445e+00 5.733520978405401939e-07 -2.829099736745687616e-06 -1.424345816957984240e-07 -1.297391033549402763e-06 -6.069532540362244397e-07 -9.999992790613176918e-01 -9.999970080234987790e-01 -1.000000413860752557e+00 -1.000001677527903921e+00 -9.999980629317529734e-01 -2.006495597204011899e-06 -9.999988621921278575e-01 7.444010092925877084e-07 1.000001198653671652e+00 -9.999989963137477789e-01 3.488934735348207269e-07 -3.036228324109694452e-07 -9.999989369195259048e-01 -1.085077438580833464e-06 9.999967963645891578e-01 -2.130477142106485659e-06 -9.999987650136185069e-01 1.000000245284261791e+00
-1.186366985315413097e-01 4.457513308097990623e-02 -9.369030721520048566e-01 9.435971640268242533e-01 1.034040925004684919e+00 -4.788912534621487388e-02 -2.609166694670194547e-02 1.011471161681970043e+00 -6.791964902564107120e-02 -9.480437643157070271e-01 -2.697120570652008012e-02 1.002488828600252679e+00 -1.063887871384587624e+00 -9.258063444687039123e-01 -9.563136176021118651e-01 -7.333862225445945959e-02 -2.657213369822748663e-03 9.931966851328503099e-01 9.119341279781560949e-01 9.643796511748908840e-01 8.152348029774515725e-02 -9.462479570986684352e-02 -1.066889058708297755e+00 -9.843735795906808361e-01 9.271307520168535765e-01 8.453656659683721486e-01
8.817377280884448609e-01 1.026384290978964886e+00 -1.047689357732644710e+00 -5.969845271692195317e-03 9.461858408257928232e-01 9.641125705499772325e-01 3.309003666610538935e-02 9.951569813646375939e-01 -5.104484965860895535e-02 -4.038097016563312177e-04 -4.329246904591740192e-02 1.000343838232828242e+00 9.747605147250435476e-01 -1.018081693287079981e+00 3.060645130622458368e-02 -1.011253230593486485e+00 1.579353490646501212e-02 -1.369863399564220409e-02 9.669818848326796612e-01 9.958316110738444499e-03 -1.026397255273700626e+00 -9.808721539288789426e-01 9.828794636946908136e-01 -5.661300091640054238e-02 -4.408465902552421295e-02 6.676163662360747562e-03
9.999787285339041265e-01 7.805029731753497155e-05 9.999674287747841728e-01 5.609215608386358459e-05 -1.000011608238675853e+00 9.999102861768104367e-01 9.999166389043206982e-01 -2.803215755951271728e-05 -2.743652148912870088e-05 9.999901298106139702e-01 -9.828752048376025388e-06 9.999977924566899601e-01 9.999979156178285811e-01 1.000087560012631549e+00 3.577750600937149527e-05 1.000030004930302807e+00 -5.150203494498808824e-05 -9.999973652506928268e-01 9.999972966361503346e-01 3.235326164939393724e-05 -9.999558636364208608e-01 -9.999407469293059014e-01 -9.999972357381453625e-01 -9.999645551177878122e-01 -2.329393846349249645e-05 -9.999974920942276135e-01
7.631761724181939099e-01 9.707188064833379704e-01 -6.311346774129563200e-03 -9.550397934567866898e-01 -3.466581113554807053e-02 -8.500644100316192553e-01 1.381723289885163353e-01 3.064112051872784626e-02 9.586893135186539405e-01 -3.723393524216814243e-02 9.182519587914373949e-01 -9.646834082767948848e-01 -8.709237031532010564e-02 8.934797333482757953e-01 -9.431061308849677527e-01 -9.853338560034549110e-01 -4.734911626408638136e-05 9.408326257710016849e-01 -9.993731379323841368e-01 -5.984972415745917068e-02 9.255625354545322647e-01 9.791019498126819487e-01 -9.985015241280459364e-02 -9.236217707474461136e-01 9.498083123909405456e-01 -8.437853432514740293e-01
3.900626602579901347e-01 9.592631849863954008e-01 -4.817726695587041807e-01 -3.264126761530177223e-01 7.013577789521057149e-01 -6.584114850180931011e-01 6.785569077729315668e-02 -2.512198876992693952e-01 9.429200828564733294e-01 -8.576426137421213625e-01 -7.333004512606677849e-01 6.405395659378002593e-01 -7.869737317234979379e-01 7.672851608479883678e-01 1.038922802635598441e-01 -2.104029864445357556e-01 -5.431384513436304795e-01 -7.978270670704168399e-01 7.663071130758107863e-01 -2.828309561909163605e-01 -2.737120710756329456e-01 2.400918305477569431e-02 -1.202752429431198200e+00 9.628528787454639915e-01 4.065528199091021366e-01 -3.631020656664843971e-01
-1.032667364838094182e+00 -5.674334731452634895e-02 -2.100029646864089421e-03 -9.361224354498822731e-01 -7.017970724641907354e-02 -1.003761852238708840e+00 4.252860176084619082e-02 9.677621155370934591e-01 -1.062310181554757760e+00 1.005791792126224271e+00 2.127670227228008887e-02 4.103437541449460324e-02 9.949681648144367285e-01 -9.917940819445929534e-01 9.948230503556289017e-01 -9.079264948101956056e-01 1.607928030447613663e-02 -9.251690951354614167e-01 -1.030443461409348282e+00 1.003137382232813235e-01 -9.861206649352461939e-01 9.249598247635729686e-01 9.945803648761318838e-01 -1.061425211094055854e+00 -9.656750039044419420e-01 3.688316594100423534e-02
8.805580612873050717e-01 -9.448521653639735396e-01 9.439535298761041471e-01 -1.541177765002310976e-03 9.339414666946896926e-01 -4.877061230134355219e-02 3.459350104888813532e-02 -1.010248613054062883e+00 9.411872843387948384e-01 -1.003809681199046899e+00 9.555370301066424821e-01 -1.746272557912443993e-03 -1.023194155928292437e+00 -1.326514039179893523e-02 1.025011433315910825e+00 -1.206212923695528481e-02 1.626361711839580115e-02 9.712205317746979150e-01 9.720460525393288531e-01 1.006047921084199492e+00 -1.032015154620386843e+00 -9.718473749098498482e-01 -1.019078640528508828e+00 -2.293832413292598571e-02 -1.050915641721221316e+00 1.010525437794098202e+00
-4.226610115011157909e-01 3.999359225057739775e-01 -2.387397565648903541e-01 -2.564516519488155288e-01 2.407859977501426996e-01 -2.941231142855332270e-01 -7.289345015872766842e-01 -1.790057202880873444e+00 1.234024188915523214e-02 1.978550152373348692e-01 -4.615542808735607072e-01 -2.030318972290025559e-01 -2.326040945671544735e-01 3.207688988382503936e+00 4.489160277571724311e-02 -6.203945353764211967e-01 2.594226773535827646e-01 2.138393922783420609e-01 1.559183840928858025e-03 -8.545489503567496592e-03 -8.186319201254742273e-02 -2.280173123685123038e-01 -3.003031252209299451e-01 -3.526143876841497660e-01 -3.400478682201347747e-01 -1.010999737707610757e-01
-1.677131443449567383e-01 -4.873793308235301047e-02 1.588533502991362478e-01 -3.349114232742894104e-01 5.206338519882024174e-02 -8.141176505640955463e-02 -5.550150951848045189e-01 2.072115327280037000e+00 1.105909439539178585e-01 2.669150479357256314e-02 -1.774320395539623896e-01 -7.989143902916162610e-03 -3.211253490605439631e-01 -1.279131015710993413e+00 2.533219096269180293e-01 -3.579407535345713876e-01 3.767910805558774001e-01 -7.898627466599072999e-02 4.978558468649744995e-02 1.303891784860281844e-01 -7.733143057461221159e-02 -1.999318355234195876e-01 -2.513944733369185558e-01 -9.256981593561418309e-02 -1.358938420979373396e-01 -1.617614667821244689e-01
-1.438063545147776588e-02 -1.001174613683956771e+00 -6.224638331262240948e-03 9.997229553285508219e-01 -9.974739150192736270e-01 1.001912551233748783e+00 -9.958977606249560521e-01 1.007106811030752391e+00 1.000836026442257554e+00 9.942439940041002400e-01 -6.161145706111593491e-03 9.914184523452597153e-01 2.266245048301650505e-03 -3.841051322508983335e-03 -9.996860202215784863e-01 9.910216749895146560e-01 1.000836393061397045e+00 3.343439090253168462e-04 -9.945939564280616985e-01 9.982009194172462019e-01 -9.939997494933386912e-01 -9.973640228242629524e-01 3.170126981533607970e-03 -1.226124525351384017e-03 9.897173786748885149e-01 2.132065199473135320e-03
3.408284465382937362e-02 1.015290507362565764e+00 -2.070411931650870466e-02 -9.816190689775414757e-01 -4.234180741369462063e-03 9.745795078842137693e-01 9.951343714246551064e-01 -9.754253917084771963e-01 -6.329157889489595012e-03 -1.018608265352558107e+00 -1.010528968927562943e+00 9.460736311763207063e-01 9.850271624039996787e-01 -9.491524991242259457e-01 -1.260625249609582596e-02 -1.001974527463752374e+00 -1.582544153531457651e-02 -2.419547313317814159e-03 2.349333843071927698e-03 9.799374464785374217e-01 9.608779588152833728e-01 -9.750465779438604041e-01 -1.202528909126953423e-03 -2.788452711010492788e-02 -1.023305900890443487e+00 9.849296024638082292e-01
-8.988968840922849368e-02 3.188820576093157388e+00 -3.015548801386916389e-01 -4.793649023423457445e-01 2.399557677815690460e-01 2.977825810782579463e-01 -8.244547308549153575e-02 -8.041427085766322813e-01 1.479921344956856843e-01 -6.494075917413461019e-01 -4.504739268950244679e-01 -5.749907977518229352e-01 -9.858778688771320520e-02 -8.340246846843797357e-01 -4.069950877365299258e-01 -3.158464409108001636e-01 -4.472121573467661704e-01 -1.050625672472165206e+00 -6.080245789791580702e-01 1.027272773830318897e-01 -1.348338583350833231e-01 -2.217633258843709210e-01 3.428485989539236528e-02 4.075616144644655381e-01 -5.736848679312779309e-01 7.061109832899122862e-01
-1.117515776334973454e+00 1.026110874452141219e+00 -1.046757600872564087e+00 -1.004104312940842458e+00 -5.379169424267294525e-02 9.643521772658344426e-01 3.308852132245200528e-02 -5.406418708101797324e-03 9.494313894403800802e-01 -1.126730284556957365e-04 9.571445761818992981e-01 -1.000284736434213784e+00 -1.024848215755657543e+00 9.823889414071834691e-01 3.053667782100452643e-02 -1.147089316252410812e-02 -9.843869119788497546e-01 -1.296429870053216610e-02 -3.317424739150787172e-02 1.010443777287578504e+00 9.737311177628602543e-01 -9.824115200145110416e-01 9.840195329820476955e-01 -1.057374375181106441e+00 -4.373473683700402487e-02 -9.944565307147846811e-01
1.518878368497331372e-03 -2.716820023912327464e-01 -7.984495763608196947e-03 7.171266937434583877e-01 -9.202058646215665050e-01 -4.762919994997164563e-01 3.303423478650404088e-01 -9.790872040589934100e-01 -6.751703379253950477e-01 -2.866083656921311063e-01 -9.714898054127633076e-01 -9.362121949025448142e-01 1.987355551476587268e-01 -2.406886866829545668e-01 -8.730034447114077834e-01 -7.253662687040863810e-01 -5.814512513972098784e-01 2.196420383426535561e-01 8.714310317161001462e-01 -7.721495773331721324e-01 1.252839640498903062e+00 7.899420291059171539e-01 -1.640896498754609301e-01 7.850494112359939214e-01 -8.524185292921997448e-01 -7.899133859715034012e-01
9.722169880160609345e-01 -9.792878533520735784e-01 -6.233706100597091043e-02 -1.064703427447626805e+00 9.511193897345445736e-01 9.757988389520432237e-01 -9.757496355140219402e-01 9.863725890744476921e-01 -9.921393354647402019e-01 -9.957920708674925514e-01 9.963433615297571100e-01 9.232400262387148171e-01 -5.138003455033262473e-02 -9.927680353234373811e-01 9.055831389662936104e-01 -2.387026619027969934e-03 4.496825131246134054e-03 -4.541319964882990822e-04 9.824251545616788928e-01 -3.017184054077011977e-03 -9.851706170536824736e-01 1.010908737224687215e+00 -9.651281977850866278e-01 -1.585444088812734340e-02 -1.344476913578921025e-02 -7.372505492120572379e-01
-4.805227579441747054e-01 -3.166523921857060386e-02 -1.036885410442294875e+00 1.146944034605354545e+00 -9.073171418065912874e-01 -6.332517909940960088e-01 5.488310026935860897e-01 -3.331763566493916029e-01 -9.872819337492097502e-02 -9.880398181073301034e-01 -9.041629337727863369e-01 1.998313665612880541e-01 1.134059025975218571e+00 -9.513304642186380944e-01 -8.344856701135547894e-01 -9.276088668440067853e-01 1.250054570917132624e-01 4.549369196106899382e-01 2.291778679359510740e-01 -1.025710264063983967e-01 3.027373165473675742e-01 -5.565754608494968836e-02 -1.002255610019594068e+00 5.952709123802302216e-01 8.868583844722162102e-01 -2.623369233076562890e-01
3.319658444139831910e-01 -5.038282084654371884e-01 7.052991402460018211e-01 -8.866324107821819955e-02 -6.574138354798796380e-01 -9.671807506010473565e-01 -2.766442714916187984e-01 1.449536332033960262e+00 -1.363292534139545431e+00 -5.447469654584692345e-01 8.462195124469352736e-01 -1.939914648490296822e-01 2.109987828691554379e-01 5.205485805511633063e-02 4.327431185467071062e-01 7.196414825554635630e-01 -3.061467068516379730e-01 7.965296199565199409e-01 -3.917556925345888064e-01 -3.403017046329846473e-01 -5.594104413555265332e-01 -7.024339179910304987e-01 -4.236927003256766300e-01 5.648408510251725148e-03 -2.502537938926981398e-01 -3.617957716748978481e-01
-8.797889011674955295e-01 7.276030975778891019e-01 -8.488401485108560962e-01 -8.678870481389776570e-01 5.410925733896235768e-01 -9.159870543523901398e-01 -9.843736558129709824e-01 4.578189450780753567e-01 -9.069853482997645155e-01 -5.547270804773679620e-02 -8.636776068572372678e-01 8.936049540755531817e-01 -3.788984045604933404e-01 6.268878380511928583e-01 -6.463812574040334567e-03 -5.630002188077078973e-01 9.928439566489998258e-01 -2.594684863072518888e-01 1.056918084523903012e+00 -1.723568188466530759e-01 -3.654296089416571580e-01 -4.697881433782164495e-01 4.516069439488922255e-01 9.854049988141259098e-01 -9.855145635369079171e-01 -5.289678429731156095e-01
3.569100089275724641e-01 -4.333198736726021072e-02 3.456379838089944645e-01 -6.825325275705457218e-02 3.298159732281728540e-01 -1.111552178083835378e-02 8.807159614881522602e-02 -4.133172933613695095e-03 3.281735750615358826e-01 2.644520407977881196e-02 -4.448755530766372313e-01 -1.101012747689185112e+00 1.262210007527718447e-01 -7.538020784561758059e-02 7.395025284998554826e-02 8.028821933054645921e-02 1.133901309609346153e-01 4.728055218228648937e-01 1.786130838079139915e-01 -2.613121239042495020e-02 6.357143759378908708e-03 3.938542269216029762e-02 -3.284877918396342800e-01 -4.554845985269163622e-01 2.617888200583871061e-01 2.515660901396581939e-01
9.039213957524691034e-01 -1.004432896259520813e+00 9.136807725765507815e-01 -1.019365370831190720e+00 9.711623455125597548e-01 -1.949419680878351942e-03 -9.959957684373236253e-01 -2.775616845888885867e-02 -9.999173969360855008e-01 9.540811709505039317e-01 -5.424464916488998256e-02 -9.572670140072140343e-01 1.114672582482394668e-02 1.406468884493239369e-02 1.725441890771265974e-01 2.926725740138762157e-03 -1.987782148841111401e-02 -9.860640597429728427e-01 -3.965043655492694191e-02 9.780946958811477243e-01 9.745266048155275529e-01 -9.940160670928643860e-01 9.542910084497613354e-01 -1.023415476245779443e+00 9.779027426266875267e-01 -9.653250547340243015e-01
1.085719906142373903e-01 -6.942860145001771011e-02 -2.635196656575326118e-02 -8.674072488388783198e-01 1.111378010861413003e-02 1.680575352485698393e-01 -4.216997503050019525e-01 2.560906297767636675e-01 2.041652343000563974e-01 1.531255613627148515e-01 3.390070061451507660e-02 1.294604860197119400e-01 3.663561342438684254e-01 -4.839433046058626564e-01 2.940445858148905134e-01 8.795199588181254469e-02 3.460353070441239409e-01 1.849900331481743598e-01 1.447240862668588701e-01 6.175758345693004026e-02 -2.273860492605369044e-01 1.103711227433080838e-01 -2.057349286107666708e-02 9.898472049776571580e-02 1.131635042626633059e-01 1.336368688515028082e-02
8.839680259156238451e-01 2.198832983780019124e-02 -2.162264386029576907e-02 -1.001708318778407270e+00 -1.060361674618857775e+00 -1.018989981840957126e+00 -9.228644557884426725e-01 9.439211790150622283e-01 -7.453749936207572369e-03 1.009857558860004945e+00 -1.036525085991873318e+00 9.701109830851957216e-01 9.636418421419820080e-01 -4.782992279820168224e-02 -9.677497353501564037e-01 9.141764476270826112e-01 -3.742753720569117100e-03 -4.248484954631952248e-02 9.737423188886096259e-01 -9.366759789729686148e-01 9.591378052606861493e-01 -9.366469794670496674e-01 -9.893721008706859443e-01 -9.891632229056647185e-01 -2.849234825474868463e-02 9.697731966185911892e-03
9.219365509114934021e-01 -9.452503156862722689e-01 -4.739880158390492870e-02 -9.629673865235334196e-01 -1.019440641862286556e+00 2.579025036825256453e-02 1.025005862863764605e+00 -9.677416606625361961e-01 9.337596973741446593e-01 9.743357912299850376e-01 3.334237849932684961e-02 1.005906792978362718e+00 9.638680235492301795e-01 -1.003671588197026621e+00 1.019249259758843396e+00 -9.905780945977129548e-01 3.981625220436974151e-03 1.022865101908603691e+00 9.820549773457758480e-01 1.523917059306794004e-02 -1.340113117160641326e-02 -3.456939380109826012e-03 -1.056590949217571129e+00 -1.028796321322524632e+00 -1.051021956782554945e+00 9.977556899212017827e-01
-1.000291995061102002e+00 -9.986244279053831940e-01 1.003012424634735389e+00 1.005093689988370231e+00 -1.005598993635249405e+00 2.721826820347995803e-03 -3.259272400144050830e-03 9.958371648852766267e-01 -9.948693518608009434e-01 1.914196669039509510e-03 9.992136764093523249e-01 -2.117645377037350157e-03 2.885569345791128525e-03 -9.979329729265556947e-01 1.001505423928148009e+00 9.954313714842829564e-01 -1.009758345081749109e+00 -3.498947139535070645e-03 -9.931544628393825791e-01 5.050684128826086680e-03 9.946421119579050840e-01 1.004595408469593831e+00 1.001739282240592610e+00 9.997015794331899352e-01 9.961006546822332997e-01 1.443123781873417505e-03
-1.002275333643239064e+00 -1.331710060654387184e-01 5.236670125719006946e-02 8.779950160421891026e-01 5.164300307661628259e-02 -9.210647765769647277e-01 -8.144498050573274472e-01 1.038184126082013714e+00 4.454631715813680420e-02 7.615630849792365265e-02 2.658892912571012707e-02 -1.008399484953377501e+00 8.964838205574452434e-01 -7.202386718828709955e-02 -9.071953773129118881e-01 9.399442140001959545e-02 1.049733558459689853e+00 -1.033610510982660609e-02 1.046216635009280749e+00 9.866895998924768429e-01 -1.606880220781068958e-01 8.463244546289235837e-01 8.933069543544599478e-01 -8.026372879356374543e-03 -9.862150721102059814e-01 8.890099299656902820e-01
8.809847546943450070e-01 1.067041928240967941e-02 9.410952737836367765e-01 9.890855085521526036e-01 -1.816168511478418596e-02 9.345987297907879521e-01 -9.123154498124047551e-01 9.825295037594757863e-01 -3.967951755212612008e-02 -9.808283402892598035e-01 2.618650917754320948e-02 9.942584564822651849e-01 9.685819811063103302e-01 -1.011185381014688467e+00 1.025872575843385981e+00 -1.421533755644026342e-02 3.098137395438656932e-02 -1.196937536671525582e+00 9.586942997128173882e-01 9.921058956024533249e-01 -9.981979689118101184e-01 -9.315404720302228325e-01 -9.904714790922262146e-01 -3.982424018169306024e-02 -3.822206212855359941e-02 -9.866920144832529438e-01
-9.992894094142141803e-01 9.624452935039655710e-01 1.003573132060689099e+00 -3.490964291988733759e-02 9.419323079005738064e-01 -1.532002153983295090e+00 -3.229610143464090033e-02 9.473465004088338359e-01 9.357340530297199033e-01 -1.220695097728562335e-02 8.805214222302947258e-01 -8.973265475713202433e-01 -8.409777286649278150e-01 9.725402234982313265e-01 -8.262621181747991095e-01 1.054040973114424906e+00 3.772532530563420250e-02 9.071797679694307837e-01 -7.487812994331372041e-01 -9.188960633987018900e-01 -8.438126307259335990e-01 1.006366078544131293e+00 9.285610835093265347e-01 8.694483289525044567e-01 1.638347766948141659e-01 -1.814914655956360034e-01
-1.105517758052178889e+00 9.039901050262884041e-01 -6.073594635269555231e-02 -1.046199825293516961e+00 9.670745851296340678e-01 -1.031184561244023135e+00 1.018650040342156782e+00 -9.993643098468467656e-01 -9.831415733474687668e-01 -9.725383397143647635e-01 9.896757895828930396e-01 9.893412328450555959e-01 1.002316772310467806e-03 9.669683283009939956e-01 1.029220999808741599e+00 -9.742443990375708740e-01 -9.826270779586030457e-01 -1.010443088434421322e+00 9.358059051226720326e-01 1.066141038069542857e+00 -9.725382321925171158e-01 1.028019487871947524e+00 -1.001046463880019166e+00 9.739889646910424581e-01 9.431371733946544156e-01 -2.219068199292545049e-02
8.820297734499031594e-02 7.752197571257068986e-01 -6.076294931934931448e-02 -4.696333284054998031e-02 4.515936483399873164e-02 -9.807819247435064364e-03 -9.699623936619791165e-01 2.648786606140095534e-01 -8.988539524963188310e-01 -5.166517863592229309e-02 8.590108932094464578e-01 2.440816377346291186e-02 -4.480485284823060854e-01 -9.282627377948262648e-01 -2.097826697148343356e-01 1.077458692388198608e-01 -8.815221878178428616e-01 -4.071993504813344739e-02 -9.398783288222506416e-01 9.236695186667452928e-01 -2.251775695579998349e-01 1.249316614696948241e-01 9.743743433800716724e-01 -3.131786912088951880e-02 8.260990989982974764e-01 -1.034517736902484941e+00
-5.129844239107056447e-02 -8.606203293801449883e-01 1.188914190603779508e-01 1.725442598967683039e-02 -1.747659420524484003e-02 5.036943439203784845e-01 3.089681323341230690e-01 -4.532587557758001595e-01 -2.204051344021817904e+00 5.490283591873483804e-01 -8.914918214051427148e-01 8.340008710714561513e-01 6.640403247682018506e-01 -7.461635990370446558e-01 2.126206340390628391e-01 1.065343013872037115e-01 4.839489076155241154e-01 6.677319212111730851e-01 6.049598294846449120e-02 -8.161786816114218190e-01 -1.425723092813875881e-01 2.948866686632765077e-01 4.301287632449442566e-01 8.706561863050941152e-01 -5.725125196460949528e-01 1.476486541981513467e-01
2.980677068105471589e-02 5.073785075892568441e-01 -5.148850619174988319e-01 9.229035532969207534e-01 -6.346733585224222374e-01 6.169125112558799390e-02 -6.572245490436912085e-01 9.495956757206462928e-01 7.552756427435667330e-01 7.055511064960712231e-01 -1.317398837256632260e-01 -9.731101881385244567e-01 6.214337663378032284e-01 -7.933670593188151265e-01 3.534384773071356789e-01 -6.863623939261059848e-01 -1.361849043990746022e+00 -4.664433356142325682e-01 -1.732371969026256509e-01 -1.116769335358067661e+00 -1.864292202946457033e-01 -4.409007264323677733e-01 2.527077242946210722e-01 -6.546547792832498880e-01 -1.083716959137195762e-01 -5.781811600150041919e-01
-2.010131144757792976e-01 9.763134910499358110e-01 -6.050642634382374929e-03 1.130193996690681546e+00 -1.093489739923847237e+00 -1.938053079334695755e-02 -1.119832437412404014e+00 9.316135423105560420e-01 5.833418627150895042e-02 9.614869893536486245e-01 -4.433179886772751349e-02 1.003972565449748666e+00 -9.214212531174056364e-01 9.210340595321725443e-01 9.885811268363923210e-01 -1.841796388376368276e-02 9.061397223767457820e-01 9.474793834917911717e-01 9.378345729486833315e-01 -9.239498241887044161e-01 8.701841801445782121e-01 1.009418940459166469e+00 -2.334713921985239263e-02 8.568287097910223249e-01 -9.157251258150065354e-01 9.560091681736264668e-01
-8.695609977739608976e-01 4.747377982222267256e-02 -5.362931464250129121e-01 -5.688817837420510060e-01 -4.449380270474253551e-01 9.933571443920460875e-02 -7.709704688852676568e-01 8.765399683954615551e-01 5.274932573570512151e-01 -8.617968804653688419e-01 -1.239244747694864479e+00 -5.030100932834752347e-01 -1.153486633617124280e-01 -8.410961574613767811e-03 7.365995958402080102e-02 6.908794022568565119e-01 9.663514230981700148e-01 -5.173171920617153363e-01 5.953445411840175422e-02 7.717728097124936237e-01 -2.937662847840771252e-01 9.678553454538546541e-01 1.106280946562148981e-01 6.656515984113600126e-01 -3.611898512526430256e-03 -3.014444621556452986e-01
8.824814717933252561e-01 1.026109992470445542e+00 -1.046755087049493493e+00 -1.004105961997746821e+00 -1.053795082456434828e+00 -1.035643225196436923e+00 -9.669022341958670719e-01 -1.005412354916242368e+00 -5.056611029025810666e-02 -1.000111521860923780e+00 9.571465241021617221e-01 -2.869897959185767865e-04 -1.024845398799286267e+00 -1.761318465935061625e-02 1.030536834648583477e+00 -1.147105082396488243e-02 -9.843949525058777184e-01 -1.012968854157910492e+00 -1.033179069181182186e+00 1.044586610028715862e-02 9.737359461652981274e-01 1.759689518252460089e-02 -1.015982393602190559e+00 9.426275475115551972e-01 -4.373100580903564044e-02 5.539603608338385457e-03
6.010385015566205302e-01 -3.666461216326032946e-01 2.131251435980655307e-01 1.676604743071225534e-01 9.181264243961190230e-01 5.640794886477584758e-01 6.403878347507656610e-01 -9.755007536799132906e-01 6.831590309051717158e-01 3.248053308344260315e-01 7.453704302435116835e-01 -1.332751407953690626e-01 -4.392674011368212783e-01 -4.364540448285012531e-01 -3.550639220777597749e-01 -9.193135661621232302e-01 -3.053773767749905499e-01 -7.368647102597646326e-01 -1.644203222248606711e+00 -9.955795609706163951e-01 8.575281221693416278e-02 1.178544910716983751e-01 1.831675459527394578e-01 5.136006438209105296e-01 -5.481456741535510879e-01 -5.435235942129026943e-02
-5.453606010341708332e-01 -4.553527002779080290e-01 2.569413516300987355e-01 -3.627500875734680497e-01 -1.835535405264388242e-01 -7.733617673712451790e-01 6.009029401906587076e-01 4.298617835100143614e-01 -4.152907523414192149e-03 4.715595121893194352e-02 3.343128287960064338e-01 -7.525697202309384881e-01 -2.353860905718702448e-02 3.180814804295227782e-01 6.604346493966105625e-01 -9.017949750597091529e-02 7.022085179479196082e-01 -6.603778585152000336e-01 3.517591647887736706e-01 -3.421028399652495944e-01 -1.045791373689116399e-01 -5.738410145910410876e-01 2.378755093403511212e-01 -3.470621667785364073e-01 -2.517798037028279312e-01 2.115066676726658490e-01
8.380983005050387513e-01 3.840898884570262406e-01 8.389765424292864315e-01 -9.238091252063831416e-01 -9.449236194804354616e-01 -7.769428373108064889e-01 8.535993321888067920e-01 -7.430785425068530126e-01 1.045037874774187303e+00 -8.529303763127517035e-01 -9.639445100358066121e-01 1.923021073755757371e-01 1.147836257550924888e+00 9.996259354801783070e-01 3.392129729565452560e-03 8.942947331414953516e-02 9.560786775982089702e-01 -5.730427036468005442e-01 8.553824808752024111e-01 -9.732105696582761256e-01 -9.673582190324898633e-01 1.273881240423055394e-01 -1.034364388188034445e+00 8.895823914318334857e-01 1.035003502098583938e+00 -3.452049588217077219e-02
4.535841243737886441e-01 2.153241281577631394e-01 -8.802435271425225194e-01 -2.945172749147856317e-01 -5.994719825598244789e-01 6.270913780743578858e-01 7.282508705073708066e-01 -5.222653487721256038e-01 -1.536311082691412366e+00 6.142671760258919811e-01 2.200349348954309114e+00 -4.483814037615287962e-01 -5.656848159326102188e-01 7.196515942018953949e-01 -7.243066038976238019e-01 -2.144021858807236280e-01 -1.288042412280878457e+00 4.940653218609111219e-01 -1.084138792201772894e+00 -3.710696541094222201e-01 5.279076126659558721e-01 -1.125909247897228654e-01 -7.042268575518871587e-02 9.310926194026859504e-01 3.451314359979769097e-01 -1.853118323911524534e-01
9.081540828324939918e-01 1.023223729691899564e+00 9.617247203988841253e-01 -9.901571810094662585e-01 9.477978068914830745e-01 -1.039415806144184495e+00 5.424597171464858036e-02 -9.997544175268915367e-01 9.603282621737331270e-01 5.093573722856870392e-03 9.089083564116277048e-01 2.785658497902542430e-03 -3.156404758131289845e-02 9.756561714930249707e-01 -9.415292829711791045e-01 -1.003062542684923342e+00 2.725512757869392663e-02 9.967264341208382783e-01 9.763817975515306502e-01 1.958077247016784539e-02 -2.229974161274907510e-02 1.829967647887733445e-02 9.826880574955270120e-01 -1.060704811942349668e+00 -1.046537072634428744e+00 -1.001078271815089016e+00
-8.728284386819764595e-01 1.837372404715862523e-02 1.035800894222947299e+00 -9.727491825335091713e-01 -9.968651224901069474e-01 3.103459757901539176e-02 -9.542606631708405729e-01 -7.161487036392736281e-03 -6.293762624410066675e-02 -1.039378016987390968e-03 9.125576698986089808e-01 9.085633779644067820e-01 -9.259576408298829664e-01 -1.022622233045232809e+00 1.016013460342864771e+00 -1.044499331996405544e+00 -9.667410797347860685e-01 1.007408153890980040e+00 -9.775397149234800187e-01 -9.531297662656534886e-01 -9.001972326661294987e-01 1.050219007231727175e-02 9.642097193695686741e-01 -9.949969320486917734e-01 -8.573462181920930153e-03 1.007832800016382535e+00
-1.173108183360245027e+00 -8.759338243647999400e-01 -9.745621551180343456e-01 -1.096589386168781016e-01 -4.022044971922729417e-02 2.608427560811088855e-02 9.585747014674014105e-03 4.549026659585445054e-02 -4.922871973764392922e-02 -9.537989894395210166e-01 -1.082733887048806576e+00 8.560763643270720147e-01 -8.027904526611223668e-01 -1.169878163238214919e+00 -9.716689923295692699e-01 -1.385562606414400821e-01 8.664424025480224056e-01 9.947976071529153197e-01 9.645800989598427577e-01 -9.897565711905211838e-01 1.182056321757172929e-01 9.356366305172493236e-01 1.008457821652768427e+00 7.370893366605400787e-02 -4.399276398941000255e-02 6.424026418667290461e-02
-5.545375921460866248e-02 1.265192852033751036e-01 1.659685364472010538e-02 7.513811345614707093e-02 -5.868283692019235498e-02 -1.299908208582565283e-01 2.403134169786457636e-02 3.342579646440469593e-02 7.735296043444019054e-02 6.362424511726767762e-02 2.308358497363024453e-01 5.810368947568973763e-02 5.959603058177842527e-01 -4.330867065898871826e-01 7.192816470414721552e-02 1.453204290478783689e-02 1.140559809403825370e-01 -7.310609353958086309e-01 -5.770808220207680750e-05 -4.362530073210888620e-02 1.711529370724647683e-02 -2.351326972445172414e-02 7.229523680600558055e-02 6.840543059047436703e-02 1.473065408511920471e-01 -3.357221997551067868e-03
8.445504299931709813e-01 1.250949310325163641e-02 -4.142374279112106400e-02 -9.975770845116102015e-01 -3.811941132549433175e-02 -1.240182871212604926e-02 5.368889716278020530e-02 9.497291807561658583e-01 -1.051823516959495608e+00 9.790809812209776419e-01 9.891048342945979455e-01 -1.946300112557464504e-02 -1.016516871406899059e+00 9.443747117048388873e-01 1.242207558865266771e-02 -6.168537370770064976e-02 -9.923108434890888230e-01 -1.011318039295565185e+00 -9.915256405887745705e-01 -9.540009999779015537e-01 -3.441280111666161767e-02 1.044002263741905967e+00 -4.399752402090071485e-02 9.454282401892947219e-01 -1.028387508036236797e+00 -9.684688354336723481e-01
9.173868958582391819e-01 -6.131398324037378167e-01 -1.082957735197558752e-01 1.054559431034302469e-01 -1.084466861917014802e+00 1.068496846266024258e+00 -7.188723451253212771e-01 8.589735175908554954e-01 1.752995186663152891e-02 8.275558857369949006e-01 -8.558034088027127728e-01 -9.889847888216406480e-01 1.552037261587186634e-01 1.156149424003598269e-01 9.493536989856173058e-02 1.516945209784795467e-01 -1.088425828344988133e+00 -1.121472784458577010e+00 8.478940266024487249e-01 1.738950025351749806e-01 -1.024473864355019082e+00 -7.477743771140599183e-01 7.965226709799890781e-01 -8.149121238626680919e-01 -8.514411161047593657e-01 -7.239038424113930503e-01
-6.026710581731224980e-01 8.877035504190804449e-01 4.362392953144842989e-01 3.108578105526831337e-01 -5.965935379600123545e-01 7.704797554958320391e-04 2.677854247299504276e-01 -7.946702358011162870e-01 -3.856971291782087530e-01 1.104083503316176440e+00 3.372398399605204267e-01 4.451627593158000162e-01 -6.054312387201595813e-01 1.052786902702095739e+00 -1.065722659875737027e-01 -8.516053123196610786e-01 -9.260272355348456719e-01 -1.091183353942904111e+00 8.120354038186194945e-01 6.953329769649004843e-01 2.603258907119858079e-01 -7.555579042652688093e-01 4.250783754438937079e-01 2.187614089735077538e+00 2.754137093680349424e-01 -5.343335808682946331e-01
8.887638326978360981e-01 1.023300196052554956e+00 9.536563951006146178e-01 -1.004709978424091377e+00 9.439879115950929878e-01 9.655695584384366148e-01 1.242751173028855405e-02 9.904041150040552299e-01 9.534168645853082769e-01 2.695641038119441554e-03 -4.362253601863830266e-02 -1.933635859282206541e-04 -1.016160710583853932e+00 -1.559448724674231991e-02 2.872920674369630264e-02 9.872987963500194919e-01 -9.756337837843590544e-01 -1.621128476601797763e-02 9.650236469396047401e-01 -9.902215880929720049e-01 -2.124220904198436538e-02 1.745669419489115012e-02 -1.291662499686228177e-02 -5.815219785360296878e-02 -3.992018978594764206e-02 1.009478035994052059e+00
9.538525382996629887e-01 -9.230389777021019704e-01 -2.498464090648559038e-02 -8.747506017164443648e-01 -1.066296661559100967e+00 -9.639027440671241731e-01 1.015477338171289823e+00 9.950962416214058637e-01 -9.823553320499402997e-01 9.664715256114667641e-01 -9.472574725929769901e-01 -1.189853456949538715e-02 9.814193412773388747e-01 8.650810883478384783e-01 -7.225359774621936682e-03 -8.741228776916807330e-01 1.046266680928290338e+00 2.476625909697636671e-02 -2.706706598480663195e-01 -8.194962020125172719e-01 -1.033731735857290168e+00 -1.180869432237332574e-02 -9.085860691437138703e-01 9.486064392839285153e-01 -2.052715116723081296e-02 9.858701471206947620e-01
9.185050369217577781e-01 9.545368806928988814e-01 -1.009928950577486662e+00 9.643170612968582356e-01 9.930518721866478105e-01 9.691770740019317598e-01 -1.253388426661042245e-03 1.012068071306016392e+00 3.213898720135635340e-03 -2.158625997206238198e-02 9.551803641598194394e-01 -1.312002229772029661e-02 1.029733004949695108e+00 -9.971799327286492431e-01 1.022294640583733871e+00 -1.355558876469448171e-02 -9.771874532409300373e-01 9.624419161372234077e-01 -1.233580999547658451e-02 -1.007066504083295566e+00 -4.184219159339522265e-02 -8.878053903177473005e-01 9.334342337517527177e-01 2.965162392181848114e-03 -9.899931808299023972e-01 4.759538042481754015e-03
8.029042440649942769e-01 9.811603238502826507e-02 5.605221146325924109e-02 -1.013285690812700368e+00 -5.823743050893740586e-02 -9.780086918412951302e-01 1.078690514154696078e+00 9.165106085224372645e-01 -9.820269108198308450e-01 -1.000684116257086753e+00 -9.173580100104183899e-01 9.935489891162253562e-01 -8.805918158529736361e-01 -9.965485359445519498e-01 9.894044719323850101e-01 -9.087335478269301658e-01 9.341091378605580475e-01 9.452276571008247918e-01 9.992737958632950113e-01 3.873160087684533043e-02 1.588984208244435467e-02 9.400813976708497499e-01 -7.446847289091223544e-03 -1.030479170729212246e+00 9.470777690730687315e-01 -4.725917619016004739e-03
9.999977993864935799e-01 1.000001784407790195e+00 9.999966943260614194e-01 -1.110908859379928664e-06 -9.999968656508970710e-01 9.999995447167733253e-01 -1.000000817045458401e+00 -7.621774228701820451e-08 -1.000000287679392752e+00 9.999996032376916588e-01 1.054612529223656145e-06 1.000003118089927368e+00 1.385059157278774692e-06 -1.000010352566994998e+00 1.000000118723616049e+00 1.000001503787134149e+00 -9.999950013955657413e-01 4.995699785987058552e-07 9.999992049825898732e-01 -9.999982908916625890e-01 9.999998781748862253e-01 1.000000455930814658e+00 -1.000002586252827452e+00 -9.999988484887173401e-01 -9.999959093378950614e-01 1.000003847482530128e+00
-6.011906138116167309e-02 8.785458811873564366e-01 -8.903109085478418810e-03 1.925055154168301211e-02 -8.485928490257773626e-01 9.409926911898016666e-01 8.673751201432364777e-01 -8.579449364633914277e-01 -7.640243399776935895e-02 -9.569532239875020441e-01 -4.236099767804105826e-02 -9.848731517261196666e-01 8.424990743758032918e-01 1.546295492108644698e-01 -1.246337138665361444e+00 -1.067971174186107763e+00 8.348107981951373713e-01 -9.473084293170315195e-01 -9.493087526316711378e-01 -4.262973433740393191e-03 1.009248898443425135e+00 -1.072406835090525368e+00 -1.430339278132945757e-01 -1.084275488686320121e-01 8.815240486258272279e-01 -6.932680208999196514e-02
-1.051980617008841490e+00 -1.569259398040500145e-02 -9.926160808740185360e-01 -9.387133852966484948e-01 -9.460451359826040907e-01 1.679509472210355056e-02 6.338169361434749238e-02 -1.009508092162039627e+00 -1.044374785696366104e+00 -2.523789697597123537e-03 7.851777558954739500e-02 -5.204657404519429792e-03 9.174936734478078559e-01 7.290600066098315568e-02 9.716671953864982614e-01 -9.412096819602829845e-01 -9.307259811926263948e-01 -9.445744079126204840e-01 -3.588226769094746832e-02 9.104994289366447058e-02 -1.293969799963967382e-01 1.569180069291318397e-02 8.859083717375246247e-03 -2.527044457911389180e-02 -9.544857944033920960e-01 1.249824191223412040e-01
-1.117081039042123303e+00 2.535353556694884200e-02 9.591441603623586110e-01 -1.004415237888794499e+00 9.486526024206368701e-01 -1.037799864784231474e+00 -9.579218301608697361e-01 -1.004015456634497871e+00 -4.457427150839614327e-02 -1.006696859161836821e+00 9.545342469251807405e-01 4.992242418393893350e-03 -1.035430202975683001e+00 9.828804646067459405e-01 -9.665313276831861700e-01 -1.412645710614176923e-02 1.011072106515716440e+00 -1.008985429949460499e+00 -3.694695284436811528e-02 1.008200702102471036e+00 9.669391119972456927e-01 -9.836375290115999537e-01 9.839922646046789234e-01 9.471869777597961004e-01 9.483979551845925782e-01 2.300931666123228608e-03
-9.776327818309353546e-02 -5.880859542488986458e-01 -1.002745545138646222e+00 -9.996572315024576660e-01 -7.334716277130677309e-01 9.658903198843353799e-01 -8.124434180264008543e-01 -8.678776142971684759e-01 -1.155331086603852864e+00 -1.279910327357967059e+00 -9.628724999658105910e-01 1.502095222850513001e-01 -8.615451139619521859e-02 1.209529831666002614e-01 -7.449180877689148828e-02 9.229366676963050020e-01 9.189368274961285943e-01 -1.336599173062655854e-01 1.202222741079755040e-02 9.702572171119991928e-01 -1.498333192317085893e-01 1.236820234423362669e-01 3.287278125272530827e-01 -8.185347175249521046e-01 8.044897221064591930e-01 9.107935074774263784e-01
-1.322201074279207578e-01 4.726383885925835096e-03 -4.660623552306064621e-02 9.912097336914922341e-01 9.524369708054913897e-01 -2.572248181043494328e-02 2.553977671000616859e-03 9.971895039650149339e-01 9.543186189594399238e-01 -1.171758944738001979e-03 -1.384674505193178584e-02 4.106771595521776369e-03 -5.377232861265668178e-03 9.701980961012068860e-01 -9.617740045382071612e-01 -1.843450739881106679e-02 -9.527880404664778036e-01 -9.962158216106788977e-01 -1.008181587540738944e+00 -9.706138643576759373e-01 -1.025616061667886214e+00 -9.763990872744157112e-01 -2.767310065377250744e-02 -5.699649457937489699e-02 -1.041863161903766821e+00 1.006222913098532290e+00
9.747978106259606035e-01 -9.346104255507525771e-01 -9.342468928279803464e-01 -8.327382972744330758e-02 8.613090439027708545e-01 -9.783539308687105862e-01 -9.814557672203941818e-01 -1.016916610063199666e+00 -8.759720816519668551e-02 1.014653546366719450e+00 -3.769186362449210292e-02 -1.081259774719940392e+00 8.580142645126800360e-01 -9.916808123073485026e-01 -8.468854897939477322e-01 1.006134835730209121e+00 -6.627526260998571617e-02 -9.115899575324055704e-01 -8.409935731287611071e-01 1.064413854845478249e-02 1.046143290640000112e+00 1.019275583866315671e+00 -8.506574536660871377e-01 8.435535189642103804e-01 -9.952739474284727494e-01 -9.465545028233680602e-01
2.906784242792010975e-01 8.299553814638364058e-01 5.481052752387429727e-01 -6.379324939538736361e-01 -7.700153042417174909e-01 8.950197778102896295e-01 3.308136650027476700e-02 -1.041568337000799316e+00 6.052857419306068021e-01 4.481426017351253233e-02 1.157417283133922004e+00 -2.212146259957226413e-01 -9.307670276241658547e-01 7.829693067836535070e-02 3.567008955913889001e-01 1.491075897355220725e-01 -2.703351218927568800e-01 -4.968158040217485749e-01 1.254834360920589198e+00 -2.630479979409927171e+00 6.462044727255125132e-01 -7.627222209565284183e-01 8.300668562716332355e-01 5.216863197088415782e-02 3.353414116019323155e-01 7.914283847016471973e-02
-9.544721426741253900e-01 -8.115777321127845556e-02 9.433966368618283971e-01 -4.615958744334321129e-02 -9.412360962257648386e-03 -9.485414895552479742e-01 -1.007573268982200787e+00 8.518115243426813699e-01 8.226486251078224399e-01 1.016088198553017019e+00 8.683918713163826242e-01 -9.721442871578993561e-01 5.334963714091951470e-01 1.052960104764117943e+00 4.507079596929147725e-02 9.926338922162437628e-01 -1.190910046178269344e+00 1.266812111667126595e-01 -3.441872750859244212e-02 9.697784467971891642e-01 -9.997713809499896298e-01 -6.810824289890073796e-03 9.149748599600081578e-01 -1.024452955407058052e+00 9.489058547226423279e-01 -8.115871100660886073e-03
-3.212316036644927153e-02 -3.561919572247465027e-01 -7.709635448249015921e-01 5.915757366834472064e-01 1.332476161516402136e-01 6.742963559028855025e-01 -1.142371688772799043e+00 2.950169510052770214e-02 -9.856619120498070208e-01 -1.219758781002584502e+00 6.955445046203565518e-01 -6.573926585452177784e-01 -8.480476780189539765e-01 5.710151914471932599e-01 -8.677411792898114262e-01 1.732651041552094040e-01 1.060926866194866314e+00 1.136976686318511565e+00 5.006895284228085607e-01 1.829965645517784567e-01 7.317084425300011130e-01 -9.090352051332878380e-01 -1.021526919194386762e+00 8.443928467920509551e-01 4.877534356533965720e-01 8.960490496977883135e-01
9.684919487465870613e-01 -9.878177208932057418e-01 9.215337206898311928e-01 9.896712554419233587e-01 9.661807124593333462e-01 9.774895222183415111e-01 1.436923569157042557e-01 -9.812239720919316843e-01 -1.004338862273053801e+00 9.813029530272885381e-01 1.010210998175535613e+00 -2.440598600498387546e-02 1.963519432670202125e-02 2.071924715826799906e-02 -1.025722747999397333e+00 6.662720157725506714e-03 9.768529995665216070e-01 9.872139551231065013e-01 -5.524825498579293698e-02 -4.536823704120281769e-02 8.276406431836236949e-03 -9.739078509681163842e-01 -9.755394586489473108e-01 -1.940352385575971547e-02 -9.830847413175728411e-01 -9.873398981516859907e-01
8.165956253767917561e-01 -9.353842706358936887e-01 -9.473760324868174543e-01 1.367092615810356904e+00 1.759666568199830805e-01 -1.868846090748320921e-01 -2.243375444246162569e-03 5.922623094704874275e-02 -3.763670482282521768e-02 7.410682359112584772e-01 -9.655891862874363962e-01 9.032499320204410154e-01 1.514723102306374594e-02 8.431845162533059268e-01 8.934312033618119209e-01 9.076238638653731927e-01 7.663585780802567235e-03 1.170102808529373400e-01 -1.138971413842287950e+00 -9.930440936289421927e-01 -1.514706746910898967e-02 -9.997103397811255565e-01 8.586005736341789651e-01 -1.101103484458750614e+00 8.364213984580737282e-01 7.068179433422577818e-01
-9.659639686504581935e-01 8.990354517657930256e-01 1.052627507599639856e+00 -9.850092322844058446e-01 1.037716290468165381e+00 1.013824897803570657e+00 -1.002108745631630438e+00 -1.028453483165127878e-02 -9.820826177260684187e-01 8.790005699438849796e-01 -3.259644068094530445e-02 1.018266958992954052e+00 1.326706477153850351e-02 -1.343607574912686516e-02 -1.035829358790016697e+00 -9.571267853903488998e-01 8.787918770669906898e-01 -2.575283199995036937e-02 -1.008648357119821926e+00 -9.664627804588498128e-01 2.484711438957341173e-02 -1.045615593808389754e+00 1.789293538182367693e-01 5.966315740957279720e-03 -7.692230554811330979e-03 3.654928298122060021e-02
1.022819164596122377e-01 7.573921934095368957e-01 6.269121652085357654e-01 2.512002437635525998e-01 3.147966469452735949e-01 4.199248983529457191e-01 -1.782983306695259951e-01 -9.620430091333903588e-01 3.579434435335427378e-01 1.016508511529623932e-01 5.785949972594779389e-01 -6.652062780434275790e-02 -9.192481725371177692e-01 3.229868849647974383e-01 -5.702889257244920795e-01 -8.258431141862354607e-01 -2.255743714602188310e-01 -8.466167381690367089e-01 -2.830188493545294781e-01 7.805064772723978583e-01 -1.055722251801538558e+00 2.432583052669618606e+00 -5.426189985042518815e-01 9.488896364780228243e-01 -1.581582153236315291e-01 -6.619112443870801554e-01
9.578763020960705948e-03 -6.515446563257454304e-01 -6.834698306173668803e-01 2.088407609212777905e-01 1.785895112357422376e-01 5.722614778845265260e-01 -7.324167140425457134e-01 -9.069903935044916210e-01 -7.071604387918627443e-01 -3.821669458641600015e-01 3.182711317022113851e-01 4.208627196596531617e-01 -1.124805202439294494e+00 1.567913179828483439e-01 -6.911924584982802600e-01 6.410447963021299600e-01 2.093349480396670792e+00 3.818760957418825819e-01 -7.416262054318911723e-01 4.766677658176982635e-01 -7.327154423032877784e-01 -8.051119165837297698e-03 -5.387364263221101623e-01 1.061169868612278216e-01 -3.296346894430141061e-02 -4.817235679092506107e-02
-5.818405091869816026e-01 6.933149091306470835e-01 -4.309708119894491984e-01 1.041429017329759787e+00 3.593597454677041614e-01 8.199953682029550994e-02 7.976165723919766137e-02 4.506754579020621349e-02 -7.776400674964500936e-01 8.184426371887654206e-02 7.518658436200187367e-01 4.966629992328014387e-01 -1.086047778906146677e+00 1.389535875768247442e+00 9.241200591327956848e-02 -1.919749236778486856e-01 -1.725361477587361803e+00 9.445472995143168460e-02 -7.406111106897189655e-01 -2.366610047679601203e-01 2.580291572439415981e-01 9.976329647722798066e-02 -6.066446637636630640e-02 -1.080793125049849035e+00 2.404970620957664063e-01 -5.347523967845640991e-01
4.199651333763094740e-01 -1.618544686693187129e-01 1.621136655317836905e-01 9.355006883443447441e-01 6.861186606466459503e-01 7.715580129613678340e-01 3.927888813249319488e-01 -3.487635557520156193e-01 8.907548010779728909e-01 4.135539600974129648e-01 -2.244563376903295215e-01 6.936078369305815894e-01 5.250242274271377241e-01 7.015166696414242287e-01 6.598632137895893424e-01 3.690326383515125652e-01 -7.187180092783297392e-01 3.087172061409976243e-01 2.590257929678574378e-01 -1.032777613975114805e+00 7.213779065889871500e-01 2.847689654739801735e-01 -6.031196282495101535e-01 -9.844111844253776722e-01 -9.429933252972749758e-02 -3.348782207738490446e-01
-1.741631876020571443e-02 -1.030552806466736193e+00 -2.636797479071473216e-01 -8.634302690323940599e-01 7.684358288715420482e-02 -1.145232632088406290e-02 9.584613896418755496e-01 7.185395055249961249e-01 1.614115833180543580e-01 7.373749353959888619e-01 7.719666439137888858e-01 -7.598948184057491284e-01 -1.072508966314575707e+00 -2.598692163607533301e-01 1.022690764181546363e+00 -8.310644117987424639e-01 -1.103876800856862933e-01 -1.019105851526861839e+00 4.555638856464541697e-02 -5.848165875687790644e-02 -9.990356842694628758e-01 -1.119408980011694088e-01 -1.028793591511500544e-01 -1.468028133872452679e-01 2.499957803866161843e-01 1.003470572593130550e+00
1.666877106428925337e-03 7.558697235548701432e-01 -8.588085142492972723e-01 8.913196045959882463e-01 4.057857276818371134e-02 7.265100040929341196e-02 -8.663362668445241388e-01 -8.796615234016382789e-01 6.945893799431070159e-02 -8.684460195680443473e-01 1.057681304185809967e+00 -9.797713116557440483e-01 9.625619640259077681e-01 -1.066892070025612815e+00 7.143712668414706202e-02 1.071111713814472344e+00 6.662455479865272978e-02 -1.048805814959604010e+00 -8.976574402913910511e-01 -9.460708546972916855e-01 8.167252307399635036e-01 -1.590177961722300248e-01 -1.061739554694314913e+00 -8.477121926496069548e-01 5.619497323737639854e-02 9.281833203869909177e-01
-7.701990638844301296e-02 -8.675169241079812299e-02 1.886482246431170351e-01 8.693311454372583402e-02 3.989962295064756331e-02 -1.862467873329046730e-01 -4.354923872554683495e-02 2.289005595745483845e-01 -2.620529205014749952e-01 3.330095069437439381e+00 -3.062537861639834103e-01 -1.096829179203597515e-01 1.009982316986054007e+00 4.825558589677890475e-02 9.748854615540106239e-02 -2.172964011739473081e-02 6.344677679804375074e-03 3.144353753184100375e-01 -1.215226251268398082e-02 5.998065747085671306e-01 -4.297971830123552550e+00 -1.309619173053584440e-01 6.088603510483273640e-01 -3.262061990511088694e-01 -2.379692647822377882e-01 -4.577931449499637040e-01
9.935044198054432396e-01 9.949588045162545136e-01 -1.135668014566509898e-02 1.001499779057192008e+00 -1.008422091192154868e+00 -1.008447626795538232e+00 -1.004656737831096880e+00 -9.901386950875781245e-01 9.851585978356386386e-01 9.807406466434923642e-01 9.875907277860267452e-01 -9.470249377647772457e-03 -4.723304946711598222e-03 -9.984687923033317425e-01 -4.544186800510011115e-03 9.736021810805968180e-01 9.998891115001848906e-01 -1.003969778088442455e+00 -5.123540603832249171e-03 9.832968654832218158e-01 -1.188903960225237526e-02 -9.961949286726742292e-01 -1.011514449017535844e+00 -1.013658899739498631e+00 9.816133478543571655e-01 9.849342019343710897e-01
-1.174587036912574600e+00 9.540458125929532907e-01 9.748706332653021001e-01 9.710767293573927539e-01 -8.663131510476282382e-02 -9.627724671144286539e-01 -1.058450631010358300e+00 9.192731880084360485e-01 1.001202609158011528e-02 -1.001424267048272476e+00 -1.035598880482919634e-02 -9.135232690401379196e-01 -9.227684118516704670e-01 -9.739173651878227922e-01 1.050276304913509762e+00 -8.930411730718708085e-01 9.677295206100017255e-01 -9.161956904443754879e-02 -5.831962485917620981e-02 -9.583493282368987787e-01 9.969620925133678702e-01 -9.260714308233585212e-01 9.647198765721339830e-01 9.404583343221499803e-01 9.537450826273472515e-01 -9.392814547415045956e-01
1.573008294387068517e-01 1.652659535942733182e-01 3.494905255412360245e-02 -1.173549284683732263e-01 -7.975557105561248417e-02 1.316805231725797498e-01 3.249032481159015440e-01 2.703883933349339741e-01 9.918324932370160829e-02 -1.123352852272319902e-01 1.147191346401997963e-01 -1.613248411764062473e-01 1.932101298073303774e-01 2.942184741391817154e-02 1.263238504990853717e-01 4.244324119813950268e-03 1.303892638919444957e-01 -2.188587100853047474e-01 9.167430453471991925e-02 4.281861187105846511e-01 -3.402284340868023255e-03 9.257090970648407247e-01 1.164642166085137591e-02 5.046289071444177710e-01 -3.071618283843467800e+00 1.838464391849291835e-01
-7.441108471993944651e-01 -1.108981531940200771e+00 -1.968695769291442244e-01 -7.756139034618284578e-01 1.125047953714940485e+00 -1.802086207869202719e-02 -1.026139135351618270e+00 -1.021587333680533005e+00 -3.616757384835004446e-02 -8.073123259404957341e-01 1.025381421123081838e+00 6.848374095204886602e-01 1.211232393714893885e+00 -1.169013406305096925e-01 -7.726179394825530844e-01 -1.130337511646666515e+00 -9.107298949271894761e-01 1.096544741079392982e-01 2.160712505870182043e-01 -5.235608091881671644e-02 -7.500509365224768132e-02 -1.000225265945302366e+00 8.295156826450453824e-01 7.970476620029124382e-01 -1.345947827415949760e-01 -1.971993346255872248e-01
-1.318308632731153007e-01 5.705641965994241727e-02 -6.993505410012592627e-01 -2.245402497391232322e-01 4.049320322826333030e-01 -6.228900806572279514e-02 -6.467751779161814984e-02 -9.776616839691180116e-01 4.028645224567270478e-01 -5.235740152634522637e-01 2.128267003843040996e-03 -3.657313145228012763e-01 2.477955862423417699e-01 2.246974506022109797e+00 -3.144586305323198161e-01 -3.612288752269001701e-01 -2.030997548602548886e-01 9.263330989144107075e-03 -3.444655097747259531e-01 2.190472544813970857e-01 -1.596387236462425419e-01 1.082990359042792283e+00 -5.032375683533403254e-01 -1.367409890880296464e-01 -5.742473730892556638e-01 -1.675632589222298130e-01
7.082103413417730753e-01 -8.753282412472155327e-01 -8.647987095575626615e-01 2.125024574592730264e-03 6.140000095017338344e-01 8.449050458597311408e-01 1.331054438272671891e-01 -9.298120226164511282e-01 -9.294497607877518774e-01 -8.912105963389287400e-01 -9.414178025722817755e-02 -1.841928917223161211e-01 4.239582631429191471e-03 -8.382255445607466049e-01 3.483542155469011026e-01 -1.035229001466393184e+00 7.781317702200212238e-01 -2.340466129262744333e-02 7.494979601483272580e-01 7.671072424132510115e-01 -9.047319379781143533e-01 -8.717637479633008057e-01 -1.139413960581873025e-01 -9.405950626955562610e-01 -9.802374274460206038e-01 1.034831628608381404e+00
1.018747124218650546e+00 1.011404565705588121e+00 1.013553909054238256e+00 -1.003142545500762539e+00 1.021609803911271319e+00 -9.887002305762183640e-01 1.002626382393686955e+00 9.748205405246013200e-01 -1.152364688435326620e-02 -1.000147840480485106e+00 5.267761893443100724e-02 -1.002675265421306472e+00 7.701334742636577885e-03 -8.485745067460059507e-03 -9.876630002283766085e-01 -9.922646850836764898e-01 9.734630602961888979e-01 6.507807133599410182e-03 -9.990074666575650131e-01 9.930034715362725528e-01 9.652679989513024417e-01 1.017559315000720943e+00 9.957003483997166615e-01 9.903690608787855121e-01 9.654935209996926559e-01 9.831043974466810997e-01
-1.788481086429106678e-02 -2.519767739771862705e-02 -2.504496392937152760e-02 1.000129128516947574e+00 -6.068937036448895060e-03 1.005564105571471689e+00 9.646488606843808267e-01 1.001987807510793527e+00 9.766773760030431628e-01 -1.008506991794146268e+00 9.615279651656949422e-01 -5.539763760552850365e-03 1.804863923243875054e-02 -1.003181539880681594e+00 1.018544681504360616e+00 9.861374073926822970e-01 2.211790772793745599e-02 1.539274660149162963e-03 -2.133582223882046422e-02 9.698885069404968862e-01 1.001891902989481276e+00 -9.719381446557751048e-01 -1.019999811936661338e+00 9.907110134579212302e-01 -9.909650396191500565e-01 -2.326552659695838368e-02
9.389982535482374049e-01 -7.720418396231928382e-01 -5.459103304068622237e-02 -1.602547439863638845e-01 8.434632871821196032e-01 9.259164828061631214e-01 -2.868497828996220689e-02 8.642261796356158765e-01 8.498843578867796289e-01 5.976040473619746718e-02 -9.271850327990270868e-01 -8.547700422381523389e-01 7.004892548482560821e-02 -9.328618084490419848e-01 -8.447559304753614606e-01 8.829798321108613957e-01 8.886948297171114453e-01 -2.181397009159416200e-01 8.870942983165832629e-01 -9.322546819440986621e-01 9.616318825688399130e-01 1.131639220701649240e+00 9.161327969977883789e-01 -6.672339824729858412e-03 9.203575786188930019e-01 1.411197163361524731e-01
-1.000642527209630872e+00 -4.511909294709398610e-02 9.609155473635337952e-01 -2.665184716940453835e-02 -1.841428206820696495e-02 -1.368549771544317478e-02 9.574301105954696745e-01 -9.718598248152044983e-01 9.733088040838294708e-01 9.770517429590181990e-01 2.900381261892699420e-03 1.003767377853215459e+00 9.727509860929707264e-01 9.708798022063795941e-01 9.794024111445369662e-01 9.828132560105047322e-01 9.841642643913574018e-01 -9.793884838057419495e-01 9.642845648035234252e-01 9.899594751360216716e-01 9.556064920523879014e-01 8.627912230681820602e-03 -1.030274347288050452e+00 9.728339140428529097e-01 9.657868636124022910e-01 -1.004150860760641972e+00
-5.699482016188406330e-02 8.703124100976949995e-02 -4.271646025544473257e-02 -3.830879607986070745e-02 1.251560902220117399e-01 -5.908331738548849420e-04 2.567360108243249908e-02 -2.993492608919067627e-02 -5.045593342477425192e-02 -1.662824065183853006e-02 3.953973782139722642e-02 -1.154229539931895532e-01 -2.635000108176950920e-02 1.362143896982211944e-01 1.576563156090254048e-01 8.930148632141933496e-02 -7.918842465504552508e-02 -2.036640742761462383e-02 -8.850072993730832838e-02 8.177187779932970635e-02 -3.911852402386224552e-03 5.034675726535620469e-03 7.295123064832367832e-02 6.488452024841663557e-02 -6.313296439411410221e-02 1.159953675731928077e-02
8.777681599574774785e-01 -1.015022819267936249e+00 9.547024382898005035e-01 -2.310464893054456695e-03 -1.032818779740977577e+00 -1.046366383614439677e+00 1.046194975058425403e+00 -1.000428480683415611e+00 -1.056069665529047130e+00 9.891724512350450471e-01 -1.015909870465437681e+00 9.932937104066450473e-01 9.740361251887138527e-01 9.857736280723734534e-01 1.024246631461827928e+00 8.849486277032584530e-03 1.004380545558392290e+00 -1.017417595755941040e+00 -2.961201459100306840e-02 1.014965627522672387e+00 -1.025500306822972663e+00 -9.926735357750240407e-01 9.735666646195069163e-01 -1.065253895642044535e+00 -4.590698757605193164e-02 -9.651675391622913658e-01
-5.749872261167843918e-03 -1.020404581190688331e+00 9.298666818496698072e-01 -6.339971986787962255e-02 8.895843998372233719e-01 9.269798139428097050e-01 -7.373947654216571335e-02 8.913216006072285369e-01 2.699830496551251791e-02 -1.007847342838271709e+00 -6.998587660764771234e-02 -9.768284747157114367e-01 4.235542040678350745e-02 9.426503381146724703e-01 -2.511851588686053738e-02 9.786136813288726088e-01 9.495140252270806158e-01 9.560860565716128301e-01 9.152107176015494838e-01 9.590289113018959366e-01 -1.047897024450306747e+00 2.175353317280430757e-02 -4.916962032617280820e-02 -9.920483857983267706e-01 9.675388994395991427e-01 -9.532142214018402004e-01
-1.021911205701132808e+00 9.169612870505482460e-01 -9.561682445660920626e-01 -9.944779208204127530e-01 9.088915185105636008e-01 9.175955522209142678e-01 -2.174429124446088449e-02 2.212646289902057278e-02 -9.923462135149282437e-01 -9.608208028706285431e-01 -9.146268808905000380e-01 1.083366853957716813e+00 -9.437181623578070333e-01 1.010491635833911106e+00 9.590834112609696316e-01 -9.793156350856081493e-01 1.937142046200954551e-02 -7.128415247121220114e-03 -9.395749533141790621e-01 9.754607334401576013e-01 3.115488848508040851e-02 1.429180488233278840e-02 -5.108030655410903537e-02 5.718347026168500019e-02 8.779387027132832255e-01 9.624104690519575955e-01
1.545854369388712235e-01 -2.241498433712066085e-01 1.126363446901395074e-02 -1.763638355924650875e-02 1.227528919067417956e-01 -1.610359520343123685e-01 -1.584042583780850555e-01 -2.100143030214570439e-01 1.847175966419756454e+00 1.660718598277703406e-01 -4.189736445016865041e+00 -2.287464741983570582e-01 3.942567214489193228e-01 1.789009358568598995e-01 5.641345820601826461e-02 -9.121053478575963380e-02 -1.782638991329758317e-03 2.518472765336397412e+00 -1.680773145090351806e-01 -2.392111337798357579e-04 -1.810798728661108248e-01 -7.710035044518376290e-02 -6.436060494686454692e-02 5.537489051225081838e-01 3.178376315156224152e-02 6.801388112022530019e-02
-1.467145156799523273e-02 3.382307914042718133e-01 2.373250133415597939e-03 3.708974043276939275e-02 -1.420669264940464978e-02 -2.346572518081007502e-02 6.498502866290972735e-02 4.696591337045595838e-01 -1.940330593150212668e-01 -3.157682568750595775e-02 5.053195502512899395e-01 1.010207925652652078e-01 5.639530518988065261e-02 6.718560289681338969e-03 1.219396417574502012e-01 1.145043765484349274e-02 -7.089438772499036256e-02 1.799783227632640592e-01 -3.012879369405486660e-02 9.021304049685906212e-02 7.366204500124208521e-02 -4.259399155251314406e-02 9.381910178628201369e-02 -1.533829005190127104e+00 2.804330421758005065e-01 -3.214207045402050350e-02
-9.557060006667567054e-01 -7.438326815877434051e-01 -9.504736818075496529e-01 -9.272060444991110373e-01 -1.065880687282671380e+00 -9.634178461922998649e-01 -5.093904621526690150e-03 -9.022061619706072538e-03 -4.301374835835688332e-02 1.634709556573034003e-02 -1.064454696146682311e+00 -5.662020221535930126e-02 8.463032941375100426e-01 -9.874142027194151572e-01 -9.010668776821117998e-01 -1.099044283836033919e+00 -3.859919638766040606e-02 9.488049064823744772e-01 8.696565556415070120e-01 8.812880699600246226e-01 8.915533988827553102e-01 1.927997172325661424e-02 3.539697393807017534e-02 -3.057076032389082626e-02 9.020948631169667387e-01 -1.125139566173339878e-01
3.077030834535844205e-03 9.756259644387338392e-01 -7.206358416511957632e-01 -7.317699165269510031e-01 -8.435433221291487316e-01 -9.710200369126192887e-01 -8.933421996406726295e-01 1.108249245737152194e-01 1.012538961577303387e-01 8.551442495152232759e-01 -6.119841859261743178e-02 -1.069793591542303357e+00 9.997114904289825521e-01 8.684207464741743321e-01 8.450619740083732401e-01 9.584314650398700897e-01 1.028909917362664350e+00 -9.763503260155325103e-01 -1.502702187187964500e-01 -8.462729955276275806e-01 -6.272722865259838798e-02 9.802189501416340711e-01 -1.187979852415444126e+00 1.049980307347951225e+00 -8.585894131244711236e-01 -1.094198688185451379e-01
1.156036271606439292e-01 7.692944557130723671e-02 -9.270140707527046997e-01 4.247174117856919451e-01 4.634659049198582292e-01 -5.017722795674462999e-01 -1.629036183507190372e-01 9.673156897188578407e-02 4.905408551728405314e-02 6.951063263409109627e-01 -7.178017717060389824e-01 -1.536808740328289569e-01 2.743919111997169535e-01 -5.054791716681760194e-01 -6.500816066137597993e-01 -1.903515652329014207e-01 -8.626915931852043862e-01 -6.569974989629344675e-01 -1.167495113336845386e-01 -4.468707376302080009e-02 3.628414273213993457e+00 -9.239519857231988098e-01 4.614464308401032833e-01 -5.129916648959123027e-01 -4.563698545862495126e-01 -6.523590406310301182e-01
2.006783421064264883e-01 2.782804359745376654e-01 1.202053328677248206e-01 1.058390689428413273e-01 2.171646111297492743e-01 1.135511905986301417e-01 6.054895698550266658e-01 4.589262201170858924e-01 6.138008280263737015e-01 -4.321074886680069227e+00 6.489108786723027378e-02 1.379047817366690076e-01 -9.740244361391950378e-02 -3.153692254884072482e-02 3.988238751659832770e-01 -1.255822007283736996e-02 2.286895375389167429e-01 5.008749964541774347e-01 2.327253336243190751e-01 -1.447205019277369997e-01 1.105875737418912236e-01 5.856080672971343271e-01 3.605008794630333857e-01 7.310061628974571721e-03 4.065495403812491859e-01 3.235599122660664517e-01
4.779801770777428183e-02 -8.208437146041922539e-01 3.530188123212837925e-01 2.889164709658657570e-01 -7.041343960993621254e-01 1.113990145847310459e-01 5.080489281691282777e-01 3.345070405456611051e-01 -2.120415008110906052e-01 1.674796781256220057e-01 2.432610819423009774e-01 5.219244895458797773e-01 8.385754413796481233e-02 -5.183606743674830097e-01 3.610531325499266031e-01 -2.055955473670149358e-01 2.203718782339794680e-01 7.977776183529264875e-01 1.087764646478913133e-01 -3.217114667556828511e-01 7.222537421808297720e-02 -3.167892555260480858e-01 4.328965711965280377e-02 3.270168427182796878e-01 3.463940567941513060e-01 1.156782614732916770e+00
-1.000150381516684783e+00 1.000084474036850857e+00 -9.999492468961705960e-01 -1.000141754112129133e+00 -2.067290693063011145e-05 7.534769416118950304e-05 -9.997550322823741675e-01 1.000126759211149574e+00 -9.999465179136476367e-01 9.997851809162759951e-01 1.000177369344604994e+00 1.517170849088402646e-04 -3.536451925951952509e-04 -7.825579259804724163e-05 -1.488839210305380146e-04 -9.998565487470559843e-01 -9.991141188190381106e-01 1.000145744351598864e+00 -8.943114770767628162e-05 -1.000264479634253911e+00 -6.737475828240771931e-06 9.997612573420127102e-01 -1.000026849719321209e+00 -1.294638407745751416e-04 1.000040736454649526e+00 -6.517083214363201355e-04
1.169178424639599534e+00 -7.501932745919194512e-02 3.991690263419672702e-01 -4.384769553144447080e-02 2.628537167437554056e-01 1.747880988836686689e-01 -2.203765315653587187e-02 -3.633947853862102284e-01 -1.582165508511448326e-01 -4.090004517409296936e-01 -7.756084409019187165e-02 -7.734896110834051930e-01 9.030966780597181331e-02 1.524897379010751453e-01 3.712386718437601929e-02 -1.418549666847184199e-01 5.609483267756779634e-01 3.666031379993577866e-01 3.884623815245179246e-02 1.523859990004729475e-03 1.279723745706449478e-01 -1.570847985692899185e-01 -2.962258566570878937e-01 -1.521177303205142328e-01 -2.041318466195577164e-01 7.963903836175757756e-02
-1.068289697898111790e+00 9.984609742976409130e-01 -2.073745730597486778e-02 -1.028197669639419942e+00 -1.016521330292968983e+00 9.069009997611348073e-01 1.003445581141572562e+00 9.455405574671527091e-01 1.016343482668013110e+00 -1.038272087455704096e+00 9.150619633966865507e-01 -9.609130987072999064e-01 -1.032106324398538000e+00 -9.695416092723859736e-01 1.043184359336283729e+00 9.518007171380012954e-01 -8.965891731378846652e-01 1.048529730093577639e+00 9.411509083392156638e-01 4.592424122137794829e-02 -9.639436674535398764e-01 1.012064738311208245e+00 -9.765762580869934428e-01 -1.139840651935688509e+00 -8.806763518594813711e-02 9.273582829580550024e-01
-3.028614651778048228e-01 -9.086000262306879183e-01 7.778379049513913790e-01 8.004237855071685281e-01 -3.546290527579357837e-02 -2.713917231887152948e-02 9.834251991086342404e-01 -9.607502513243663944e-02 -7.651918878760927134e-01 -7.979290593180169422e-01 -7.833381634306426644e-01 8.929844638392073763e-01 8.765411042194199975e-01 6.436892791627199517e-02 1.605360428389636940e-01 -1.184999142213367440e+00 -1.151180903045923888e-02 -9.524669844612470015e-01 -6.541829201363945634e-01 -6.565361626136445583e-01 -7.870360651634399352e-01 9.035341577979084660e-01 8.096452996926352119e-01 -6.339336755599955797e-01 9.460218459789719592e-02 -7.833496889510245254e-01
-3.185840779077399321e-02 9.762098557296469137e-01 -1.593877508977215680e-03 -1.720212256768467382e-02 -9.992265062975652645e-01 -9.996967787314453568e-01 -1.005891061557356858e+00 3.655877784374092238e-03 -1.000382710220387938e+00 -8.574563293070826611e-03 9.913828313116740398e-01 -2.575179187973856976e-02 -9.521668697444012341e-01 9.917345042526166665e-01 9.764356397175797397e-01 -2.450686460882758961e-05 -2.387791377835158345e-03 -9.971447686610127592e-01 2.107375182487475037e-04 -9.918115384529839762e-01 9.867557009334596563e-01 9.242718317221423202e-03 -3.255624074263352430e-02 9.978411454886682019e-01 9.779386100362361667e-01 9.863553682157126801e-01
-7.622752476262895094e-01 4.036056133641715421e-02 3.386116334009499629e-01 -4.078882562524833721e-01 1.316543520643056020e+00 7.562548987652399912e-01 -6.905829432088309572e-01 1.276619342669166601e-01 1.173709405454633092e+00 -8.010025289556413908e-01 3.589723296006867015e-01 1.197802811000350687e+00 -1.126798577458071771e+00 -2.179788151325313117e-01 5.936044787365337555e-03 6.100805613533900607e-01 -3.617976565652487597e-01 1.203837795439039349e+00 6.253798814472146805e-01 -2.563120696213236904e-01 -7.038846488529932888e-01 6.210890085318890863e-01 -1.044943922955280824e+00 1.150298296336729420e+00 -9.450964090326766653e-01 9.997626391683653857e-01
4.341847785423974537e-01 -3.009818273335649330e-01 1.096592089561676531e-01 -2.286916887008174082e-01 -3.153831163432997409e-01 3.757508726879551508e-01 -3.381457420472269715e-01 7.466886395138975230e-01 2.653172345756195094e-01 1.505794061485286883e-01 6.682705396102842643e-01 -4.728565809556043442e-01 3.011454497079860682e-01 8.730300316053742904e-01 4.750108537581108070e-01 1.604638067493683873e-01 7.312640924585922519e-01 -1.672596441998483119e+00 -1.746613496376673846e-01 3.784776358687019227e-01 1.322566997256196419e+00 -7.554052074068754452e-01 5.376973811994008035e-01 -7.855841194389482363e-01 -8.861247610508174999e-01 -2.059915130181094040e-02
-1.104248672108592677e+00 -9.829892301231704099e-01 -8.573275601354871656e-01 1.276261439536522602e+00 -3.904622510950300218e-01 -9.671937514974773276e-01 9.741167383290355586e-01 8.519953899035683786e-01 -8.024151136688640884e-01 -7.971910942444973003e-01 9.723028164673326312e-01 8.745552897176976925e-01 -1.361065597835010577e-01 -9.887924560608699065e-02 9.191656379945301047e-01 -1.265661426624491159e-01 1.011807518934742856e+00 2.307760719675645486e-02 -7.993318257327099996e-01 6.196140528521251190e-01 7.611846001153422803e-01 -8.881909030860699605e-01 -3.808446023782480205e-02 -6.812278081334832702e-02 -8.766101578988296783e-01 -2.748850785158091226e-01
-5.613905500550365330e-02 -2.132259646048800675e-04 -1.354020806736874472e-01 -5.998065046084156693e-01 -3.601635015162129444e-02 -6.961426052599985204e-02 -5.177295311435107898e-03 -1.320116870624292171e-01 -1.689760026160977424e-01 -2.255303900079256851e-01 -1.045545091367872798e-01 -2.603855254871801847e-02 -3.822086927452623961e-02 -1.302406404803707340e-01 -7.715383607113035502e-01 -6.022397644241962028e-02 2.892768669131871917e+00 -3.629746655921964327e-01 -1.832693117940752681e-01 4.656631944668782053e-02 -7.548034942390327573e-02 -1.730954870325385475e-01 2.278351518983632792e-02 9.107077725049637917e-02 -9.218789972479614347e-02 1.305105195467682333e-01
-1.502281401080893253e-01 4.558852736724939847e-01 4.794701393001335465e-02 -1.118341510772938169e-01 -1.192131462353844151e+00 7.888600334714582774e-01 -5.996877191983620431e-02 -1.201735944244989085e+00 -1.049825552008803592e-01 -1.085523609713113347e+00 4.741041884955850272e-02 6.483067798947123039e-01 -1.280142272803424186e+00 -1.107892161410491738e+00 -9.696982338386278544e-01 1.607269195322117705e-01 9.093907732127567423e-01 -3.348211278243772848e-01 8.954041899766536083e-01 -9.218609290592729710e-01 -1.019399929804487348e+00 9.845254678697863415e-01 -1.048701457654133362e+00 9.804219924343119397e-01 -1.737216703550985009e-01 9.231552568050148677e-01
1.000000012431509600e+00 1.651131243180949026e-08 9.999999574740076058e-01 3.548502880305026063e-09 -1.000000002175720271e+00 -9.999999814184474811e-01 -4.815934317692515975e-08 9.999999623645996483e-01 1.605936349667407895e-08 4.780749149687993259e-10 -1.000000018812648550e+00 -9.999999810289966762e-01 -3.368537869943256749e-08 -9.999999325992887655e-01 1.000000019971483800e+00 -1.000000017633631666e+00 2.053687944661467002e-08 4.439577737427492128e-10 8.486999955397594972e-10 1.000000009853873273e+00 -9.999999969634387753e-01 1.392039438923859023e-08 -1.000000036873915699e+00 1.497646871334257226e-08 -1.000000006226413829e+00 9.641916999020477130e-09
-1.050358641847798591e+00 9.569403637872779811e-01 9.617724697161638137e-01 9.647938970453499019e-01 9.610307069304443450e-01 9.526877239600952674e-01 1.513591195101988550e-04 9.808965901669501886e-01 9.706823724505831974e-01 -4.872617966987001850e-03 -1.000484011786954897e+00 9.881729258744482713e-01 -1.010336661446634476e+00 -1.023156751075037993e-02 9.818977738851257797e-01 -1.017895192997035236e+00 -1.007359828274422053e+00 9.707635917717900575e-01 -5.025872779565000725e-02 1.024622384942110553e+00 9.647466013936292217e-01 9.670043228121968371e-01 9.696673706993695907e-01 -5.006302192625012443e-02 9.762279851739561476e-01 9.997511625383028733e-01
9.999999986017995557e-01 -7.145568110905834140e-09 6.233267107726163289e-09 -9.999999870170843685e-01 1.002652265146165983e-08 -1.000000001536651917e+00 1.000000003550898686e+00 5.406043652489876098e-09 9.999999959431270513e-01 -9.999999981929666992e-01 2.082924471473273540e-09 -9.686244678121848788e-09 -9.999999915492373548e-01 -1.000000008866198220e+00 -5.689440008392505829e-08 1.000000005469971587e+00 -1.352930935447008578e-08 -9.999999962557565292e-01 1.000000005925967272e+00 -9.999999956986157512e-01 1.239292375045601950e-09 8.608001265927271329e-09 -1.000000001056233101e+00 -1.000000001283456896e+00 9.999999999415792873e-01 1.000000006310155287e+00
-1.095984392974018867e-01 -1.239447594617322512e-01 7.331706805266204885e-01 -6.192286703471325815e-01 -2.943161467373481277e-01 1.518871547004818634e-01 1.019271881829201115e-01 -1.376554717727911603e+00 -2.663676557947917689e-01 -3.716640584723900353e-01 4.535323155621917568e-01 1.108064817223162885e-01 -9.485796289998854602e-01 8.740417025744925406e-01 -5.145420030580206694e-01 1.560839390253276372e-02 3.047820711191049359e-01 8.402180843039698255e-01 -5.828163834569728696e-02 5.581663755257798565e-01 1.961806501794423507e+00 1.054064053468989071e-01 1.043713021573251520e+00 -8.002287065933900712e-01 1.666168204186278812e-01 -5.418959951358941207e-02
7.687198601279263133e-02 7.867786535743646059e-01 -8.926496377022862250e-01 7.100170814703996580e-01 4.983490650776833397e-01 -2.476535487558284843e-01 -1.194203439115931603e-01 9.570895503709130336e-01 1.348562629228884126e-02 6.753385553557921250e-01 9.874153113492805112e-01 -8.399405321944269920e-01 6.271558497581858349e-01 -6.581730990349857202e-02 8.888785630071679433e-01 7.217108086942073397e-01 -9.721929025145762404e-01 -9.453989188327064364e-01 8.161234987728726020e-01 -8.951540261725161526e-03 1.104096202052732428e-01 -1.236928157740035117e-01 -2.567067109714047876e-02 7.229127137845617890e-01 -1.207131842117182607e+00 -3.495131082098861808e-01
-1.000000248313340778e+00 1.325858324717984563e-07 -1.000000167502568038e+00 -1.073127117410505438e-07 -9.999997193668171969e-01 -9.999995831576357075e-01 1.000000264300099584e+00 -1.000000605898109018e+00 -9.999999935440112564e-01 -9.999998501450116928e-01 -1.000000119359049977e+00 9.999998531716857153e-01 3.337705961203346836e-07 -1.000000096294248131e+00 -9.999995607374694284e-01 -1.000000144364959986e+00 1.171784062435160522e-07 9.999996983961686459e-01 -1.000000014349095023e+00 -1.381827674850593092e-07 -7.514880371738611763e-07 -9.999998129783310707e-01 1.312148567529082451e-07 9.999998944388598376e-01 1.000000121160039335e+00 1.000000097585426406e+00
-1.036858335198033609e+00 6.406708909224645421e-02 -1.017933620937758521e+00 -9.637758872150065104e-02 2.286929046472748871e-03 -9.954327957387231196e-01 -8.742169401769458448e-01 1.003759001655898375e+00 -1.272794347263335457e-01 -8.641735490036959177e-01 -2.853558641296295023e-02 -1.807944513577562640e-02 -9.186602280158913114e-01 2.771498401579432919e-02 -9.356625185900421249e-01 -9.650316044429250173e-01 -1.455478538849155901e-01 -9.486646622617159741e-01 9.937900836437321139e-01 9.612747513755015571e-01 -1.265633287466579916e-02 2.342729442895386156e-03 9.001416709556749884e-01 9.538720421273315653e-01 -1.020598905602563944e+00 -9.067350861448608690e-01
-1.099799732642942507e+00 -9.595290395193339927e-01 -4.355336378865745650e-02 9.939473744719490300e-01 -5.598415214293612358e-02 -1.040232685652841660e+00 1.034140883027314439e+00 9.965665176361707678e-01 -1.037130824834857190e+00 1.007812062000152276e+00 -2.894371708146721220e-02 1.006154856865357106e+00 -2.838540212981134625e-02 -2.385266348002767003e-02 -9.639914738168759989e-01 5.895655787635871101e-03 -1.004522099801008705e+00 -1.013843754587784529e+00 -3.692262171563698292e-02 1.011772576519862854e+00 -1.322221074657089698e-02 -9.734346059118591521e-01 -9.875530753694684583e-01 -1.054477387371447694e+00 9.560334786157315135e-01 1.000005162070497722e+00
-4.566413047685528581e-01 -1.917440302860863033e-01 1.134475267524368419e-01 5.369182215534074043e-01 -2.005262122996760155e-01 -5.444330177493349465e-01 -2.266145284129508775e-01 1.166966908635145517e+00 4.742200092340604911e-01 -2.790356638662085942e-01 4.067638778717701520e-01 1.344673164935854537e-01 5.443125410577920320e-01 -5.258375315792706006e-01 2.905582030463444987e-01 8.512385594822560186e-01 -1.308528420630021283e-01 1.608820399857959105e+00 -1.587224030244323847e-01 7.280877826465095293e-01 3.089245095681540376e-01 -3.543783304776442211e-01 3.803782184173405412e-01 3.277351897277276382e-01 -3.732328890508596619e-01 -3.323415574987107934e+00
8.853711028748453282e-01 -9.277051247091879782e-01 9.511883884606360251e-01 -2.332542560616063937e-04 9.399424025039719854e-01 -9.649806224606937155e-01 3.463443224825297345e-02 -9.794636409247593489e-01 9.338245861901874889e-01 -2.164570087306564791e-02 -9.721321916012796160e-01 -9.785810196582268583e-01 9.175747094763353484e-01 -3.694051543124947379e-02 -9.201283975145209126e-01 8.829835518212207912e-01 1.527554249580960477e-02 -9.785510048505055014e-01 -1.138721676663104546e-03 -8.855263233219843322e-01 -1.025338270847215849e+00 -8.911563991573133447e-03 9.681995580106582677e-01 -1.407401527817704959e-02 -9.912673932242652697e-01 1.003538286643456567e+00
-1.006708325646636037e+00 9.898165340646849497e-01 -8.883587784756279138e-03 -1.009106103771919338e+00 9.963667497230837000e-01 -9.838019273158137290e-01 3.678509656592642615e-03 9.957467659110627034e-01 9.977237126245290799e-01 9.984760026945841416e-01 4.569545445744932228e-04 9.917727099289278536e-01 9.973076141695828012e-01 1.003147802591294768e+00 -9.275352295359189092e-03 9.921282209099776539e-01 -1.008120837494033806e+00 9.800137220439819608e-01 -1.018079157635953358e+00 -9.999698455933931918e-01 -1.075272738710922327e-02 -9.906759798328605704e-03 9.889327569258332673e-01 9.581343757452605026e-01 9.880914437533895311e-01 -9.821515214643543601e-01
-9.791769825871132760e-01 1.040265805056095560e+00 -9.609511593002377783e-01 5.486024044660915006e-02 7.470859762468062826e-01 -6.292846947995886508e-02 4.328934530773152420e-03 8.868613818056632070e-01 -9.712886367016705380e-01 8.117664863492191074e-01 -9.734763193645034063e-01 -9.591882635720123673e-01 1.723828768676150675e-02 -9.919784902683047301e-02 1.021191201621803879e+00 -1.432995685391775208e-02 -9.346502101984228705e-01 8.824213323008719412e-01 -1.004841766155309957e+00 -9.152570992266071404e-01 1.136493353441583753e+00 8.730923280614982795e-01 -8.878643111350701389e-01 -3.922099715199180159e-02 8.416589753814195385e-01 9.087243890490568354e-01
4.941438856274585345e-01 6.675071832688215245e-01 1.923526071092644396e-01 3.997365498373535164e-01 4.949207903199585590e-01 -1.000679045012550783e-02 6.266497551546048594e-01 -1.975064887095572819e-01 -5.297911370513734841e-01 8.965989836922133582e-01 -2.359497370851774273e-02 -8.932549112230011579e-01 -5.100283203563032997e-01 8.953790401110732489e-02 -9.392453141484372603e-01 -9.705275962698075576e-01 7.583600714952755117e-01 7.336631372338343893e-02 1.055262970454065474e+00 -6.278835762892641670e-01 9.717259045350034041e-01 -3.617364769392226176e-01 -8.899555251472055506e-01 1.569992775565881571e-01 -9.755684414832554996e-01 8.947400833779551865e-01
-3.673571148376859885e-02 -4.264231111148967801e-01 -1.064764092063193342e-02 -7.710549883890814582e-02 5.855919082831902156e-02 -5.287329032837073672e-01 -4.101962703082933093e-01 -4.448898528077953607e-01 -5.120570511843318684e-01 -2.226934219928132508e-01 6.129383493083988554e-01 2.012916057768466757e-02 -2.656122271606469604e-02 -1.995730331975234251e-01 -1.488232880603815034e-01 -1.208544622746213909e-01 -8.774452002447510890e-02 2.934065166335909414e+00 -2.034029611111593527e-01 3.719467936598774838e-02 -1.261333419993971305e-01 -2.901186976014044627e-01 -8.388844014182812725e-02 2.810351562667273151e-01 -2.620861692038977675e-01 -2.756133471619396369e-01
9.323360134381357689e-01 -4.522394719810851615e-01 5.782220731638330058e-01 8.158840717314426172e-01 8.466614299822884382e-01 7.572802544612775577e-01 -9.073304929300962662e-02 9.114718265611921888e-01 -1.148727282627506119e+00 -1.201976372339276899e+00 -1.041256759774903173e+00 -3.737207215769143276e-01 8.517676821841400070e-01 -1.747831126025173321e-01 7.491507123544917102e-01 -6.614379470108504300e-02 -9.139367490535528216e-01 3.021328035048043148e-01 -9.658036670297274195e-01 9.287463085049995071e-01 8.315288274597760765e-01 -7.097891008393969470e-01 -1.050237800572416003e+00 -1.779872387767996722e-01 9.041199751944503094e-01 9.987659898092734467e-01
8.803537425257440541e-01 1.024280055445734972e+00 9.736680870133164190e-01 -1.003279206805624657e+00 -4.774119769329879942e-02 -1.013293007290641423e+00 -9.707273609386789515e-01 -1.004115188013410709e+00 -3.640765454783194410e-02 4.480795246984542284e-03 9.335833657417805798e-01 9.914441193028397104e-01 9.604996949809657680e-01 -1.021523549130735731e+00 -9.452113293420691953e-01 -1.021563530303217782e+00 1.014111740858169464e+00 9.847461312962152435e-01 9.980320566434519591e-01 -9.647421220419943877e-01 9.716295430940301570e-01 9.938701603743872459e-01 -3.318656467159907669e-02 -6.006830484252058400e-02 9.886711803272685284e-01 -1.107220828014061562e-02
-9.999999490529490886e-01 -1.000000048019318299e+00 5.437876329243756982e-10 -3.668470413736722962e-08 -9.999999818725744394e-01 -1.000000028350696457e+00 -7.644638209782291304e-08 -1.000000065470579180e+00 9.999999296234334256e-01 1.065861123139453900e-09 -6.087233073325505640e-09 -1.000000054088163948e+00 9.999999787467195311e-01 -9.999999562851685786e-01 -9.999999936496398734e-01 -9.999999897984871433e-01 1.000000041670955797e+00 -8.519938639963785193e-08 -1.000000018267369173e+00 -5.889754791998326965e-08 9.999998862974558422e-01 -9.999998336788914477e-01 -9.999999357596635052e-01 1.000000004340563686e+00 9.999999782908475243e-01 -1.890817755692863603e-08
6.357749834658477095e-02 -7.595269767437584640e-01 3.969127463695721891e-01 -6.563842736519272247e-02 2.233320498368057960e-01 -1.874898871188405702e-01 1.642809378889200159e-02 -8.860081834107726151e-03 -3.919117967984692141e-01 -3.754666931284200149e-01 1.724226522335419454e-01 -6.004854413764455501e-01 -3.898045703790163352e-01 -4.950465703193112632e-01 -8.081854811731339905e-02 -2.421159668476669247e-01 -1.247948102821679339e-01 -1.142459069241028025e-01 2.155374701665015102e+00 -1.970567558472174075e-01 -3.567508858105800096e-01 -8.522802352146651161e-01 -4.298820881607257616e-01 -3.143859013143996961e-01 -3.134372573895259362e-01 -4.925229307956726643e-01
1.028094636106400728e+00 1.328911447438725357e+00 6.969060987653424855e-01 -4.511292829585878406e-01 -8.689809822010408080e-01 2.417949675124797804e-01 1.141680864497305770e+00 -1.182407364487336299e+00 -6.509501814805127573e-01 -2.575351773231794594e-03 -9.701681176494194592e-01 -5.652316238641353907e-01 -9.820368234116635398e-01 4.022533484002310811e-01 1.828488658138305023e-01 3.149059676435831540e-02 -7.493034839177088458e-01 1.239372962332137007e-01 7.789422983369844733e-01 -9.872399414255781380e-01 -1.139947521085072468e+00 2.657620494922995902e-01 -1.159738563923880417e+00 -7.092372085175234486e-02 -1.065230997752336872e+00 -1.916626015751698442e-01
-5.437353707437425632e-01 -5.207521449131657931e-01 7.199314140215243851e-01 7.911549566560129865e-01 7.638699288289398925e-01 -6.115204692881921478e-01 9.459941594592158332e-01 -3.060038509136298934e+00 1.762376163266206608e-01 9.774286144175411972e-02 -7.071277088900507213e-02 -5.924080028540211762e-01 7.538612030256575114e-01 7.274108714916087681e-01 -4.260288762298303222e-01 9.219984991740050317e-02 7.816801211281858286e-02 -1.954366415761584486e-01 -4.573119932711269264e-01 -6.314761380774105426e-01 -5.450243254276292415e-01 -2.720537471092998039e-01 7.431366713448947503e-02 -7.265721325673800413e-02 2.849637883703293184e-01 -5.553049589878823467e-01
-3.595483596087047790e-02 -3.726020453792747156e-02 9.176664109879307807e-01 3.560230396716269896e-02 9.910435143428297788e-01 -9.691931932665849292e-01 9.893789923800889730e-01 9.719107298409362938e-01 -9.017082326211615095e-01 7.813744508748754480e-02 -9.942948493737017168e-01 1.653873700240387698e-02 -9.147460407916153668e-01 9.520416869196703935e-01 -8.901010023772185642e-01 2.132623588992146185e-02 3.353610208801974940e-02 -1.185640651593124345e-01 -9.455215805020374953e-01 -8.219616856285200113e-01 1.036360840535415440e+00 3.204673088867730779e-02 -9.810344883055707177e-01 -1.252959598954909715e-01 9.148265398221068212e-01 9.798221789801229153e-01
8.551686043962475336e-02 -8.722992938957715436e-01 -1.580647635876687995e-01 -1.959396612595756121e-02 -1.550924622378146121e-02 -1.866498114719801760e-01 1.195240951038006871e-01 1.725271057104414529e+00 -5.023939844448676029e-01 -5.045205058348134486e-01 -4.690511900461275530e-01 9.827798204969614981e-02 -3.811076502608169991e-01 1.562500014311426044e+00 -4.822274509635171014e-01 3.524582740958561167e-01 -2.379087205973522134e-01 1.857313075516157652e-01 -1.556472073786751772e-02 1.733253401681532635e-01 -1.146238021166644805e-01 -4.416321580080446313e-02 5.494629083208660975e-02 -2.140328007921828979e-01 -2.976726909844752966e-01 -3.317594954993616230e-01
9.637390564227852341e-01 -9.833795210371860662e-01 -1.035806775020061909e+00 -1.113375124198689829e-02 -2.835717052972747815e-02 -1.012090942116632197e+00 -3.311636007065350829e-02 -9.972608376224892934e-01 9.351716951748236806e-01 9.793328459470328484e-01 9.674890111289582428e-01 9.134371445925706587e-03 9.793923764633875040e-01 9.853239770507646877e-01 -9.940993786343216287e-01 -3.922955470501417186e-02 -1.036565416556190389e+00 9.590076957216013831e-01 9.247866361312130357e-01 -1.031898132599964768e+00 9.519534133399684128e-01 -1.010826652725115959e+00 -5.032800218145090654e-02 9.436367854026994628e-01 -2.752304504123922677e-02 6.243535521280337182e-03
3.432137789733438749e-01 9.390762533060799389e-02 1.716772525107342073e-01 9.326720632722901305e-01 8.319992795518937889e-01 5.685031497692640823e-01 -2.316614624804525652e-02 5.726856476766751802e-01 -5.540143762625830970e-01 3.866415433600239870e-01 -1.350259860514162247e+00 7.381293936704554914e-01 7.924177805855460166e-01 -4.691807275365712515e-01 3.380758105266332691e-01 -8.816018474345086453e-01 -1.495871250081617809e+00 -3.599318023315051795e-01 7.872839082454939907e-01 -8.019076722453422068e-01 -2.427349302511957740e-01 1.119318286074351576e+00 9.287130630623131877e-02 1.578529672532823780e-01 8.589904256378771974e-01 3.859348399351406056e-01
1.253625463357764147e+00 6.508787827329197695e-01 2.758175229755910687e-02 -4.298526372290267794e-01 1.292346668833951190e-02 -1.067863799966796978e-01 9.427482449881746662e-01 5.239821534058053398e-01 5.246594484865038099e-01 6.833655181238266207e-01 -4.510538711412925839e-01 -7.145733398844142381e-02 -9.589288179708537196e-01 -7.734991753933413428e-01 2.833667009506521950e-01 1.101364638508566147e-02 -1.688239539598677952e-02 5.924770149088516291e-01 -7.320354848139820625e-02 -4.119251004154743656e-01 -1.205304452319015507e+00 -1.454317286763798789e-01 -8.927125496593141252e-01 -6.126714487701976353e-01 -6.532902466163903465e-01 -5.849790736425354298e-01
9.874162273908321241e-01 3.098297836637615155e-01 2.120258557571639002e-01 8.654540251493253455e-01 4.053498892256785502e-01 1.255572998018538167e+00 1.139742024854464519e+00 3.033508105400224975e-01 9.102460403782546283e-01 9.336709636413935698e-01 8.206508963130235146e-02 7.157128814665707495e-01 -6.208000808185464292e-01 7.362691292088248129e-01 -7.343512418047584145e-01 1.526570568026906216e-01 -5.924652538298990079e-01 -8.100844721348784416e-01 -9.583204153633073652e-01 -5.749048733987416337e-01 -2.441250211357158806e-01 -5.587483413213956140e-01 -2.307018583477689899e-01 2.273354511012338763e-01 -1.397441258361919736e-01 -6.339598895712018622e-01
-1.137443644883495697e-01 -9.872218584166129185e-01 -9.806107034948616796e-01 -5.365445895393432252e-02 9.362353768758447936e-01 -3.098515205003273681e-02 9.665149684662063256e-01 3.086436757347529002e-03 -4.361718708711530279e-02 -9.111365684397714215e-01 -1.010786011578629351e+00 -5.313473243289765918e-03 2.630271411779990659e-02 -2.653644431606237003e-02 1.174917225812062947e-02 -9.882848551472727117e-01 -1.000624681643633940e+00 -9.988104260384146338e-01 9.417853421200886865e-01 -8.479332876667038388e-01 -9.717520210799912572e-01 1.847767044297577918e-04 -2.139917089723012734e-03 9.998892793203812968e-01 -3.938929011421841292e-02 -1.051652351799854612e+00
8.832444637657477227e-01 -1.617944218884231899e-02 9.417704467919756350e-01 9.864500950173440419e-01 -1.031157018416352322e+00 -1.512752060403718072e-03 -9.692557412719873255e-01 -9.881969669732659778e-01 -1.032487301195624374e+00 1.002986595978115014e+00 -2.797250327669377826e-02 -9.923088121634990877e-01 -1.800676652297768937e-02 -9.988452341314730809e-01 5.550334387844443884e-02 -1.015106606449117876e+00 1.017914907161440397e+00 -1.001476520183417040e+00 9.620534526759663141e-01 2.735840126942703371e-02 -1.465045709568361422e-02 1.011874342425616025e+00 -1.022041545165593313e+00 -7.449987464956936423e-02 -1.627606275864090790e-02 1.016910104884210853e+00
-9.717720040385461333e-01 8.685824396346018481e-03 9.829478365357461334e-01 -8.964327111715814089e-01 -1.022909055341650442e+00 -1.004703362749369111e+00 -1.054247102985967466e+00 -9.872473004634694238e-01 9.909746460985789929e-01 9.422724724416686737e-01 1.035114087759510637e+00 9.824984180698843605e-01 -2.962859899512589740e-02 1.837077633159462861e-02 -1.031157521970873736e+00 -4.374856060364656907e-02 -1.676596184751809326e-02 9.966585727886307922e-01 2.305673150423697901e-02 1.276959796334226462e-03 7.904213120411638499e-05 -6.637524521131476195e-03 -1.011488434403815306e+00 9.976675222452873193e-01 -6.870946141757728991e-03 -3.833150634341332295e-04
-1.547020040285923987e-17 6.283939907574504732e-18 -3.403601189977025394e-18 1.000000000000000000e+00 1.094202195743582124e-17 1.000000000000000000e+00 -1.000000000000000000e+00 -1.000000000000000000e+00 1.393303863284706207e-18 -1.000000000000000000e+00 1.000000000000000000e+00 -1.000000000000000000e+00 -1.397324681065814776e-18 -1.000000000000000000e+00 -1.000000000000000000e+00 -1.000000000000000000e+00 1.000000000000000000e+00 -1.730584254560110077e-17 1.000000000000000000e+00 -1.000000000000000000e+00 -1.000000000000000000e+00 -1.000000000000000000e+00 1.000000000000000000e+00 4.900889675987605830e-19 -1.000000000000000000e+00 -1.000000000000000000e+00
-4.279781296308390881e-01 1.839270423654993381e-01 9.225370641690563422e-01 8.168420640491085294e-01 1.068027357391180487e+00 -5.178016363257113147e-02 2.717126908354140502e-01 -8.517373054365173779e-01 1.071543672322132990e+00 -6.865744100895367907e-01 -2.010926017326432613e-01 -9.094110621793937144e-01 -3.158697643539186695e-01 -2.468780581002933683e-01 3.713576047385298839e-02 -1.207123861755041938e+00 -1.046291210905433200e+00 -1.796390689840873522e-01 8.013619507455540525e-01 9.702764383162287842e-01 -9.972495932122452666e-01 -4.391343404384907556e-01 -6.214080083483169460e-03 -7.954421570146512355e-02 -7.824415063497029976e-01 -9.895138845852893827e-02
8.958873918237507672e-01 9.447711722183457228e-01 -2.629441717934042494e-02 9.436235824126348870e-01 9.026533142772975582e-01 -3.042957357938451748e-02 1.029793486742719200e+00 2.391656850627091324e-02 1.765503870767494085e-02 1.775980324826278642e-02 9.736654774985129546e-01 6.953889365539263345e-02 -9.694178738819791974e-01 1.005729262159829718e+00 -3.301168888071235458e-02 4.141244518316844481e-02 1.013888051794056500e+00 9.816638220036164597e-01 9.566653960340381069e-01 -9.607754757807080992e-01 -9.688060525035052661e-01 1.012753730325473889e+00 -1.012281544638277131e+00 9.415546507393749431e-01 -6.486724233411478302e-02 -9.428351459817717606e-01
7.304793572432586313e-01 9.705457110131712195e-01 -1.186625623713831068e+00 6.198514453353747289e-01 1.539968347879131227e-01 8.834529762685585652e-01 -1.024445080651082973e+00 1.021063146824717216e-01 -7.866064673870700741e-01 9.567173415947405335e-01 1.514595234931176704e-01 -1.057488182951719091e+00 -8.775088145413134644e-01 -9.178985782081144906e-01 2.360729822761419572e-01 1.012105358723076165e+00 -6.951360825978347702e-01 8.651990680419641144e-02 -4.927598533196546060e-01 7.806450394784347768e-02 8.235050389627674994e-01 9.262009029412049399e-01 1.273021307310032935e+00 -6.452399616479278510e-01 -7.808537309173866348e-01 1.120898514745254815e+00
8.709268503381685234e-01 1.109768065248770474e+00 9.414266547893566095e-01 -9.799806207537901104e-01 -3.369842252713882436e-02 -1.008296413610492381e+00 6.233885435777858364e-02 -1.022660960219031523e+00 -1.015823395998323164e+00 -9.545856467014905977e-01 -1.048224917126275635e+00 9.792909693394193926e-01 -1.064356109828908936e+00 -1.018672201487295981e+00 -9.840075282016630398e-01 -9.852611023827890779e-01 1.041140644084741274e+00 9.870385698707315747e-01 9.855460996877772883e-01 1.006146573805295930e+00 9.061742578332288023e-01 -9.734414706818719232e-01 9.510959613227212284e-01 -1.046921098778709203e+00 -1.545614907247116684e-02 9.834494347284705729e-01
-1.096260572971010872e+00 -7.169031607314955978e-02 8.682193188934536066e-01 3.246369898723475700e-01 -7.329287602562697401e-01 -9.741289988809145317e-01 1.030728054262324278e+00 1.576478585504939856e-01 -8.946144082595450242e-02 -1.336811637158563437e+00 1.180883737125386912e-01 -8.876005661313041140e-02 8.579882906516529406e-01 -6.739469398457609284e-01 -2.979650253285271999e-01 -1.177016156529900881e+00 1.021731641239092409e-02 1.243684342771217421e-01 8.906825936819058320e-01 7.400871517263836186e-01 -8.269444144797649665e-01 -9.293737478937299512e-01 9.131270030259872605e-01 -8.623089124435738828e-01 7.102621014424856938e-01 -9.972462676875895049e-01
-1.084704399407511975e-02 -1.037352433219418391e+00 2.489924122590306543e-01 1.100756094604340429e+00 -8.485975290622251865e-01 7.390327008230629380e-01 9.365441769720565801e-02 -7.627143503762421339e-01 -1.037871567041916077e+00 -1.030473068741604603e+00 -8.838680906903633172e-01 -9.469712274555410758e-01 6.923735949133459355e-01 6.440270807064584213e-01 8.434310592821947505e-01 -9.505724197672966724e-01 -7.773887044279990111e-01 -8.999726965041973115e-01 6.827270313534739010e-01 -7.654214710148848910e-01 1.876221298669742965e-01 -8.573947626511965181e-01 6.253319537087388413e-01 -8.783699938109974514e-01 9.024426470542651346e-01 8.705803294680772852e-01
8.147110971881996733e-01 -7.307527609448024597e-01 1.954081888235164460e-02 9.357216487930408721e-01 8.433949322664261450e-01 -1.516575643707582133e+00 -8.969696796432654606e-01 -2.732147052042533178e-02 8.761258410713029798e-01 -8.040606496848436979e-01 -9.320427047835440071e-01 -7.952191035385630657e-02 1.202274900637621130e-01 8.848892496089250104e-01 9.697565239603630483e-01 -7.233624212678052556e-01 6.557142126963808049e-02 -8.967390583275702820e-01 -2.541091532025466573e-02 1.577472317837956550e-01 1.002580020731763888e+00 -3.595235319523812367e-02 8.714209811029909325e-01 -9.043496601992742079e-01 -3.528200129838370697e-02 -9.391427329947801272e-01
-9.214190600683799248e-01 -9.738026980770239094e-01 9.060260505316135582e-01 1.160896492391439994e+00 8.827265997436217759e-01 -4.766178630851893722e-02 -2.543294207874527771e-02 -3.018116893300177780e-02 7.891725541433574076e-01 -9.921144937799547536e-01 8.640985246049628365e-01 -7.929460476199789174e-04 1.005346482072628334e+00 8.573952728914643329e-01 -1.124704164902966541e+00 7.638460035406728632e-02 -8.988784883637241929e-01 1.107521334843295069e+00 8.846773452534033577e-01 9.211341411916165178e-01 -3.645139971066234386e-02 -8.800219065284906605e-01 9.025712638431228063e-01 -9.089023251033864215e-01 2.328161595882850474e-02 8.805229424896876544e-01
7.880898036847264199e-02 1.438935009094887973e-01 -1.110647178573427762e+00 7.673590796472905262e-02 -1.414172856452347915e+00 4.460671745154745627e-01 8.922172554541352163e-02 -2.692513997054781782e-01 2.131479332516370562e+00 3.182420504117411397e-01 -1.699371275164957285e-01 -5.297215328036770643e-01 6.526168816606874312e-01 -5.859687860089531908e-01 1.468590421378016264e-01 -1.210096700226918065e-01 1.121594861990383579e-01 6.685102934221334725e-02 8.301302772330121371e-02 -5.866994083660991288e-01 -1.052383456831974123e-01 9.969583702441672801e-02 3.328448405570557100e-01 -2.661865103019724343e-01 -4.016854782181634720e-01 -3.314368307850366069e-01
-1.090126862013772957e+00 3.288606380962290354e-02 -1.045475771197149628e+00 2.021319180365389878e-02 -1.050579015407366201e+00 9.800069687526892226e-01 -9.514702892921087507e-01 -8.340599149266346435e-03 9.429064532092177320e-01 4.602185336370476568e-03 9.576171247038792744e-01 1.014739661238412083e+00 9.369739562486312234e-01 7.472976420892020986e-03 -9.621767143808915845e-01 -1.774365483712895056e-02 1.889951163795726766e-02 9.824354499277999642e-01 9.692543684650173352e-01 1.003951243295015283e+00 -3.348638901824658315e-02 -9.885416535846291985e-01 -9.854545729700813217e-01 9.549007088354293238e-01 -1.046894299847920262e+00 -9.787137903752395340e-01
9.372351484341037153e-01 -1.012436603242687694e+00 -9.851629068639820019e-01 -9.895104513092547460e-01 -9.772923499979648820e-01 2.056488180890752443e-02 9.916225988740186015e-01 1.033727600146739034e+00 9.907951557890587457e-01 2.803063132469454238e-02 9.447930384228677703e-01 1.055826677068272046e+00 -9.413328212347263357e-03 -1.003497756271789942e+00 -9.597638202014575626e-01 -9.714642826315824653e-01 -9.996215567275580360e-01 9.745144333945746640e-01 1.016863050192305939e+00 9.960582938600961445e-01 -9.909378094056973119e-01 -1.000773149636234205e+00 9.801169274806434961e-01 9.981391204146675689e-01 -5.118963948414685661e-02 4.549068156048633599e-02
